svm_type c_svc
kernel_type rbf
gamma 0.0003125
nr_class 4
total_sv 86
rho 0.472001 0.64695 0.113205 0.032736 -0.302143 -0.432054
label 1 2 3 4
nr_sv 20 20 21 25
SV
3.297193624477809 3.176749065588593 3.118550224615575 1:0.113321 2:-0.419216 3:0.284702 4:0.223326 5:-0.257386 6:0.944322 7:-0.375134 8:0.555642 9:-0.274064 10:-0.464005 11:0.87445 12:-0.564795 13:-0.650487 14:-0.891219 15:-0.734079 16:-0.77941 17:-0.576568 18:-0.45951 19:-0.00747208 20:0.428297 21:0.0596835 22:0.528233 23:0.894426 24:0.591273 25:-0.605082 26:-0.814972 27:0.902435 28:0.21384 29:0.99848 30:0.79647 31:0.956877 32:-0.888969 33:-0.838519 34:0.273491 35:0.979382 36:0.666803 37:0.613165 38:0.5893 39:0.239988 40:-0.768274 41:0.902453 42:-0.593976 43:0.631858 44:0.80928 45:-0.915646 46:-0.325489 47:-0.204784 48:-0.299688 49:-0.360775 50:-0.0745725 51:-0.814972 52:0.902435 53:0.21384 54:0.99848 55:0.79647 56:0.956877 57:-0.888969 58:-0.838519 59:0.273491 60:0.979382 61:0.666803 62:0.613165 63:0.5893 64:0.239988 65:-0.768274 66:0.902453 67:-0.593976 68:0.631858 69:0.80928 70:-0.915646 71:-0.325489 72:-0.204784 73:-0.299688 74:-0.360775 75:-0.0745725 76:0.242615 77:0.331592 78:0.0635812 79:-0.358291 80:-0.861745 81:-0.247637 82:-0.304306 83:0.0697416 84:-0.339052 85:-0.311906 86:0.507888 87:0.00702888 88:0.0422539 89:-0.42546 90:-0.236045 91:0.655323 92:0.349654 93:0.774308 94:-0.360965 95:-0.0224334 96:-0.0559006 97:0.54431 98:0.929666 99:-0.580797 100:-0.76681 101:-0.572856 102:0.639175 103:0.473642 104:0.75178 105:0.159585 106:-0.141306 107:-0.272402 108:0.323876 109:-0.00135869 110:0.0498657 111:0.53692 112:0.347924 113:0.0792304 114:0.0975451 115:-0.476147 116:0.528316 117:-0.261584 118:0.0522351 119:0.586949 120:0.304823 121:-0.207406 122:0.515972 123:-0.515325 124:-0.565363 125:-0.632001 126:0.173477 127:0.712003 128:-0.0421839 129:0.0302082 130:0.0469471 131:-0.493545 132:0.355149 133:-1 134:1 135:0.264781 136:-0.853843 137:1 138:-0.102427 139:0.64151 140:-0.980427 141:-0.259448 142:0.505943 143:-0.174952 144:0.650927 145:0.0243602 146:-0.508614 147:0.352294 148:0.264002 149:-0.22614 150:0.381608 151:0.173477 152:0.712003 153:-0.0421839 154:0.0302082 155:0.0469471 156:-0.493545 157:0.355149 158:-1 159:1 160:0.264781 161:-0.853843 162:1 163:-0.102427 164:0.64151 165:-0.980427 166:-0.259448 167:0.505943 168:-0.174952 169:0.650927 170:0.0243602 171:-0.508614 172:0.352294 173:0.264002 174:-0.22614 175:0.381608 176:0.479043 177:-0.697784 178:-0.548119 179:-0.670212 180:-0.899804 181:0.333604 182:-0.448759 183:0.217432 184:-0.475132 185:0.875387 186:0.868312 187:0.234059 188:-0.470844 189:-0.537249 190:0.4838 191:0.087528 192:-0.394369 193:-0.184942 194:0.744158 195:-0.123695 196:0.710843 197:-0.365571 198:-0.800566 199:0.627046 200:0.755541 201:0.210926 202:-0.526023 203:-0.0924386 204:-0.215816 205:0.388949 206:-0.500635 207:-0.0637664 208:-0.403354 209:-0.288815 210:0.279226 211:0.0786223 212:0.141871 213:-0.0896525 214:0.225984 215:-0.309702 216:-0.189116 217:0.486365 218:-0.649042 219:0.351175 220:0.0170933 221:0.170482 222:0.0666635 223:-0.227464 224:0.21937 225:-0.0556664 226:-0.555874 227:-0.29476 228:-0.508288 229:-0.755366 230:-0.797808 231:0.907951 232:0.0622907 233:-0.345516 234:-0.353758 235:-0.801577 236:-0.0537859 237:-0.833604 238:-0.890677 239:-0.137041 240:-0.152212 241:0.89075 242:0.298501 243:0.621273 244:0.441249 245:0.414884 246:0.375028 247:0.819634 248:0.947276 249:-0.433814 250:-0.622074 251:0.147522 252:0.108334 253:-0.171686 254:0.516214 255:-0.0164699 256:0.0323943 257:-0.377546 258:1 259:0.112619 260:-0.549398 261:-0.413776 262:-0.336875 263:0.1358 264:0.81387 265:-0.069303 266:0.205818 267:0.58366 268:-0.340075 269:0.156513 270:-0.175982 271:-0.25477 272:-0.354355 273:0.540332 274:-0.670729 275:0.26783 276:0.831123 277:0.760433 278:0.124725 279:-0.634764 280:0.601425 281:-0.102354 282:0.296869 283:-0.941888 284:0.444231 285:0.0422081 286:-1 287:1 288:0.943759 289:-0.655161 290:1 291:-0.573663 292:-0.519116 293:0.181092 294:-0.755978 295:1 296:-0.128037 297:-0.294108 298:-1 299:0.0512454 300:-0.82214 301:0.831123 302:0.760433 303:0.124725 304:-0.634764 305:0.601425 306:-0.102354 307:0.296869 308:-0.941888 309:0.444231 310:0.0422081 311:-1 312:1 313:0.943759 314:-0.655161 315:1 316:-0.573663 317:-0.519116 318:0.181092 319:-0.755978 320:1 321:-0.128037 322:-0.294108 323:-1 324:0.0512454 325:-0.82214 326:-0.469129 327:-0.524931 328:0.590794 329:0.524514 330:-0.500051 331:0.59638 332:-0.744599 333:0.430775 334:-0.681133 335:0.328242 336:0.855455 337:0.285752 338:-0.212668 339:-0.148558 340:-0.0110983 341:0.0350342 342:-0.213263 343:-0.352725 344:0.560182 345:0.224049 346:-0.337867 347:-0.353967 348:-0.041545 349:0.35992 350:-0.900124 351:-0.176426 352:-0.148498 353:0.376875 354:0.0796978 355:-0.074895 356:0.956696 357:-0.794731 358:0.228034 359:-0.48717 360:0.390751 361:1 362:-0.816607 363:0.686527 364:-0.239442 365:-0.212403 366:0.393434 367:0.368906 368:-0.299292 369:-0.511229 370:-1 371:-0.542559 372:-0.194289 373:-0.0798352 374:0.307727 375:-0.464237 376:-0.176426 377:-0.148498 378:0.376875 379:0.0796978 380:-0.074895 381:0.956696 382:-0.794731 383:0.228034 384:-0.48717 385:0.390751 386:1 387:-0.816607 388:0.686527 389:-0.239442 390:-0.212403 391:0.393434 392:0.368906 393:-0.299292 394:-0.511229 395:-1 396:-0.542559 397:-0.194289 398:-0.0798352 399:0.307727 400:-0.464237 401:-0.0658572 402:0.453746 403:-0.180642 404:-0.515148 405:0.147266 406:-0.74553 407:-0.0123156 408:-0.15931 409:0.0403108 410:-0.247941 411:-0.272266 412:-0.0622927 413:0.152373 414:0.0860594 415:-0.427426 416:-0.243825 417:0.00273699 418:-0.549268 419:0.46917 420:-0.0894235 421:0.0389967 422:0.546789 423:0.0950352 424:0.0922949 425:-0.166962 426:0.205409 427:0.753105 428:0.18027 429:0.577481 430:-0.521611 431:-0.570239 432:0.357219 433:0.250527 434:-0.318672 435:-0.0558495 436:0.757734 437:0.236725 438:-0.709935 439:-0.073562 440:0.64454 441:-0.2931 442:0.0809078 443:0.0711646 444:0.422804 445:-0.221254 446:-0.800304 447:0.766452 448:0.0480825 449:-0.584018 450:0.402511 451:-0.586598 452:-0.179306 453:-0.126295 454:0.0810095 455:0.842864 456:-0.356196 457:-0.0167501 458:0.465579 459:-0.670412 460:-0.411191 461:0.160131 462:0.200026 463:0.959407 464:0.294342 465:-0.325963 466:-0.212333 467:0.665901 468:-0.633127 469:-1 470:-0.698874 471:0.595527 472:0.84066 473:-0.718099 474:-0.0569468 475:-0.917214 476:0.0496374 477:0.589401 478:-0.108606 479:0.4339 480:-0.272225 481:0.755423 482:-0.119114 483:-0.507366 484:-0.0848971 485:-0.0555099 486:0.497424 487:-0.561607 488:-0.225697 489:-0.148089 490:-0.135993 491:0.0818879 492:-0.292794 493:0.297801 494:0.13232 495:0.0945538 496:0.253749 497:-0.126434 498:0.0337477 499:0.267889 500:-0.172296 501:0.5908 502:0.340539 503:-1 504:-0.476011 505:-0.370066 506:0.0991428 507:0.0159143 508:-0.0390003 509:0.0914481 510:0.00534332 511:0.357555 512:-0.378677 513:-0.073498 514:0.506791 515:0.96393 516:0.429854 517:0.150062 518:-0.567479 519:-0.485508 520:-0.94462 521:-1 522:0.507984 523:0.253541 524:-0.598856 525:-0.489079 526:-0.101736 527:0.211934 528:0.487186 529:-0.339818 530:-0.235852 531:0.816876 532:-0.531903 533:0.0812373 534:0.243046 535:0.214696 536:0.569866 537:-0.378606 538:-0.0599461 539:0.105415 540:0.0112448 541:-0.410986 542:-0.445199 543:-0.464717 544:-0.560752 545:0.0347659 546:0.524039 547:-0.0207433 548:-0.228085 549:-0.324679 550:0.159424 551:0.381787 552:0.24086 553:-0.167889 554:-0.170913 555:-0.436139 556:-0.383342 557:-0.147741 558:0.268853 559:0.280276 560:-0.451295 561:-0.626957 562:0.131663 563:0.0270859 564:-0.256537 565:0.00807859 566:0.11673 567:-0.0463192 568:-0.179156 569:-0.166397 570:0.325475 571:-0.200217 572:-0.320591 573:0.255334 574:-0.389346 575:0.351266 576:0.381787 577:0.24086 578:-0.167889 579:-0.170913 580:-0.436139 581:-0.383342 582:-0.147741 583:0.268853 584:0.280276 585:-0.451295 586:-0.626957 587:0.131663 588:0.0270859 589:-0.256537 590:0.00807859 591:0.11673 592:-0.0463192 593:-0.179156 594:-0.166397 595:0.325475 596:-0.200217 597:-0.320591 598:0.255334 599:-0.389346 600:0.351266 601:0.888578 602:0.499091 603:-0.536292 604:-0.223811 605:-0.264161 606:-0.51819 607:0.489118 608:-0.0507444 609:0.239416 610:0.314909 611:0.15702 612:0.321381 613:-0.0938783 614:-0.455625 615:-0.338184 616:0.339499 617:-0.0293476 618:0.112383 619:-0.839844 620:0.384928 621:-0.183781 622:0.719586 623:-0.613211 624:0.0887578 625:0.183932 626:-0.279541 627:-0.330431 628:-0.307418 629:-0.013216 630:0.0576344 631:0.803396 632:-0.499165 633:-0.404138 634:0.0993786 635:-0.480228 636:0.329326 637:-0.386518 638:0.630313 639:-0.296155 640:0.466527 641:0.0223597 642:-0.144051 643:0.198417 644:-0.497626 645:0.645621 646:0.0862921 647:0.799381 648:-1 649:-0.547699 650:0.978003 651:-0.279541 652:-0.330431 653:-0.307418 654:-0.013216 655:0.0576344 656:0.803396 657:-0.499165 658:-0.404138 659:0.0993786 660:-0.480228 661:0.329326 662:-0.386518 663:0.630313 664:-0.296155 665:0.466527 666:0.0223597 667:-0.144051 668:0.198417 669:-0.497626 670:0.645621 671:0.0862921 672:0.799381 673:-1 674:-0.547699 675:0.978003 676:-0.968781 677:-0.247166 678:0.298931 679:0.737458 680:0.0617607 681:0.937539 682:-0.0767341 683:-0.0870173 684:0.186983 685:0.354988 686:0.776787 687:-0.0229179 688:-0.339901 689:-0.122905 690:-0.1988 691:-0.223951 692:-0.257116 693:-0.147023 694:-0.104149 695:-0.285251 696:0.126965 697:0.0953755 698:-0.299426 699:-0.483414 700:0.0825528 701:-0.968781 702:-0.247166 703:0.298931 704:0.737458 705:0.0617607 706:0.937539 707:-0.0767341 708:-0.0870173 709:0.186983 710:0.354988 711:0.776787 712:-0.0229179 713:-0.339901 714:-0.122905 715:-0.1988 716:-0.223951 717:-0.257116 718:-0.147023 719:-0.104149 720:-0.285251 721:0.126965 722:0.0953755 723:-0.299426 724:-0.483414 725:0.0825528 726:-0.863086 727:0.3042 728:0.837045 729:0.92952 730:-0.601983 731:0.738131 732:-0.299283 733:-0.84128 734:-0.629061 735:0.650864 736:0.997076 737:-0.653672 738:0.397175 739:0.142356 740:-0.451964 741:0.529865 742:0.188317 743:0.0513359 744:0.617331 745:-0.614709 746:-0.0744164 747:-0.269019 748:-0.540462 749:-0.365079 750:-0.426145 751:-0.0452147 752:-0.841705 753:-0.00772612 754:-0.148742 755:0.41232 756:1 757:-0.772097 758:-0.884429 759:0.399695 760:0.605408 761:0.209289 762:-1 763:1 764:-0.302197 765:-0.77748 766:0.146032 767:0.836019 768:0.416007 769:0.618189 770:0.216166 771:-0.324921 772:0.449681 773:0.673947 774:1 775:-0.216069 776:-0.0452147 777:-0.841705 778:-0.00772612 779:-0.148742 780:0.41232 781:1 782:-0.772097 783:-0.884429 784:0.399695 785:0.605408 786:0.209289 787:-1 788:1 789:-0.302197 790:-0.77748 791:0.146032 792:0.836019 793:0.416007 794:0.618189 795:0.216166 796:-0.324921 797:0.449681 798:0.673947 799:1 800:-0.216069 801:0.207948 802:0.552466 803:-0.452986 804:-0.61938 805:0.371712 806:0.81166 807:0.425941 808:-0.694927 809:0.189477 810:0.386934 811:0.584746 812:0.206789 813:0.0860295 814:0.0107874 815:-0.0175343 816:-0.385957 817:0.362716 818:0.151633 819:-0.182666 820:-0.185442 821:-0.311962 822:-0.774196 823:0.482811 824:0.339885 825:0.635833 826:0.227169 827:0.1189 828:0.200184 829:-0.0125127 830:-0.148525 831:-0.697969 832:-0.310346 833:0.61839 834:0.324335 835:-0.10732 836:-0.726825 837:0.468469 838:0.0372254 839:0.139368 840:-0.177686 841:-0.0793751 842:0.27457 843:0.0846166 844:-0.0323194 845:-0.111007 846:0.340657 847:0.168349 848:0.403935 849:-0.342159 850:-0.347328 851:0.133698 852:-0.247388 853:0.504016 854:-0.523073 855:0.464686 856:0.703812 857:0.243851 858:-0.295171 859:-0.368547 860:-0.770285 861:0.275335 862:-0.442862 863:-0.123793 864:-0.485523 865:-0.48495 866:-0.0885658 867:-0.134585 868:0.0168912 869:0.0390518 870:-0.693425 871:0.302625 872:-0.708174 873:-0.149217 874:0.207808 875:-0.208143 876:0.443005 877:-0.258725 878:0.253244 879:1 880:-0.261236 881:0.344983 882:-0.59283 883:0.0238661 884:-0.0523029 885:-0.00676592 886:-0.882541 887:0.900898 888:0.395528 889:0.166906 890:-0.14093 891:0.197439 892:-0.275622 893:0.647645 894:-0.367817 895:0.836432 896:-0.513942 897:-0.471256 898:-0.057632 899:-0.134502 900:0.242651 901:0.581178 902:0.236369 903:-0.388112 904:-0.4764 905:-0.38381 906:-0.719596 907:0.389649 908:-0.228573 909:-0.199422 910:-0.12948 911:-0.207219 912:-0.172252 913:-0.137358 914:-0.42214 915:0.427833 916:0.369601 917:-0.109973 918:0.792919 919:-0.677258 920:0.245015 921:-0.423348 922:-0.000207973 923:0.23674 924:-0.455485 925:-0.0464725 926:0.489671 927:0.0117993 928:0.175285 929:0.359453 930:-0.112374 931:0.213271 932:-0.282173 933:-0.0955918 934:-0.277817 935:-0.340394 936:0.172793 937:-0.556602 938:0.14665 939:-0.462788 940:0.620873 941:0.0633002 942:-0.483869 943:0.939598 944:0.0790709 945:-0.18281 946:0.139291 947:0.129455 948:-0.105481 949:0.290525 950:0.0517578 951:0.468007 952:0.364535 953:-0.347032 954:-0.680364 955:-0.00556592 956:-0.714056 957:0.326938 958:-0.41793 959:-0.0742708 960:0.116314 961:-0.658003 962:-0.019915 963:-0.0609104 964:-0.100896 965:0.413711 966:0.0280089 967:0.0772661 968:-0.246099 969:0.253429 970:-0.00706197 971:0.0479405 972:0.346961 973:0.22733 974:0.0824277 975:-0.0963749 976:0.27486 977:-0.897745 978:0.0627409 979:0.059401 980:0.224338 981:0.269789 982:0.149181 983:-0.217915 984:-0.141175 985:0.454785 986:0.206858 987:-0.697159 988:-0.398929 989:-0.130734 990:0.300748 991:0.155799 992:-0.458106 993:-0.659594 994:-0.552499 995:0.794459 996:0.130229 997:-0.0858589 998:-0.43261 999:-0.114979 1000:0.701638 1001:-0.3832 1002:0.175387 1003:-0.640438 1004:-0.3496 1005:-0.0425226 1006:-0.795824 1007:0.765187 1008:0.348557 1009:0.0532544 1010:0.23345 1011:-0.235621 1012:-0.279215 1013:-0.266194 1014:-0.383469 1015:-0.506079 1016:-0.354369 1017:0.561879 1018:-0.375748 1019:0.543878 1020:-0.228539 1021:0.00403117 1022:-0.0063544 1023:-0.61228 1024:0.325368 1025:-0.438193 1026:0.331292 1027:-0.279403 1028:-0.421375 1029:-0.426914 1030:0.451466 1031:-0.668902 1032:-0.819396 1033:-0.480216 1034:0.274156 1035:0.753316 1036:-0.981452 1037:-0.174601 1038:0.702125 1039:0.32391 1040:-0.16461 1041:-0.353811 1042:0.165869 1043:-0.0430233 1044:-0.44328 1045:-1 1046:0.886525 1047:0.694817 1048:-0.33967 1049:0.0770479 1050:-0.311919 1051:0.208728 1052:0.450228 1053:-0.648748 1054:-0.920708 1055:-0.188233 1056:-0.0877912 1057:0.233292 1058:-0.639938 1059:-0.254902 1060:-0.904516 1061:-0.876319 1062:0.199816 1063:0.268726 1064:0.723086 1065:0.385089 1066:0.0788368 1067:0.193242 1068:-0.0294158 1069:-0.64901 1070:0.816292 1071:0.356539 1072:-0.161432 1073:-0.631687 1074:0.0752905 1075:0.0678432 1076:0.516671 1077:-0.259467 1078:-0.446844 1079:0.335562 1080:0.384141 1081:-0.192336 1082:0.0557706 1083:0.311028 1084:-0.0508971 1085:0.382843 1086:0.045587 1087:-0.221064 1088:0.0592395 1089:0.0695884 1090:-0.12473 1091:-0.165512 1092:-0.0338278 1093:-0.148435 1094:-0.0974336 1095:-0.0982928 1096:0.0594686 1097:-0.409434 1098:-0.258023 1099:0.237126 1100:0.222705 1101:0.180343 1102:-0.571201 1103:-0.212233 1104:-0.279809 1105:0.898461 1106:0.258124 1107:-0.301062 1108:-0.353955 1109:-0.300237 1110:0.128922 1111:0.0593693 1112:-0.180632 1113:-0.562383 1114:-0.298034 1115:0.283233 1116:0.792538 1117:-0.650722 1118:-0.137572 1119:0.269405 1120:0.774607 1121:1 1122:-0.667483 1123:-0.855086 1124:-0.441259 1125:0.30274 1126:0.0152928 1127:-0.692105 1128:0.312547 1129:0.0560446 1130:0.00468541 1131:0.27077 1132:0.0140621 1133:-0.0162516 1134:0.313623 1135:-0.098846 1136:0.346924 1137:-0.0866158 1138:-0.139929 1139:0.00190814 1140:0.284579 1141:0.0989374 1142:0.0079838 1143:-0.088917 1144:-0.195289 1145:-0.117165 1146:-0.452088 1147:0.300926 1148:0.146157 1149:0.0522626 1150:-0.483572 1151:0.0671982 1152:0.228214 1153:-0.642492 1154:-0.386612 1155:0.290476 1156:-0.213538 1157:-0.12609 1158:0.187257 1159:0.337595 1160:-0.773674 1161:0.409536 1162:-0.163967 1163:-0.250415 1164:0.631199 1165:-0.494238 1166:0.574045 1167:0.0465007 1168:-0.551425 1169:0.603382 1170:0.270408 1171:0.105314 1172:-1 1173:-0.297557 1174:0.106311 1175:0.38641 1176:0.0671982 1177:0.228214 1178:-0.642492 1179:-0.386612 1180:0.290476 1181:-0.213538 1182:-0.12609 1183:0.187257 1184:0.337595 1185:-0.773674 1186:0.409536 1187:-0.163967 1188:-0.250415 1189:0.631199 1190:-0.494238 1191:0.574045 1192:0.0465007 1193:-0.551425 1194:0.603382 1195:0.270408 1196:0.105314 1197:-1 1198:-0.297557 1199:0.106311 1200:0.38641 1201:-0.157123 1202:0.650147 1203:0.542835 1204:0.976403 1205:-0.0450972 1206:0.495091 1207:-0.898822 1208:-0.375522 1209:-0.254728 1210:0.622245 1211:0.992341 1212:-0.500279 1213:-0.280302 1214:-0.230881 1215:-0.308615 1216:0.162327 1217:0.318163 1218:0.527579 1219:-0.498147 1220:0.12865 1221:0.0303767 1222:-0.166532 1223:0.313773 1224:0.393456 1225:0.214467 1226:-0.842475 1227:0.0843649 1228:0.286656 1229:0.957847 1230:-0.243118 1231:0.749172 1232:-0.152244 1233:0.0674972 1234:-0.170305 1235:0.366253 1236:0.854082 1237:-0.0327744 1238:-0.0849397 1239:-0.293463 1240:0.198936 1241:0.181423 1242:-0.377041 1243:-0.178017 1244:-0.435746 1245:-0.535665 1246:-0.549162 1247:-0.115414 1248:-0.0365512 1249:-0.326449 1250:-0.0191785 1251:-0.842475 1252:0.0843649 1253:0.286656 1254:0.957847 1255:-0.243118 1256:0.749172 1257:-0.152244 1258:0.0674972 1259:-0.170305 1260:0.366253 1261:0.854082 1262:-0.0327744 1263:-0.0849397 1264:-0.293463 1265:0.198936 1266:0.181423 1267:-0.377041 1268:-0.178017 1269:-0.435746 1270:-0.535665 1271:-0.549162 1272:-0.115414 1273:-0.0365512 1274:-0.326449 1275:-0.0191785 1276:-0.0134095 1277:0.258401 1278:-0.354311 1279:-0.189576 1280:0.377981 1281:-0.651986 1282:-0.00116283 1283:-0.0451045 1284:0.0607524 1285:-0.136353 1286:-0.254239 1287:-0.191761 1288:-0.457881 1289:-0.133371 1290:0.0687879 1291:-0.344949 1292:-0.298795 1293:0.115817 1294:0.170969 1295:0.0218218 1296:0.274063 1297:-0.142746 1298:-0.244016 1299:0.0554343 1300:0.354356 1301:-0.0134095 1302:0.258401 1303:-0.354311 1304:-0.189576 1305:0.377981 1306:-0.651986 1307:-0.00116283 1308:-0.0451045 1309:0.0607524 1310:-0.136353 1311:-0.254239 1312:-0.191761 1313:-0.457881 1314:-0.133371 1315:0.0687879 1316:-0.344949 1317:-0.298795 1318:0.115817 1319:0.170969 1320:0.0218218 1321:0.274063 1322:-0.142746 1323:-0.244016 1324:0.0554343 1325:0.354356 1326:-0.86262 1327:0.333332 1328:0.710535 1329:0.997028 1330:0.138087 1331:0.71467 1332:-0.544751 1333:-0.018708 1334:-0.158172 1335:0.206867 1336:0.659298 1337:-0.467115 1338:-0.392056 1339:-0.300391 1340:-0.752002 1341:0.393217 1342:0.00922424 1343:0.0110318 1344:0.340008 1345:-0.318041 1346:0.0298759 1347:-0.0186919 1348:-0.539558 1349:-0.436074 1350:-0.289536 1351:-0.86262 1352:0.333332 1353:0.710535 1354:0.997028 1355:0.138087 1356:0.71467 1357:-0.544751 1358:-0.018708 1359:-0.158172 1360:0.206867 1361:0.659298 1362:-0.467115 1363:-0.392056 1364:-0.300391 1365:-0.752002 1366:0.393217 1367:0.00922424 1368:0.0110318 1369:0.340008 1370:-0.318041 1371:0.0298759 1372:-0.0186919 1373:-0.539558 1374:-0.436074 1375:-0.289536 1376:0.312806 1377:0.0363063 1378:-0.251953 1379:0.2695 1380:-0.249765 1381:-0.776341 1382:0.330019 1383:0.075698 1384:0.0788557 1385:-0.739884 1386:0.0346664 1387:-0.155318 1388:0.398818 1389:0.150578 1390:0.13339 1391:0.328226 1392:-0.049837 1393:-0.259806 1394:0.0947373 1395:0.296025 1396:0.219483 1397:-0.250697 1398:0.315776 1399:0.124567 1400:-0.376975 1401:0.312806 1402:0.0363063 1403:-0.251953 1404:0.2695 1405:-0.249765 1406:-0.776341 1407:0.330019 1408:0.075698 1409:0.0788557 1410:-0.739884 1411:0.0346664 1412:-0.155318 1413:0.398818 1414:0.150578 1415:0.13339 1416:0.328226 1417:-0.049837 1418:-0.259806 1419:0.0947373 1420:0.296025 1421:0.219483 1422:-0.250697 1423:0.315776 1424:0.124567 1425:-0.376975 1426:0.0949489 1427:0.296841 1428:-0.328179 1429:-0.501909 1430:-0.294231 1431:-0.727698 1432:-0.213562 1433:-0.509568 1434:0.302404 1435:-0.299418 1436:0.00652311 1437:0.26244 1438:-0.20453 1439:-0.0834289 1440:-0.00819683 1441:-0.067496 1442:-0.0037163 1443:-0.0600777 1444:-0.00909618 1445:0.013231 1446:0.220114 1447:0.289953 1448:-0.0938125 1449:0.170417 1450:-0.103707 1451:0.0949489 1452:0.296841 1453:-0.328179 1454:-0.501909 1455:-0.294231 1456:-0.727698 1457:-0.213562 1458:-0.509568 1459:0.302404 1460:-0.299418 1461:0.00652311 1462:0.26244 1463:-0.20453 1464:-0.0834289 1465:-0.00819683 1466:-0.067496 1467:-0.0037163 1468:-0.0600777 1469:-0.00909618 1470:0.013231 1471:0.220114 1472:0.289953 1473:-0.0938125 1474:0.170417 1475:-0.103707 1476:-0.603426 1477:-0.304031 1478:0.0845522 1479:0.790304 1480:-0.405221 1481:0.946174 1482:-0.476059 1483:-0.0220961 1484:-0.417427 1485:0.280721 1486:0.729686 1487:0.156473 1488:0.00926504 1489:-0.0481214 1490:0.212441 1491:0.0540283 1492:-0.00152003 1493:-0.259992 1494:-0.193017 1495:-0.189257 1496:-0.235106 1497:-0.0631528 1498:-0.265234 1499:-0.513629 1500:0.278344 1501:-0.603426 1502:-0.304031 1503:0.0845522 1504:0.790304 1505:-0.405221 1506:0.946174 1507:-0.476059 1508:-0.0220961 1509:-0.417427 1510:0.280721 1511:0.729686 1512:0.156473 1513:0.00926504 1514:-0.0481214 1515:0.212441 1516:0.0540283 1517:-0.00152003 1518:-0.259992 1519:-0.193017 1520:-0.189257 1521:-0.235106 1522:-0.0631528 1523:-0.265234 1524:-0.513629 1525:0.278344 1526:-0.455466 1527:0.537888 1528:0.910198 1529:0.442832 1530:-0.690843 1531:1 1532:-0.570847 1533:-0.053457 1534:0.114127 1535:0.780889 1536:0.920025 1537:-0.104856 1538:-0.62034 1539:0.0822786 1540:-0.293562 1541:0.606826 1542:-0.0671996 1543:-0.520406 1544:-0.337278 1545:-0.344562 1546:-0.598001 1547:0.195161 1548:0.539587 1549:0.833582 1550:0.0350144 1551:-0.44794 1552:-0.558592 1553:0.250753 1554:0.31495 1555:-0.149657 1556:0.509253 1557:-0.566859 1558:-0.224953 1559:-0.16162 1560:-0.00135339 1561:0.319656 1562:-0.243828 1563:0.0286058 1564:0.066138 1565:-0.0376043 1566:-0.0982264 1567:-0.122566 1568:-0.00394641 1569:0.157461 1570:-0.0784033 1571:0.0138451 1572:-0.0495324 1573:0.0889103 1574:-0.0631511 1575:-0.0332824 1576:-0.44794 1577:-0.558592 1578:0.250753 1579:0.31495 1580:-0.149657 1581:0.509253 1582:-0.566859 1583:-0.224953 1584:-0.16162 1585:-0.00135339 1586:0.319656 1587:-0.243828 1588:0.0286058 1589:0.066138 1590:-0.0376043 1591:-0.0982264 1592:-0.122566 1593:-0.00394641 1594:0.157461 1595:-0.0784033 1596:0.0138451 1597:-0.0495324 1598:0.0889103 1599:-0.0631511 1600:-0.0332824 1601:0.318857 1602:0.423368 1603:0.101821 1604:0.414293 1605:-0.315576 1606:-0.572646 1607:-0.490567 1608:0.656018 1609:0.0139528 1610:-0.143457 1611:-0.721197 1612:0.0618274 1613:0.40142 1614:0.327592 1615:0.17193 1616:0.624786 1617:0.144564 1618:0.101266 1619:-0.348428 1620:0.406288 1621:-0.159768 1622:-0.314914 1623:-0.266101 1624:-0.3023 1625:-0.0464311 1626:0.254178 1627:-0.20265 1628:0.321753 1629:0.411867 1630:-0.61172 1631:-0.638358 1632:-0.441818 1633:-0.44676 1634:0.212925 1635:-0.669558 1636:-0.0872141 1637:0.179596 1638:0.0669202 1639:-0.107598 1640:-0.00588585 1641:-0.210491 1642:0.162178 1643:0.426362 1644:-0.541395 1645:-0.129062 1646:0.0542105 1647:0.295755 1648:-0.250515 1649:-0.242322 1650:0.213974 1651:0.556045 1652:0.753327 1653:0.0846917 1654:-0.807528 1655:-0.390758 1656:-0.257823 1657:-0.0481057 1658:0.155885 1659:0.579435 1660:-0.280108 1661:-0.95082 1662:0.81427 1663:-1 1664:-0.81328 1665:0.0119808 1666:0.594389 1667:-0.247223 1668:0.264606 1669:-0.606019 1670:0.404359 1671:-0.383429 1672:0.699014 1673:1 1674:-0.918759 1675:-0.180214 1676:0.110254 1677:-0.275604 1678:0.170596 1679:0.139487 1680:-0.206569 1681:0.264428 1682:-0.188795 1683:0.102419 1684:-0.107097 1685:-0.0794657 1686:0.367756 1687:-0.131329 1688:-0.229331 1689:-0.0486454 1690:-0.192517 1691:-0.110375 1692:-0.117117 1693:-0.829858 1694:0.335451 1695:0.0938332 1696:-0.122671 1697:-0.107458 1698:-0.569094 1699:0.289433 1700:0.416981 1701:0.58852 1702:0.0277626 1703:-0.0743681 1704:-0.938457 1705:0.0768159 1706:-0.482808 1707:-0.120112 1708:-0.192055 1709:-0.494035 1710:-0.533341 1711:-0.187558 1712:0.170496 1713:0.181962 1714:0.297179 1715:-0.237081 1716:-0.407924 1717:-0.193727 1718:-0.766449 1719:-0.0405071 1720:-0.38321 1721:-0.564184 1722:-0.279033 1723:-0.0518547 1724:0.393754 1725:0.0978485 1726:0.556386 1727:0.202415 1728:0.342128 1729:-0.0392723 1730:-0.248649 1731:0.571455 1732:0.265996 1733:0.190789 1734:1 1735:-0.220744 1736:-0.466086 1737:0.452157 1738:0.184752 1739:0.595304 1740:-0.376832 1741:0.582627 1742:-0.111045 1743:-0.703716 1744:0.181939 1745:-0.085101 1746:0.627898 1747:0.306157 1748:0.393097 1749:0.837769 1750:-0.34834 1751:-0.353155 1752:0.965438 1753:-0.103884 1754:0.224955 1755:0.23264 1756:-0.735344 1757:0.462018 1758:0.962716 1759:-0.783973 1760:-0.740824 1761:0.680268 1762:-0.0392091 1763:-0.893362 1764:-0.0703872 1765:0.523887 1766:0.0667828 1767:-0.254647 1768:0.321145 1769:0.0964191 1770:-0.720581 1771:-0.111736 1772:0.640483 1773:-0.170035 1774:-0.17812 1775:0.313979 1776:-0.0440722 1777:0.0154448 1778:0.202691 1779:-0.0225073 1780:-0.452416 1781:-0.371165 1782:-0.281102 1783:-0.503857 1784:-0.223025 1785:0.302314 1786:-0.534888 1787:0.46751 1788:0.204756 1789:-0.442981 1790:1 1791:0.565746 1792:-0.485801 1793:0.579429 1794:-0.109932 1795:-0.430221 1796:-0.0138831 1797:-0.962753 1798:0.206513 1799:0.762478 1800:0.388485 1801:-0.0136824 1802:-0.609874 1803:-0.221219 1804:-0.119922 1805:-0.288798 1806:0.588196 1807:-0.343843 1808:0.60956 1809:0.180605 1810:0.260949 1811:0.513538 1812:-0.113239 1813:-0.157362 1814:0.226144 1815:-0.319264 1816:-0.520387 1817:0.189194 1818:0.184217 1819:0.313284 1820:-0.596058 1821:0.268671 1822:-0.19734 1823:0.372791 1824:-0.194843 1825:-0.0339437 1826:0.488612 1827:0.666506 1828:-0.466053 1829:0.371865 1830:-0.124329 1831:-0.468881 1832:0.050185 1833:-0.286253 1834:-0.114447 1835:-0.166567 1836:-0.288801 1837:0.0486104 1838:-0.263006 1839:-0.148114 1840:0.57009 1841:0.00760814 1842:-0.378728 1843:-0.200451 1844:0.0660312 1845:0.191565 1846:-0.510239 1847:-0.0232091 1848:0.706886 1849:-0.260877 1850:0.382318 1851:-0.19392 1852:0.885478 1853:0.106206 1854:0.122546 1855:-0.104281 1856:-0.778392 1857:0.259329 1858:-0.510248 1859:-0.291019 1860:0.550161 1861:-0.0873036 1862:0.295805 1863:-0.183376 1864:0.0769674 1865:-0.704286 1866:0.46262 1867:-0.275931 1868:-0.155727 1869:0.87375 1870:-0.242438 1871:0.816599 1872:-0.0319686 1873:0.140311 1874:0.33284 1875:-0.378385 1876:-0.0705777 1877:-0.972694 1878:0.417844 1879:-0.0713247 1880:0.222048 1881:0.62507 1882:0.400142 1883:0.202506 1884:0.309092 1885:0.584819 1886:0.464403 1887:-0.579662 1888:0.00370836 1889:-0.274 1890:0.515102 1891:0.395991 1892:-0.189876 1893:0.589108 1894:-0.040078 1895:0.310918 1896:0.267642 1897:-0.296051 1898:-0.194114 1899:-0.639857 1900:0.119637 1901:-0.094358 1902:0.649458 1903:-0.352502 1904:-0.845061 1905:-0.0123419 1906:-0.647759 1907:0.253822 1908:-0.354835 1909:-0.299751 1910:0.463085 1911:-0.940411 1912:-0.191677 1913:0.00096434 1914:-0.117322 1915:0.134486 1916:0.225462 1917:-0.188491 1918:0.173376 1919:0.279122 1920:0.00372429 1921:-0.331638 1922:0.132645 1923:-0.140514 1924:-0.233557 1925:0.140448 1926:0.0470555 1927:-0.654267 1928:-0.0245903 1929:-0.20669 1930:0.182666 1931:0.417628 1932:0.399985 1933:0.0104486 1934:0.335038 1935:0.121586 1936:-0.132549 1937:-0.776798 1938:-0.0654382 1939:0.222158 1940:0.0095689 1941:0.218954 1942:-0.0821521 1943:0.0698101 1944:-0.545042 1945:-0.0572039 1946:-0.554011 1947:-0.270497 1948:0.895513 1949:0.0886707 1950:0.109427 1951:0.0197023 1952:0.480915 1953:-0.610361 1954:-0.360711 1955:-0.0515499 1956:-0.495669 1957:0.138197 1958:0.0908644 1959:-0.00621265 1960:0.624003 1961:-0.470171 1962:0.220123 1963:0.176185 1964:-0.34452 1965:0.199082 1966:0.269268 1967:0.0756216 1968:0.812152 1969:-0.469646 1970:-0.184642 1971:0.405493 1972:-0.127703 1973:-0.566597 1974:-0.335531 1975:-0.0798276 1976:0.212775 1977:-0.798278 1978:-0.179891 1979:0.0660828 1980:0.581426 1981:-0.169908 1982:-0.464675 1983:0.560908 1984:-0.0658797 1985:0.189493 1986:-0.927194 1987:-0.130825 1988:0.767772 1989:0.852402 1990:0.0281009 1991:0.0860756 1992:0.163534 1993:-0.293554 1994:-0.458638 1995:-0.875522 1996:0.298795 1997:0.750194 1998:-0.775884 1999:-0.205205 2000:-0.370744 2001:0.357394 2002:0.627004 2003:-0.472372 2004:-0.972728 2005:0.459676 2006:-0.788491 2007:0.466362 2008:-0.588605 2009:-0.35751 2010:-0.201138 2011:-0.454162 2012:-0.315392 2013:0.063931 2014:0.0718014 2015:-0.328009 2016:0.421054 2017:-0.331273 2018:-0.120422 2019:0.375761 2020:-0.207145 2021:0.14426 2022:-0.0563679 2023:-0.415376 2024:0.553449 2025:-0.583852 2026:-0.197946 2027:-0.163089 2028:0.156236 2029:0.336249 2030:-0.0620006 2031:-0.098871 2032:0.34497 2033:0.0823989 2034:-0.101307 2035:-0.114316 2036:0.307968 2037:0.00912182 2038:0.462108 2039:-0.394872 2040:-0.0165985 2041:-0.293502 2042:0.175785 2043:-0.627157 2044:-0.0487431 2045:0.208441 2046:-0.130891 2047:-0.113601 2048:-0.429926 2049:-0.1258 2050:-0.0147364 2051:0.0178142 2052:-1 2053:-0.317114 2054:-0.907299 2055:0.0414033 2056:0.0289652 2057:-0.652672 2058:0.407403 2059:-0.0128188 2060:0.936343 2061:-0.34004 2062:-0.581118 2063:0.468193 2064:-0.321172 2065:-0.326097 2066:0.085232 2067:0.0380329 2068:-0.118109 2069:0.422222 2070:0.727407 2071:-0.609093 2072:-0.00370919 2073:-0.280077 2074:0.732676 2075:0.710016 2076:-1 2077:0.420066 2078:1 2079:-0.195482 2080:-0.462119 2081:-0.214245 2082:0.482579 2083:0.625515 2084:-0.257407 2085:0.0246442 2086:-0.342407 2087:0.330256 2088:0.244602 2089:0.349173 2090:-0.0349048 2091:-0.384222 2092:0.714907 2093:0.62168 2094:0.686075 2095:-0.390313 2096:-0.388436 2097:0.330052 2098:0.176006 2099:-0.171527 2100:0.32814 2101:-0.0205592 2102:-0.419969 2103:-0.47354 2104:-0.214412 2105:0.284127 2106:-0.72158 2107:-0.457309 2108:0.548798 2109:-0.0777552 2110:-0.183305 2111:-0.386532 2112:0.140377 2113:-0.186485 2114:0.186294 2115:-0.837935 2116:-0.879279 2117:-0.266922 2118:-0.816182 2119:0.353296 2120:-0.0942732 2121:0.349826 2122:-0.0190029 2123:-0.954693 2124:-0.0521529 2125:0.123039 2126:-0.474836 2127:-0.374812 2128:0.519121 2129:0.64517 2130:-0.341605 2131:0.703234 2132:0.0469538 2133:-0.290561 2134:-0.392157 2135:0.703723 2136:0.828404 2137:-0.395232 2138:0.0202682 2139:0.237342 2140:0.10462 2141:0.184524 2142:0.193145 2143:-0.384796 2144:-0.173681 2145:0.510839 2146:0.285083 2147:0.172993 2148:-0.243 2149:-0.0382111 2150:-0.0815952 2151:-0.857779 2152:0.35953 2153:0.639847 2154:-0.508746 2155:1 2156:0.34894 2157:0.768564 2158:0.406195 2159:-1 2160:0.181482 2161:-0.126964 2162:-0.406174 2163:0.165384 2164:-0.200668 2165:0.17304 2166:-0.0369586 2167:0.636737 2168:-0.051251 2169:0.00377073 2170:0.0406021 2171:-0.54828 2172:0.108549 2173:-0.272855 2174:-0.0403541 2175:-1 2176:-0.257832 2177:-0.565912 2178:0.290169 2179:-0.255138 2180:-0.128006 2181:0.483888 2182:0.158302 2183:0.128838 2184:-0.126895 2185:0.823609 2186:0.207405 2187:-1 2188:0.681628 2189:-0.451341 2190:-0.428684 2191:-0.767441 2192:0.0746061 2193:-0.268537 2194:-0.285028 2195:-0.108105 2196:-0.376428 2197:0.0717628 2198:-0.366948 2199:0.230702 2200:-0.438624 2201:0.651267 2202:0.113013 2203:-1 2204:-0.612265 2205:0.0340033 2206:0.36593 2207:0.497372 2208:0.022946 2209:0.886448 2210:-1 2211:-0.280634 2212:-0.417382 2213:0.0495546 2214:-0.354582 2215:0.0327 2216:0.630793 2217:-0.795432 2218:-0.861094 2219:0.100639 2220:-0.012998 2221:-0.502663 2222:0.737439 2223:0.0739205 2224:0.470505 2225:-0.105013 2226:0.694673 2227:-0.459424 2228:-0.55354 2229:-0.804567 2230:-0.0932208 2231:-0.757813 2232:-0.776343 2233:-0.780374 2234:-0.705038 2235:-0.990719 2236:-0.625867 2237:-0.445614 2238:0.0714791 2239:0.885498 2240:-0.052016 2241:0.387272 2242:0.62899 2243:-0.704766 2244:-0.439346 2245:-0.602034 2246:-0.12672 2247:-0.787551 2248:-0.465895 2249:0.0646804 2250:-0.422033 2251:0.534032 2252:0.0723138 2253:-0.447474 2254:-0.173331 2255:-0.307515 2256:-0.407588 2257:0.0170293 2258:-0.0508676 2259:0.0708087 2260:-0.213349 2261:-0.409243 2262:0.436086 2263:0.0575475 2264:0.0476729 2265:0.0783129 2266:0.200853 2267:-0.46858 2268:-0.0612649 2269:0.167478 2270:-0.146345 2271:0.10819 2272:-0.283443 2273:-0.238725 2274:0.0900905 2275:0.872271 2276:0.534032 2277:0.0723138 2278:-0.447474 2279:-0.173331 2280:-0.307515 2281:-0.407588 2282:0.0170293 2283:-0.0508676 2284:0.0708087 2285:-0.213349 2286:-0.409243 2287:0.436086 2288:0.0575475 2289:0.0476729 2290:0.0783129 2291:0.200853 2292:-0.46858 2293:-0.0612649 2294:0.167478 2295:-0.146345 2296:0.10819 2297:-0.283443 2298:-0.238725 2299:0.0900905 2300:0.872271 2301:-0.949581 2302:0.31783 2303:0.752911 2304:0.866633 2305:-0.317947 2306:0.62675 2307:-0.33121 2308:-0.40855 2309:0.0455814 2310:0.418948 2311:0.492504 2312:-0.416148 2313:-0.091098 2314:-0.0351996 2315:-0.00799895 2316:0.550622 2317:0.117627 2318:0.076534 2319:0.228379 2320:-0.289037 2321:-0.242235 2322:0.104527 2323:0.209907 2324:0.399343 2325:0.472366 2326:-0.949581 2327:0.31783 2328:0.752911 2329:0.866633 2330:-0.317947 2331:0.62675 2332:-0.33121 2333:-0.40855 2334:0.0455814 2335:0.418948 2336:0.492504 2337:-0.416148 2338:-0.091098 2339:-0.0351996 2340:-0.00799895 2341:0.550622 2342:0.117627 2343:0.076534 2344:0.228379 2345:-0.289037 2346:-0.242235 2347:0.104527 2348:0.209907 2349:0.399343 2350:0.472366 2351:-0.261874 2352:-0.211968 2353:0.35958 2354:0.675219 2355:-0.196129 2356:0.620939 2357:-0.505467 2358:-0.430084 2359:-0.444849 2360:0.25213 2361:0.505502 2362:0.0539602 2363:0.217981 2364:0.0802414 2365:-0.370674 2366:0.366401 2367:0.307202 2368:0.169359 2369:0.161337 2370:0.095065 2371:0.135584 2372:-0.179086 2373:0.0504756 2374:0.329953 2375:-0.0996691 2376:-0.901273 2377:-0.129241 2378:0.41419 2379:0.58334 2380:-0.297495 2381:0.895119 2382:-0.520435 2383:-0.529159 2384:-0.165548 2385:0.423733 2386:0.438328 2387:0.00482917 2388:-0.513961 2389:-0.00907537 2390:-0.167691 2391:-0.241074 2392:0.0967457 2393:0.00798013 2394:0.161355 2395:-0.22268 2396:-0.0889872 2397:-0.176471 2398:-0.118121 2399:0.134246 2400:0.192162 2401:-0.901273 2402:-0.129241 2403:0.41419 2404:0.58334 2405:-0.297495 2406:0.895119 2407:-0.520435 2408:-0.529159 2409:-0.165548 2410:0.423733 2411:0.438328 2412:0.00482917 2413:-0.513961 2414:-0.00907537 2415:-0.167691 2416:-0.241074 2417:0.0967457 2418:0.00798013 2419:0.161355 2420:-0.22268 2421:-0.0889872 2422:-0.176471 2423:-0.118121 2424:0.134246 2425:0.192162 2426:-0.164405 2427:0.11764 2428:-0.264018 2429:0.246386 2430:-0.0333257 2431:0.806478 2432:-0.211709 2433:0.198261 2434:0.107017 2435:0.364479 2436:0.549375 2437:-0.245589 2438:-0.459289 2439:-0.648629 2440:-0.167582 2441:0.326051 2442:-0.0374474 2443:0.201475 2444:0.0200039 2445:0.11965 2446:0.255809 2447:0.424796 2448:0.143062 2449:-0.407971 2450:-0.631395 2451:0.103409 2452:0.0240862 2453:0.843182 2454:-0.313632 2455:-0.645237 2456:0.810642 2457:0.155507 2458:0.72871 2459:-0.813669 2460:-0.259699 2461:-0.212969 2462:-0.313532 2463:-0.523331 2464:0.781316 2465:0.971215 2466:-0.103213 2467:0.137294 2468:-0.619386 2469:0.368012 2470:0.0412435 2471:-0.212872 2472:-0.550638 2473:0.0642898 2474:0.511269 2475:0.279411 2476:0.00365508 2477:-0.081309 2478:-0.810957 2479:-0.423553 2480:-0.0364009 2481:-0.23105 2482:-0.270504 2483:-0.7052 2484:0.0265687 2485:0.111443 2486:-0.524423 2487:-0.556109 2488:-0.335874 2489:-0.128345 2490:-0.627011 2491:-0.720725 2492:0.394018 2493:-0.268931 2494:0.626077 2495:-0.459677 2496:0.172966 2497:0.409447 2498:-0.752108 2499:0.319819 2500:-0.164478 2501:-0.0232207 2502:0.265171 2503:-0.0254228 2504:-0.320021 2505:0.0459976 2506:-0.509547 2507:0.174861 2508:-0.716935 2509:0.384692 2510:-0.0937901 2511:-0.26421 2512:0.794711 2513:0.568885 2514:-0.349093 2515:0.224997 2516:0.156526 2517:-0.274391 2518:-0.128658 2519:0.200319 2520:0.190574 2521:-0.157823 2522:0.223464 2523:0.252643 2524:0.680096 2525:0.808625 2526:-0.0232207 2527:0.265171 2528:-0.0254228 2529:-0.320021 2530:0.0459976 2531:-0.509547 2532:0.174861 2533:-0.716935 2534:0.384692 2535:-0.0937901 2536:-0.26421 2537:0.794711 2538:0.568885 2539:-0.349093 2540:0.224997 2541:0.156526 2542:-0.274391 2543:-0.128658 2544:0.200319 2545:0.190574 2546:-0.157823 2547:0.223464 2548:0.252643 2549:0.680096 2550:0.808625 2551:0.541253 2552:-0.309976 2553:-0.0453654 2554:-0.80619 2555:0.263099 2556:-0.541493 2557:-0.675647 2558:-0.933308 2559:-0.863097 2560:-0.510047 2561:-0.0407827 2562:0.211872 2563:0.327232 2564:-0.261411 2565:0.335142 2566:0.228923 2567:-0.114639 2568:0.446439 2569:-0.0373959 2570:-0.741979 2571:-0.187726 2572:0.431886 2573:0.709343 2574:0.0531865 2575:-0.349869 2576:0.541253 2577:-0.309976 2578:-0.0453654 2579:-0.80619 2580:0.263099 2581:-0.541493 2582:-0.675647 2583:-0.933308 2584:-0.863097 2585:-0.510047 2586:-0.0407827 2587:0.211872 2588:0.327232 2589:-0.261411 2590:0.335142 2591:0.228923 2592:-0.114639 2593:0.446439 2594:-0.0373959 2595:-0.741979 2596:-0.187726 2597:0.431886 2598:0.709343 2599:0.0531865 2600:-0.349869 2601:0.234603 2602:0.272121 2603:-0.220885 2604:-0.241193 2605:0.0951357 2606:-0.71333 2607:0.439468 2608:-0.157071 2609:0.164069 2610:0.299461 2611:-0.363908 2612:0.194661 2613:-0.37101 2614:0.287922 2615:0.279278 2616:-0.118966 2617:0.623099 2618:0.516309 2619:-0.172244 2620:0.206372 2621:0.13824 2622:-0.126302 2623:-0.609437 2624:0.326027 2625:-0.370499 2626:0.234603 2627:0.272121 2628:-0.220885 2629:-0.241193 2630:0.0951357 2631:-0.71333 2632:0.439468 2633:-0.157071 2634:0.164069 2635:0.299461 2636:-0.363908 2637:0.194661 2638:-0.37101 2639:0.287922 2640:0.279278 2641:-0.118966 2642:0.623099 2643:0.516309 2644:-0.172244 2645:0.206372 2646:0.13824 2647:-0.126302 2648:-0.609437 2649:0.326027 2650:-0.370499 2651:0.173122 2652:0.322503 2653:-0.337614 2654:-0.495399 2655:0.202757 2656:-0.388915 2657:0.113804 2658:0.42114 2659:-0.348529 2660:-0.475121 2661:-0.330933 2662:-0.098752 2663:-0.0583474 2664:0.304099 2665:-0.289382 2666:-0.433343 2667:0.0689293 2668:-0.0466896 2669:0.346354 2670:-0.164519 2671:-0.0888981 2672:-0.00179579 2673:-0.316544 2674:0.35517 2675:0.290228 2676:0.173122 2677:0.322503 2678:-0.337614 2679:-0.495399 2680:0.202757 2681:-0.388915 2682:0.113804 2683:0.42114 2684:-0.348529 2685:-0.475121 2686:-0.330933 2687:-0.098752 2688:-0.0583474 2689:0.304099 2690:-0.289382 2691:-0.433343 2692:0.0689293 2693:-0.0466896 2694:0.346354 2695:-0.164519 2696:-0.0888981 2697:-0.00179579 2698:-0.316544 2699:0.35517 2700:0.290228 2701:0.707895 2702:-0.77259 2703:-0.392429 2704:0.331053 2705:-0.341069 2706:-0.470413 2707:-0.691093 2708:-0.636537 2709:-0.972341 2710:-0.582815 2711:0.0819704 2712:-0.502163 2713:0.341964 2714:0.343254 2715:-0.281527 2716:0.143432 2717:-0.112814 2718:-0.331049 2719:-0.142521 2720:0.143723 2721:0.477373 2722:0.0119813 2723:0.0915878 2724:0.428695 2725:0.040231 2726:0.707895 2727:-0.77259 2728:-0.392429 2729:0.331053 2730:-0.341069 2731:-0.470413 2732:-0.691093 2733:-0.636537 2734:-0.972341 2735:-0.582815 2736:0.0819704 2737:-0.502163 2738:0.341964 2739:0.343254 2740:-0.281527 2741:0.143432 2742:-0.112814 2743:-0.331049 2744:-0.142521 2745:0.143723 2746:0.477373 2747:0.0119813 2748:0.0915878 2749:0.428695 2750:0.040231 2751:-0.419806 2752:-0.383678 2753:0.0450988 2754:0.401735 2755:-0.586022 2756:0.753567 2757:-0.278826 2758:-0.373488 2759:-0.31879 2760:0.287638 2761:0.256212 2762:0.00488474 2763:0.180419 2764:-0.0601612 2765:0.0689895 2766:0.0745899 2767:-0.00366077 2768:-0.149632 2769:0.0042061 2770:-0.0342989 2771:0.250086 2772:-0.290048 2773:0.326057 2774:0.107219 2775:-0.129094 2776:-0.419806 2777:-0.383678 2778:0.0450988 2779:0.401735 2780:-0.586022 2781:0.753567 2782:-0.278826 2783:-0.373488 2784:-0.31879 2785:0.287638 2786:0.256212 2787:0.00488474 2788:0.180419 2789:-0.0601612 2790:0.0689895 2791:0.0745899 2792:-0.00366077 2793:-0.149632 2794:0.0042061 2795:-0.0342989 2796:0.250086 2797:-0.290048 2798:0.326057 2799:0.107219 2800:-0.129094 2801:0.56949 2802:-0.350155 2803:-0.327828 2804:-0.0126149 2805:0.617006 2806:-0.572875 2807:-0.277012 2808:-0.694201 2809:-0.642994 2810:0.106443 2811:-0.00443059 2812:-0.417048 2813:0.064683 2814:0.0810179 2815:0.114756 2816:0.0101488 2817:-0.0361733 2818:-0.0913145 2819:-0.254386 2820:0.0570426 2821:0.165122 2822:0.0395416 2823:0.104339 2824:0.120011 2825:0.10381 2826:0.56949 2827:-0.350155 2828:-0.327828 2829:-0.0126149 2830:0.617006 2831:-0.572875 2832:-0.277012 2833:-0.694201 2834:-0.642994 2835:0.106443 2836:-0.00443059 2837:-0.417048 2838:0.064683 2839:0.0810179 2840:0.114756 2841:0.0101488 2842:-0.0361733 2843:-0.0913145 2844:-0.254386 2845:0.0570426 2846:0.165122 2847:0.0395416 2848:0.104339 2849:0.120011 2850:0.10381 2851:-0.880261 2852:-0.432118 2853:0.257306 2854:0.731825 2855:-0.437634 2856:0.665012 2857:-0.452724 2858:-0.355201 2859:-0.423872 2860:-0.0615228 2861:0.643591 2862:0.332373 2863:0.184111 2864:-0.229853 2865:0.2746 2866:-0.0957421 2867:0.0263865 2868:0.165027 2869:-0.0298225 2870:0.173744 2871:-0.202584 2872:0.0410267 2873:0.0303615 2874:0.256403 2875:0.18238 2876:-0.880261 2877:-0.432118 2878:0.257306 2879:0.731825 2880:-0.437634 2881:0.665012 2882:-0.452724 2883:-0.355201 2884:-0.423872 2885:-0.0615228 2886:0.643591 2887:0.332373 2888:0.184111 2889:-0.229853 2890:0.2746 2891:-0.0957421 2892:0.0263865 2893:0.165027 2894:-0.0298225 2895:0.173744 2896:-0.202584 2897:0.0410267 2898:0.0303615 2899:0.256403 2900:0.18238 2901:-0.931384 2902:0.903531 2903:0.661808 2904:0.998466 2905:-0.437358 2906:0.795645 2907:-0.323705 2908:-0.141994 2909:-0.68792 2910:0.559282 2911:0.922367 2912:-0.262046 2913:-0.429453 2914:-0.592713 2915:-0.0180194 2916:0.878664 2917:0.83279 2918:0.571062 2919:0.328372 2920:-0.291829 2921:0.0949735 2922:0.635508 2923:0.134421 2924:-0.49089 2925:0.394523 2926:-0.931384 2927:0.903531 2928:0.661808 2929:0.998466 2930:-0.437358 2931:0.795645 2932:-0.323705 2933:-0.141994 2934:-0.68792 2935:0.559282 2936:0.922367 2937:-0.262046 2938:-0.429453 2939:-0.592713 2940:-0.0180194 2941:0.878664 2942:0.83279 2943:0.571062 2944:0.328372 2945:-0.291829 2946:0.0949735 2947:0.635508 2948:0.134421 2949:-0.49089 2950:0.394523 2951:-0.0605373 2952:-0.76822 2953:0.308521 2954:1 2955:-0.534067 2956:1 2957:0.474059 2958:0.0584878 2959:0.532588 2960:0.140521 2961:0.111823 2962:0.264153 2963:0.51431 2964:0.545854 2965:1 2966:-0.581512 2967:-0.00621709 2968:0.224275 2969:-0.558256 2970:-0.722888 2971:-0.237911 2972:0.749498 2973:-0.0879659 2974:0.574875 2975:-0.515177 2976:-0.0605373 2977:-0.76822 2978:0.308521 2979:1 2980:-0.534067 2981:1 2982:0.474059 2983:0.0584878 2984:0.532588 2985:0.140521 2986:0.111823 2987:0.264153 2988:0.51431 2989:0.545854 2990:1 2991:-0.581512 2992:-0.00621709 2993:0.224275 2994:-0.558256 2995:-0.722888 2996:-0.237911 2997:0.749498 2998:-0.0879659 2999:0.574875 3000:-0.515177 3001:0.485214 3002:0.310753 3003:-0.864046 3004:-0.709329 3005:-0.451358 3006:-0.919618 3007:0.287503 3008:-0.991035 3009:0.293384 3010:-0.0574514 3011:-0.509084 3012:0.633166 3013:-0.113351 3014:-0.0576283 3015:-0.46915 3016:0.178252 3017:-0.228866 3018:-0.325891 3019:0.213927 3020:-0.0364943 3021:0.206669 3022:0.492746 3023:0.0327748 3024:-0.167042 3025:-0.206475 3026:0.485214 3027:0.310753 3028:-0.864046 3029:-0.709329 3030:-0.451358 3031:-0.919618 3032:0.287503 3033:-0.991035 3034:0.293384 3035:-0.0574514 3036:-0.509084 3037:0.633166 3038:-0.113351 3039:-0.0576283 3040:-0.46915 3041:0.178252 3042:-0.228866 3043:-0.325891 3044:0.213927 3045:-0.0364943 3046:0.206669 3047:0.492746 3048:0.0327748 3049:-0.167042 3050:-0.206475 3051:-0.128804 3052:-0.463819 3053:0.112199 3054:-0.0958091 3055:-0.404614 3056:0.910744 3057:-0.309675 3058:-0.0206848 3059:-0.0243677 3060:0.431792 3061:0.745498 3062:0.165718 3063:-0.0772045 3064:-0.0151085 3065:-0.0857939 3066:-0.413902 3067:0.0574446 3068:-0.180954 3069:-0.221771 3070:-0.106403 3071:0.0636375 3072:0.391826 3073:0.0747127 3074:0.143864 3075:1 3076:-0.714689 3077:0.209525 3078:0.109176 3079:0.244912 3080:-0.513236 3081:0.611452 3082:-0.806593 3083:0.0663635 3084:-0.342555 3085:0.506835 3086:0.432763 3087:-0.272554 3088:-0.219983 3089:0.0380401 3090:0.297863 3091:0.165669 3092:-0.0669849 3093:0.0170603 3094:0.134741 3095:0.0271688 3096:-0.389362 3097:0.0686231 3098:0.160086 3099:0.0529147 3100:-0.158332 3101:-0.714689 3102:0.209525 3103:0.109176 3104:0.244912 3105:-0.513236 3106:0.611452 3107:-0.806593 3108:0.0663635 3109:-0.342555 3110:0.506835 3111:0.432763 3112:-0.272554 3113:-0.219983 3114:0.0380401 3115:0.297863 3116:0.165669 3117:-0.0669849 3118:0.0170603 3119:0.134741 3120:0.0271688 3121:-0.389362 3122:0.0686231 3123:0.160086 3124:0.0529147 3125:-0.158332 3126:-0.188315 3127:-0.885114 3128:-0.227449 3129:0.124141 3130:-0.364931 3131:0.458214 3132:-0.83287 3133:0.00889291 3134:-0.477277 3135:-0.521293 3136:0.00154941 3137:0.0548458 3138:0.261927 3139:0.0936511 3140:0.345898 3141:0.151112 3142:0.198587 3143:-0.0100204 3144:0.486345 3145:-0.240945 3146:-0.232088 3147:-0.00656065 3148:-0.294075 3149:-0.201903 3150:-0.034792 3151:-0.188315 3152:-0.885114 3153:-0.227449 3154:0.124141 3155:-0.364931 3156:0.458214 3157:-0.83287 3158:0.00889291 3159:-0.477277 3160:-0.521293 3161:0.00154941 3162:0.0548458 3163:0.261927 3164:0.0936511 3165:0.345898 3166:0.151112 3167:0.198587 3168:-0.0100204 3169:0.486345 3170:-0.240945 3171:-0.232088 3172:-0.00656065 3173:-0.294075 3174:-0.201903 3175:-0.034792 3176:-0.581713 3177:0.221356 3178:-0.0235928 3179:-0.00781545 3180:0.236264 3181:0.679955 3182:-0.00119792 3183:0.52523 3184:0.622063 3185:-0.2013 3186:0.503196 3187:0.121072 3188:0.35248 3189:0.356806 3190:0.641097 3191:0.351488 3192:0.346651 3193:0.0466742 3194:-0.333823 3195:0.0144978 3196:-0.398084 3197:-0.111892 3198:0.507943 3199:-0.357308 3200:0.544285 
2.60606269547977 3.420014413341752 2.789151934755568 1:0.0936318 2:-0.438126 3:0.34584 4:0.349125 5:-0.201358 6:0.955863 7:-0.365111 8:0.559645 9:-0.284563 10:-0.440144 11:0.873971 12:-0.559525 13:-0.651671 14:-0.882326 15:-0.733944 16:-0.807102 17:-0.630389 18:-0.436359 19:-0.0181983 20:0.4947 21:0.0974781 22:0.518913 23:0.880404 24:0.634201 25:-0.554855 26:-0.814972 27:0.902435 28:0.21384 29:0.99848 30:0.79647 31:0.956877 32:-0.888969 33:-0.838519 34:0.273491 35:0.979382 36:0.666803 37:0.613165 38:0.5893 39:0.239988 40:-0.768274 41:0.902453 42:-0.593976 43:0.631858 44:0.80928 45:-0.915646 46:-0.325489 47:-0.204784 48:-0.299688 49:-0.360775 50:-0.0745725 51:-0.814972 52:0.902435 53:0.21384 54:0.99848 55:0.79647 56:0.956877 57:-0.888969 58:-0.838519 59:0.273491 60:0.979382 61:0.666803 62:0.613165 63:0.5893 64:0.239988 65:-0.768274 66:0.902453 67:-0.593976 68:0.631858 69:0.80928 70:-0.915646 71:-0.325489 72:-0.204784 73:-0.299688 74:-0.360775 75:-0.0745725 76:0.223996 77:0.236102 78:0.0783293 79:0.0101991 80:-0.502755 81:-0.171217 82:-0.247893 83:-0.0474065 84:-0.415921 85:-0.302507 86:0.356497 87:-0.156712 88:0.0860884 89:0.00591685 90:0.197733 91:0.434406 92:0.0548345 93:0.932823 94:-0.271082 95:0.116474 96:0.232404 97:0.469593 98:0.76667 99:-0.338762 100:-0.700336 101:-0.580503 102:-1 103:-1 104:-1 105:1 106:1 107:1 108:0.128525 109:1 110:0.160236 111:0.943137 112:0.705022 113:-1 114:-0.0669229 115:1 116:-0.739237 117:0.262852 118:-0.091832 119:0.725002 120:-0.491562 121:1 122:0.6172 123:-0.430385 124:-0.234256 125:1 126:-0.00793449 127:0.245697 128:-0.704065 129:-0.178705 130:0.588221 131:-0.327498 132:0.209061 133:0.490745 134:0.399093 135:0.0167545 136:-0.836913 137:0.304312 138:-0.475335 139:-0.882216 140:-0.431473 141:0.538662 142:-0.0438896 143:0.801355 144:-0.0825227 145:0.267997 146:-0.127859 147:0.228198 148:0.405611 149:-0.486335 150:0.0109239 151:-0.00793449 152:0.245697 153:-0.704065 154:-0.178705 155:0.588221 156:-0.327498 157:0.209061 158:0.490745 159:0.399093 160:0.0167545 161:-0.836913 162:0.304312 163:-0.475335 164:-0.882216 165:-0.431473 166:0.538662 167:-0.0438896 168:0.801355 169:-0.0825227 170:0.267997 171:-0.127859 172:0.228198 173:0.405611 174:-0.486335 175:0.0109239 176:0.420397 177:-0.467398 178:-0.272562 179:-0.473462 180:-0.820096 181:0.65355 182:-0.610785 183:0.0879945 184:-0.460675 185:0.912142 186:0.951512 187:0.452223 188:-0.392693 189:-0.552186 190:0.450824 191:-0.10917 192:-0.378565 193:-0.330199 194:0.614344 195:0.0442526 196:0.706994 197:-0.195975 198:-0.792295 199:0.546524 200:0.789987 201:0.117886 202:-0.5602 203:-0.179758 204:-0.0674293 205:0.399031 206:-0.327844 207:-0.222313 208:-0.212604 209:-0.135437 210:0.479373 211:0.1171 212:-0.0534886 213:0.0186845 214:0.105603 215:-0.397588 216:0.0692413 217:0.05554 218:-0.801148 219:0.18068 220:0.202542 221:-0.0501483 222:0.00560121 223:-0.234467 224:-0.0661362 225:-0.126052 226:-0.565826 227:-0.0939492 228:-0.0557517 229:-0.396093 230:-0.73661 231:0.895206 232:0.0207336 233:-0.548337 234:-0.389008 235:-0.779246 236:-0.111087 237:-0.85801 238:-0.859476 239:-0.0186772 240:-0.112979 241:0.878213 242:0.256364 243:0.843306 244:0.524631 245:0.589763 246:0.557588 247:0.861736 248:0.931265 249:-0.347596 250:-0.666287 251:-0.923569 252:0.317393 253:-0.405747 254:0.411233 255:0.194305 256:-0.107846 257:-0.0700063 258:-0.412729 259:0.556618 260:-0.168039 261:-0.719211 262:-0.143935 263:0.275274 264:0.0250659 265:-0.373605 266:-0.537408 267:0.207288 268:0.583922 269:-0.440101 270:-0.0933663 271:-0.379812 272:0.561085 273:0.436507 274:-0.621521 275:0.448845 276:0.385355 277:-0.315641 278:-0.381216 279:-0.125252 280:-0.0299906 281:-0.094419 282:-0.256434 283:0.365424 284:-0.0978725 285:0.0109972 286:-0.0641248 287:-0.257997 288:0.169556 289:-0.0279966 290:0.0646877 291:0.394598 292:0.00590473 293:0.392145 294:0.413374 295:-0.675698 296:-0.164673 297:-0.0249399 298:0.235795 299:0.241195 300:0.14232 301:0.385355 302:-0.315641 303:-0.381216 304:-0.125252 305:-0.0299906 306:-0.094419 307:-0.256434 308:0.365424 309:-0.0978725 310:0.0109972 311:-0.0641248 312:-0.257997 313:0.169556 314:-0.0279966 315:0.0646877 316:0.394598 317:0.00590473 318:0.392145 319:0.413374 320:-0.675698 321:-0.164673 322:-0.0249399 323:0.235795 324:0.241195 325:0.14232 326:-0.467102 327:-0.514206 328:0.419001 329:0.267256 330:-0.35261 331:0.849082 332:-0.653891 333:0.338292 334:-0.590176 335:0.348964 336:0.936333 337:0.298084 338:-0.246007 339:0.248267 340:0.270253 341:0.0507018 342:-0.164502 343:-0.36213 344:0.506806 345:0.0892347 346:-0.227076 347:-0.277457 348:0.0312776 349:0.369927 350:-0.895123 351:-0.394662 352:0.487488 353:0.445244 354:0.457477 355:-0.281497 356:0.744223 357:-0.459772 358:0.216003 359:-0.697841 360:0.431903 361:0.847775 362:-0.617474 363:-0.0801571 364:-0.220962 365:-0.0754347 366:0.0703978 367:0.247727 368:-0.458392 369:-0.51269 370:-0.72593 371:-0.415412 372:-0.366562 373:-0.0832178 374:-0.193296 375:-0.21927 376:-0.394662 377:0.487488 378:0.445244 379:0.457477 380:-0.281497 381:0.744223 382:-0.459772 383:0.216003 384:-0.697841 385:0.431903 386:0.847775 387:-0.617474 388:-0.0801571 389:-0.220962 390:-0.0754347 391:0.0703978 392:0.247727 393:-0.458392 394:-0.51269 395:-0.72593 396:-0.415412 397:-0.366562 398:-0.0832178 399:-0.193296 400:-0.21927 401:-1 402:0.676922 403:-0.48179 404:-0.217309 405:0.100189 406:0.0942802 407:1 408:-0.318837 409:-0.0550151 410:-0.289358 411:0.748406 412:-0.177937 413:0.229881 414:0.167539 415:-0.729629 416:-0.0105327 417:-0.453148 418:-0.238068 419:0.171535 420:-0.022424 421:0.530737 422:0.724714 423:-0.0429783 424:0.246814 425:-0.691422 426:-0.865012 427:-1 428:-0.331267 429:-0.528438 430:0.638138 431:0.341911 432:-0.0292159 433:0.456919 434:0.383906 435:-0.206153 436:-0.114785 437:0.807162 438:0.496671 439:0.111324 440:-0.270248 441:-0.542899 442:0.913617 443:-0.255075 444:-0.564533 445:-0.965086 446:-0.837065 447:0.578821 448:-0.894826 449:-0.64704 450:1 451:-0.0300835 452:0.156995 453:0.51169 454:-0.159912 455:0.639546 456:-0.0218628 457:0.00919077 458:0.102876 459:-0.438508 460:-0.204214 461:0.58384 462:-0.139846 463:0.0809691 464:-0.142305 465:-0.0757129 466:-0.608468 467:-0.631664 468:-0.144599 469:-0.504267 470:-0.26591 471:0.454045 472:0.315263 473:0.247724 474:0.165855 475:0.172744 476:-0.331015 477:0.97745 478:0.198401 479:0.011959 480:-0.00278686 481:0.314391 482:-0.46397 483:-0.223332 484:-0.881607 485:0.0430248 486:0.0642731 487:-0.0578929 488:-0.650356 489:0.215841 490:0.440741 491:-0.0289462 492:-0.00257765 493:0.643417 494:-0.421136 495:-0.534334 496:0.203581 497:-0.314362 498:-0.580181 499:-0.747022 500:0.301585 501:-0.490513 502:0.249868 503:-0.159349 504:0.00578581 505:0.383379 506:0.13329 507:1 508:-0.000414786 509:0.207313 510:0.0426353 511:0.119717 512:0.15487 513:-0.312655 514:-0.152504 515:-0.621573 516:0.674677 517:1 518:-0.190048 519:0.530409 520:0.462753 521:-0.821464 522:-0.262123 523:-0.361748 524:0.426246 525:-0.704052 526:-0.0972505 527:0.264259 528:0.503379 529:-0.308028 530:-0.253398 531:0.835766 532:-0.52084 533:0.115724 534:0.265387 535:0.217389 536:0.604728 537:-0.381264 538:-0.0185728 539:0.0951416 540:0.0332722 541:-0.393808 542:-0.426424 543:-0.442464 544:-0.572128 545:0.00445712 546:0.50805 547:0.00350696 548:-0.224521 549:-0.338903 550:0.10321 551:-0.325122 552:0.754296 553:-0.760702 554:0.345494 555:0.0828558 556:0.124848 557:0.0126604 558:-0.976403 559:0.781064 560:-0.564208 561:-0.783123 562:0.335149 563:0.0192543 564:-0.197133 565:0.0955194 566:-0.7124 567:-0.0710103 568:-0.217529 569:0.164467 570:-0.613118 571:0.318628 572:-0.398152 573:0.0428426 574:0.91758 575:0.537647 576:-0.325122 577:0.754296 578:-0.760702 579:0.345494 580:0.0828558 581:0.124848 582:0.0126604 583:-0.976403 584:0.781064 585:-0.564208 586:-0.783123 587:0.335149 588:0.0192543 589:-0.197133 590:0.0955194 591:-0.7124 592:-0.0710103 593:-0.217529 594:0.164467 595:-0.613118 596:0.318628 597:-0.398152 598:0.0428426 599:0.91758 600:0.537647 601:0.327558 602:0.322026 603:-0.195999 604:-0.373276 605:-0.0924892 606:-0.191425 607:0.47913 608:-0.2889 609:0.413496 610:0.0393875 611:-0.263824 612:0.413005 613:-0.346685 614:-0.020032 615:-0.241079 616:0.481836 617:0.226527 618:-0.185609 619:-0.169577 620:-0.473906 621:-0.155625 622:-0.0220273 623:-0.0961092 624:-0.151836 625:-0.18535 626:-0.0587495 627:0.613943 628:-0.0288906 629:-0.262686 630:0.000392492 631:0.899319 632:-0.171752 633:0.342826 634:-0.378499 635:0.261159 636:1 637:-0.120294 638:-0.561152 639:-0.369771 640:0.412757 641:-0.0415984 642:0.59024 643:0.49937 644:0.72172 645:0.320058 646:0.663779 647:0.091706 648:-0.229909 649:-1 650:0.132344 651:-0.0587495 652:0.613943 653:-0.0288906 654:-0.262686 655:0.000392492 656:0.899319 657:-0.171752 658:0.342826 659:-0.378499 660:0.261159 661:1 662:-0.120294 663:-0.561152 664:-0.369771 665:0.412757 666:-0.0415984 667:0.59024 668:0.49937 669:0.72172 670:0.320058 671:0.663779 672:0.091706 673:-0.229909 674:-1 675:0.132344 676:-0.96722 677:-0.249346 678:0.29709 679:0.734765 680:0.0614125 681:0.938164 682:-0.0763534 683:-0.0876447 684:0.187654 685:0.354477 686:0.77635 687:-0.0227898 688:-0.344127 689:-0.119171 690:-0.194292 691:-0.225924 692:-0.2568 693:-0.150036 694:-0.104648 695:-0.287007 696:0.129205 697:0.0948636 698:-0.299712 699:-0.482339 700:0.0848658 701:-0.96722 702:-0.249346 703:0.29709 704:0.734765 705:0.0614125 706:0.938164 707:-0.0763534 708:-0.0876447 709:0.187654 710:0.354477 711:0.77635 712:-0.0227898 713:-0.344127 714:-0.119171 715:-0.194292 716:-0.225924 717:-0.2568 718:-0.150036 719:-0.104648 720:-0.287007 721:0.129205 722:0.0948636 723:-0.299712 724:-0.482339 725:0.0848658 726:-0.721266 727:0.418357 728:0.842081 729:0.959691 730:-0.478948 731:0.745247 732:-0.312833 733:-0.595943 734:-0.651891 735:0.673356 736:0.999269 737:-0.635586 738:0.326189 739:0.0830913 740:-0.502239 741:0.496553 742:0.152078 743:0.0355717 744:0.651672 745:-0.68902 746:-0.0877111 747:-0.37018 748:-0.592445 749:-0.45997 750:-0.371194 751:-0.364333 752:-0.720512 753:0.00533469 754:0.316712 755:0.220732 756:0.609998 757:-0.259941 758:0.260883 759:0.13358 760:0.334057 761:0.933624 762:-0.0368466 763:-0.295622 764:0.205313 765:0.0323131 766:0.397473 767:-0.379413 768:0.155847 769:0.282701 770:0.306612 771:0.297485 772:0.140453 773:0.30264 774:-0.503284 775:0.160254 776:-0.364333 777:-0.720512 778:0.00533469 779:0.316712 780:0.220732 781:0.609998 782:-0.259941 783:0.260883 784:0.13358 785:0.334057 786:0.933624 787:-0.0368466 788:-0.295622 789:0.205313 790:0.0323131 791:0.397473 792:-0.379413 793:0.155847 794:0.282701 795:0.306612 796:0.297485 797:0.140453 798:0.30264 799:-0.503284 800:0.160254 801:-0.356104 802:0.76431 803:-0.427741 804:-0.294201 805:0.675798 806:0.140764 807:0.259312 808:-0.734562 809:-0.40469 810:0.347878 811:-0.0403986 812:-0.340929 813:0.249921 814:-0.12458 815:-0.502451 816:-0.200225 817:0.0937287 818:-0.65849 819:0.280784 820:0.217879 821:-0.427532 822:-0.282473 823:0.53997 824:1 825:-0.215344 826:-0.410388 827:0.757262 828:-0.380771 829:-0.341022 830:-0.0553475 831:-0.145723 832:0.279361 833:-0.246485 834:0.45721 835:0.0339305 836:-0.560481 837:-0.0225502 838:-0.172731 839:0.466204 840:-0.596781 841:0.136492 842:0.413767 843:0.328889 844:-0.712975 845:-0.404025 846:0.195794 847:0.380902 848:0.0430526 849:-0.739759 850:0.155062 851:-0.723241 852:-0.418308 853:0.632205 854:-0.252645 855:0.145538 856:-0.0907167 857:0.614796 858:0.684229 859:-0.14304 860:-0.268421 861:-0.219993 862:0.128338 863:0.599032 864:-0.13137 865:-0.0760415 866:-0.0921099 867:-0.585641 868:-0.458968 869:-0.248418 870:0.629859 871:0.982946 872:-0.0201255 873:-0.566971 874:-0.0699188 875:0.256422 876:-0.215433 877:-0.0434815 878:-0.12165 879:-0.544687 880:0.341972 881:-0.0916641 882:0.386865 883:0.0981415 884:0.232628 885:0.435993 886:-0.358064 887:0.555244 888:-0.562335 889:0.0717873 890:-0.110195 891:-0.151829 892:-0.481066 893:-0.220544 894:0.0323581 895:-0.07527 896:-0.198657 897:0.107292 898:-0.175759 899:0.333563 900:0.456555 901:0.523687 902:0.107993 903:-0.29442 904:-0.479974 905:-0.385893 906:-0.714716 907:0.39581 908:-0.265124 909:-0.0815688 910:-0.217232 911:-0.285493 912:-0.150363 913:-0.0754436 914:-0.382307 915:0.44692 916:0.427957 917:-0.258014 918:0.775211 919:-0.726686 920:0.177814 921:-0.235322 922:-0.00877615 923:0.235835 924:-0.460168 925:-0.0218204 926:-1 927:-0.14946 928:0.180425 929:-0.149768 930:0.729794 931:0.305743 932:-0.189832 933:0.477296 934:-1 935:0.390906 936:0.211846 937:0.95164 938:-0.0837661 939:0.352388 940:-0.0816354 941:-0.170555 942:1 943:0.847513 944:-0.581908 945:-0.541456 946:-0.333375 947:0.540659 948:-0.69813 949:-0.0452556 950:0.317876 951:0.520586 952:0.228108 953:-0.405255 954:-0.752444 955:-0.129904 956:-0.672797 957:0.202157 958:-0.407358 959:0.0250032 960:-0.0600614 961:-0.473626 962:-0.0167932 963:0.0540444 964:-0.0197164 965:0.199213 966:0.0724534 967:-0.0206626 968:-0.243509 969:0.230682 970:0.00893507 971:0.159436 972:0.351029 973:0.287763 974:0.0563925 975:-0.195521 976:0.0299675 977:0.169442 978:0.0621622 979:0.509491 980:0.408 981:0.918276 982:-0.538557 983:0.311224 984:-0.271706 985:0.646543 986:0.80932 987:-0.646785 988:0.0551275 989:-0.141155 990:0.201296 991:0.192027 992:-0.285697 993:-0.307832 994:-0.120057 995:0.1751 996:-0.300187 997:-0.332505 998:-0.24907 999:0.165476 1000:0.227677 1001:0.012971 1002:-0.0979713 1003:-0.703609 1004:-0.750545 1005:-0.547027 1006:-0.724414 1007:0.306181 1008:0.217266 1009:0.328854 1010:-0.0915719 1011:0.121452 1012:-0.303039 1013:-0.0267969 1014:-0.366459 1015:-0.528439 1016:-0.351712 1017:0.211157 1018:-0.596018 1019:0.653798 1020:-0.0865771 1021:-0.000414613 1022:-0.0256499 1023:-0.429117 1024:0.221211 1025:-0.416487 1026:-0.95715 1027:-0.409624 1028:1 1029:-1 1030:0.138617 1031:-0.161163 1032:0.0048455 1033:0.0811039 1034:-0.673234 1035:0.437015 1036:0.636543 1037:0.163306 1038:0.0403163 1039:-0.0860477 1040:-0.407368 1041:0.594395 1042:-0.366431 1043:-0.271301 1044:0.440113 1045:0.590063 1046:0.301143 1047:-0.232911 1048:0.472398 1049:0.645796 1050:-0.577369 1051:0.201996 1052:0.457618 1053:-0.615226 1054:-0.906032 1055:-0.172614 1056:-0.0948253 1057:0.234713 1058:-0.626465 1059:-0.240671 1060:-0.88997 1061:-0.822786 1062:0.196706 1063:0.241681 1064:0.736446 1065:0.392104 1066:0.101997 1067:0.208731 1068:-0.0601433 1069:-0.562548 1070:0.823423 1071:0.316818 1072:-0.190095 1073:-0.616577 1074:0.109773 1075:0.0617444 1076:0.569089 1077:-0.0494683 1078:-0.170797 1079:0.339775 1080:0.333685 1081:-0.0749393 1082:-0.161958 1083:0.38292 1084:-0.0346235 1085:0.269044 1086:0.274074 1087:-0.130178 1088:0.028968 1089:0.0950669 1090:-0.122768 1091:-0.1917 1092:0.0237456 1093:-0.190091 1094:-0.0924802 1095:-0.153301 1096:0.0638311 1097:-0.306489 1098:-0.218216 1099:0.104272 1100:0.216008 1101:-0.50563 1102:0.203421 1103:0.245419 1104:0.0774496 1105:0.44538 1106:0.136378 1107:-0.0949174 1108:-0.270685 1109:-0.534481 1110:-0.0965377 1111:-0.0280419 1112:0.0315122 1113:0.113037 1114:-0.498676 1115:0.395686 1116:-0.401314 1117:0.0916005 1118:0.865224 1119:0.226003 1120:-0.105823 1121:0.284695 1122:0.306549 1123:-0.569198 1124:-0.351169 1125:0.275231 1126:0.0357918 1127:-0.659615 1128:0.353551 1129:0.0601549 1130:0.0154226 1131:0.329127 1132:-0.057978 1133:-0.0431877 1134:0.338393 1135:-0.0297748 1136:0.445563 1137:0.119471 1138:-0.238398 1139:0.079101 1140:0.311357 1141:0.105451 1142:-0.0180883 1143:-0.199305 1144:-0.162286 1145:-0.236234 1146:-0.42173 1147:0.33458 1148:0.0365811 1149:-0.00804845 1150:-0.498941 1151:-0.0102622 1152:0.524028 1153:-0.259705 1154:0.282813 1155:-0.234842 1156:-0.362684 1157:-0.0810297 1158:0.473466 1159:-0.2013 1160:0.215957 1161:0.229273 1162:-0.104944 1163:0.128584 1164:-0.269016 1165:0.0766143 1166:0.179972 1167:-0.249912 1168:-0.969281 1169:0.648511 1170:0.151451 1171:0.618152 1172:-0.390699 1173:-0.130502 1174:0.304085 1175:-0.303366 1176:-0.0102622 1177:0.524028 1178:-0.259705 1179:0.282813 1180:-0.234842 1181:-0.362684 1182:-0.0810297 1183:0.473466 1184:-0.2013 1185:0.215957 1186:0.229273 1187:-0.104944 1188:0.128584 1189:-0.269016 1190:0.0766143 1191:0.179972 1192:-0.249912 1193:-0.969281 1194:0.648511 1195:0.151451 1196:0.618152 1197:-0.390699 1198:-0.130502 1199:0.304085 1200:-0.303366 1201:-0.13842 1202:0.659231 1203:0.540813 1204:0.967023 1205:-0.0207937 1206:0.49931 1207:-0.905801 1208:-0.35767 1209:-0.264829 1210:0.630794 1211:0.989894 1212:-0.499127 1213:-0.266029 1214:-0.228679 1215:-0.310288 1216:0.18139 1217:0.318597 1218:0.525496 1219:-0.495327 1220:0.0940153 1221:0.0211594 1222:-0.174773 1223:0.309652 1224:0.391418 1225:0.226044 1226:-0.825553 1227:0.0732147 1228:0.293181 1229:0.966208 1230:-0.268693 1231:0.710184 1232:-0.166973 1233:0.0501643 1234:-0.182607 1235:0.352087 1236:0.82532 1237:-0.0312643 1238:-0.15411 1239:-0.230168 1240:0.17336 1241:0.174931 1242:-0.348899 1243:-0.198476 1244:-0.419807 1245:-0.529426 1246:-0.528958 1247:-0.147521 1248:-0.0542299 1249:-0.313268 1250:-0.0165646 1251:-0.825553 1252:0.0732147 1253:0.293181 1254:0.966208 1255:-0.268693 1256:0.710184 1257:-0.166973 1258:0.0501643 1259:-0.182607 1260:0.352087 1261:0.82532 1262:-0.0312643 1263:-0.15411 1264:-0.230168 1265:0.17336 1266:0.174931 1267:-0.348899 1268:-0.198476 1269:-0.419807 1270:-0.529426 1271:-0.528958 1272:-0.147521 1273:-0.0542299 1274:-0.313268 1275:-0.0165646 1276:0.0182709 1277:-0.0177843 1278:-1 1279:0.298104 1280:0.405942 1281:-0.0399546 1282:0.0327477 1283:0.214904 1284:0.580429 1285:-0.254342 1286:-0.243722 1287:-0.116616 1288:-0.482258 1289:-0.167915 1290:-0.0462247 1291:-0.414818 1292:0.465771 1293:0.276346 1294:0.50307 1295:-0.364597 1296:0.0694464 1297:-0.268672 1298:0.357165 1299:0.338112 1300:0.348167 1301:0.0182709 1302:-0.0177843 1303:-1 1304:0.298104 1305:0.405942 1306:-0.0399546 1307:0.0327477 1308:0.214904 1309:0.580429 1310:-0.254342 1311:-0.243722 1312:-0.116616 1313:-0.482258 1314:-0.167915 1315:-0.0462247 1316:-0.414818 1317:0.465771 1318:0.276346 1319:0.50307 1320:-0.364597 1321:0.0694464 1322:-0.268672 1323:0.357165 1324:0.338112 1325:0.348167 1326:-0.86262 1327:0.333332 1328:0.710535 1329:0.997028 1330:0.138087 1331:0.71467 1332:-0.544751 1333:-0.018708 1334:-0.158172 1335:0.206867 1336:0.659298 1337:-0.467115 1338:-0.392056 1339:-0.300391 1340:-0.752002 1341:0.393217 1342:0.00922424 1343:0.0110318 1344:0.340008 1345:-0.318041 1346:0.0298759 1347:-0.0186919 1348:-0.539558 1349:-0.436074 1350:-0.289536 1351:-0.86262 1352:0.333332 1353:0.710535 1354:0.997028 1355:0.138087 1356:0.71467 1357:-0.544751 1358:-0.018708 1359:-0.158172 1360:0.206867 1361:0.659298 1362:-0.467115 1363:-0.392056 1364:-0.300391 1365:-0.752002 1366:0.393217 1367:0.00922424 1368:0.0110318 1369:0.340008 1370:-0.318041 1371:0.0298759 1372:-0.0186919 1373:-0.539558 1374:-0.436074 1375:-0.289536 1376:0.405493 1377:0.141371 1378:-0.288576 1379:0.264232 1380:-0.374343 1381:-0.754348 1382:0.281011 1383:0.29254 1384:0.064585 1385:-0.749799 1386:0.0773256 1387:-0.167843 1388:0.4589 1389:0.23085 1390:0.124776 1391:0.207915 1392:-0.0517123 1393:-0.210576 1394:0.0676867 1395:0.219718 1396:0.352145 1397:-0.274834 1398:0.242536 1399:0.248527 1400:-0.292278 1401:0.405493 1402:0.141371 1403:-0.288576 1404:0.264232 1405:-0.374343 1406:-0.754348 1407:0.281011 1408:0.29254 1409:0.064585 1410:-0.749799 1411:0.0773256 1412:-0.167843 1413:0.4589 1414:0.23085 1415:0.124776 1416:0.207915 1417:-0.0517123 1418:-0.210576 1419:0.0676867 1420:0.219718 1421:0.352145 1422:-0.274834 1423:0.242536 1424:0.248527 1425:-0.292278 1426:-0.196554 1427:-0.634919 1428:-0.448386 1429:0.545304 1430:0.155755 1431:-0.682992 1432:-0.275734 1433:-0.223317 1434:0.375758 1435:-0.692479 1436:0.0488772 1437:0.562793 1438:-0.250501 1439:0.109653 1440:0.0470945 1441:0.0747287 1442:-0.517852 1443:-0.853072 1444:0.0595253 1445:0.25722 1446:-0.546762 1447:0.371855 1448:-0.0301729 1449:0.959268 1450:0.411742 1451:-0.196554 1452:-0.634919 1453:-0.448386 1454:0.545304 1455:0.155755 1456:-0.682992 1457:-0.275734 1458:-0.223317 1459:0.375758 1460:-0.692479 1461:0.0488772 1462:0.562793 1463:-0.250501 1464:0.109653 1465:0.0470945 1466:0.0747287 1467:-0.517852 1468:-0.853072 1469:0.0595253 1470:0.25722 1471:-0.546762 1472:0.371855 1473:-0.0301729 1474:0.959268 1475:0.411742 1476:-0.600691 1477:-0.302887 1478:0.0856596 1479:0.790186 1480:-0.409452 1481:0.938374 1482:-0.480498 1483:-0.0234713 1484:-0.417953 1485:0.277738 1486:0.724781 1487:0.157127 1488:0.000291761 1489:-0.0377045 1490:0.214902 1491:0.0487232 1492:-0.00325927 1493:-0.262037 1494:-0.186763 1495:-0.189864 1496:-0.228851 1497:-0.0644261 1498:-0.266312 1499:-0.5139 1500:0.291006 1501:-0.600691 1502:-0.302887 1503:0.0856596 1504:0.790186 1505:-0.409452 1506:0.938374 1507:-0.480498 1508:-0.0234713 1509:-0.417953 1510:0.277738 1511:0.724781 1512:0.157127 1513:0.000291761 1514:-0.0377045 1515:0.214902 1516:0.0487232 1517:-0.00325927 1518:-0.262037 1519:-0.186763 1520:-0.189864 1521:-0.228851 1522:-0.0644261 1523:-0.266312 1524:-0.5139 1525:0.291006 1526:-0.457323 1527:0.539173 1528:0.91074 1529:0.446809 1530:-0.691774 1531:0.998098 1532:-0.569429 1533:-0.0539448 1534:0.111305 1535:0.78103 1536:0.919112 1537:-0.103917 1538:-0.623756 1539:0.0809761 1540:-0.294246 1541:0.605945 1542:-0.0687212 1543:-0.520609 1544:-0.336879 1545:-0.342928 1546:-0.597447 1547:0.194481 1548:0.540748 1549:0.832732 1550:0.0369744 1551:-0.103647 1552:-0.240815 1553:0.701838 1554:0.426718 1555:-0.357325 1556:-0.00140121 1557:-0.818427 1558:-0.658632 1559:-0.132641 1560:-0.164152 1561:0.0353963 1562:0.0214012 1563:-0.339448 1564:1 1565:0.0494217 1566:-0.929467 1567:0.261069 1568:-0.758372 1569:0.14996 1570:-0.0306054 1571:0.401779 1572:0.0227064 1573:-0.669298 1574:0.140121 1575:-0.0694818 1576:-0.103647 1577:-0.240815 1578:0.701838 1579:0.426718 1580:-0.357325 1581:-0.00140121 1582:-0.818427 1583:-0.658632 1584:-0.132641 1585:-0.164152 1586:0.0353963 1587:0.0214012 1588:-0.339448 1589:1 1590:0.0494217 1591:-0.929467 1592:0.261069 1593:-0.758372 1594:0.14996 1595:-0.0306054 1596:0.401779 1597:0.0227064 1598:-0.669298 1599:0.140121 1600:-0.0694818 1601:-0.437353 1602:0.923474 1603:-0.230872 1604:0.547585 1605:0.0684646 1606:-0.595832 1607:-0.207883 1608:-0.299253 1609:0.328482 1610:0.242285 1611:-0.96633 1612:-0.0347417 1613:0.580287 1614:0.464209 1615:-0.0613008 1616:0.51869 1617:0.0684529 1618:1 1619:-0.257679 1620:-0.499492 1621:-0.339392 1622:0.121441 1623:0.220293 1624:-0.8454 1625:0.0173435 1626:-0.293893 1627:0.0364022 1628:0.140974 1629:0.070212 1630:-0.303477 1631:-0.0265154 1632:0.00772201 1633:-0.448709 1634:0.271213 1635:-0.660287 1636:0.404428 1637:0.208528 1638:-0.113368 1639:0.406736 1640:-0.135398 1641:-0.106609 1642:0.0530098 1643:0.304278 1644:-0.297614 1645:-0.352588 1646:-0.571696 1647:0.244643 1648:0.20432 1649:-0.252963 1650:0.0649263 1651:0.165581 1652:0.116051 1653:-0.362877 1654:-0.0772501 1655:0.253978 1656:-0.0371334 1657:-0.00581334 1658:-0.212325 1659:0.0201607 1660:-0.0820964 1661:-0.286447 1662:0.0573983 1663:-0.157543 1664:-0.0566089 1665:0.557947 1666:0.240109 1667:-0.332901 1668:0.929851 1669:-0.288101 1670:0.181513 1671:-0.245701 1672:0.353304 1673:0.37702 1674:-0.307611 1675:-0.0665863 1676:0.0181826 1677:0.0482856 1678:0.0350421 1679:-0.275298 1680:0.331045 1681:0.673036 1682:0.110459 1683:0.270549 1684:0.130989 1685:0.0806748 1686:0.329917 1687:-0.0472254 1688:-0.193211 1689:-0.191893 1690:-0.343118 1691:0.21386 1692:-0.460025 1693:-0.655417 1694:-0.162527 1695:0.722382 1696:0.28884 1697:0.368443 1698:-0.405412 1699:0.103748 1700:0.284187 1701:-0.686125 1702:0.231184 1703:0.462002 1704:-0.671164 1705:0.413685 1706:-0.868055 1707:-0.147683 1708:-0.663937 1709:-0.664929 1710:-0.239204 1711:0.0986603 1712:0.252473 1713:-1 1714:0.17029 1715:-0.749373 1716:-0.229403 1717:0.0888452 1718:-0.212587 1719:1 1720:-0.480794 1721:-0.745237 1722:-0.246985 1723:0.0333539 1724:0.417189 1725:0.370124 1726:-0.165012 1727:0.257968 1728:0.0158288 1729:-0.371554 1730:-0.25928 1731:0.2546 1732:-0.0617212 1733:1 1734:0.612251 1735:-0.0246775 1736:-0.44013 1737:-0.274051 1738:0.254533 1739:0.435029 1740:-0.49112 1741:0.420187 1742:-0.415388 1743:-0.356335 1744:-0.263023 1745:0.190316 1746:0.169081 1747:-0.214505 1748:0.188521 1749:-0.032586 1750:-0.520696 1751:-0.856599 1752:0.332752 1753:-0.548948 1754:-0.0152456 1755:0.355834 1756:0.587678 1757:-0.0640612 1758:-0.215052 1759:0.158925 1760:0.509873 1761:-0.498961 1762:-0.0606112 1763:0.53048 1764:-0.444955 1765:-0.313931 1766:-0.269156 1767:0.417124 1768:-0.0549223 1769:-0.099681 1770:-0.0267081 1771:-0.646254 1772:0.786029 1773:0.164202 1774:-0.32853 1775:-0.368737 1776:-0.76472 1777:0.572588 1778:-0.45622 1779:-0.546931 1780:-0.335757 1781:-0.0684643 1782:0.216239 1783:-0.468668 1784:0.446649 1785:0.487881 1786:-0.513954 1787:0.35776 1788:-0.205046 1789:0.277494 1790:0.504415 1791:-0.366082 1792:0.486264 1793:0.031621 1794:-0.376645 1795:0.0519853 1796:-0.654016 1797:-0.208741 1798:-0.285437 1799:0.295637 1800:-0.0312071 1801:-0.468541 1802:-0.156824 1803:0.230321 1804:0.468084 1805:-0.25898 1806:0.683587 1807:-0.417671 1808:-0.0386563 1809:0.310087 1810:0.397807 1811:0.717338 1812:0.0525352 1813:-0.00888502 1814:0.0218751 1815:-0.0835707 1816:-0.590491 1817:-0.277999 1818:-0.649957 1819:0.274571 1820:-0.118567 1821:0.0283351 1822:0.1128 1823:0.03302 1824:0.159888 1825:0.308521 1826:-1 1827:-0.0339957 1828:-0.305346 1829:0.43557 1830:0.604006 1831:0.0903874 1832:0.612661 1833:-0.0360533 1834:0.592966 1835:-0.044302 1836:0.204292 1837:1 1838:-0.152964 1839:-0.759489 1840:-0.791701 1841:-0.110173 1842:0.723667 1843:0.0696454 1844:-0.514847 1845:0.142591 1846:-0.668382 1847:0.111581 1848:-0.167104 1849:-0.61808 1850:0.518216 1851:-0.865395 1852:0.263282 1853:-0.397434 1854:-0.956136 1855:0.105395 1856:0.0586449 1857:0.486422 1858:0.166735 1859:0.982061 1860:0.331383 1861:-0.047702 1862:0.581511 1863:-0.181987 1864:0.429886 1865:-0.615229 1866:0.644016 1867:-0.760379 1868:0.332209 1869:0.423527 1870:-0.0334032 1871:1 1872:-0.00343518 1873:-0.439506 1874:0.29536 1875:-0.554148 1876:0.434912 1877:-0.245216 1878:0.535307 1879:0.521363 1880:-0.0669031 1881:0.620068 1882:-1 1883:0.0361312 1884:-0.564248 1885:0.226888 1886:0.279166 1887:-0.353704 1888:0.637995 1889:-0.29453 1890:0.333991 1891:-0.470309 1892:-1 1893:-0.340316 1894:-0.485647 1895:-0.0820536 1896:0.429926 1897:0.0364742 1898:-0.0291595 1899:0.0738958 1900:0.813416 1901:-0.0617408 1902:0.664228 1903:-0.361586 1904:-0.913247 1905:-0.0504552 1906:-0.622731 1907:0.173105 1908:-0.397978 1909:-0.260311 1910:0.495415 1911:-0.97716 1912:-0.196224 1913:0.0219307 1914:-0.11146 1915:0.125947 1916:0.195028 1917:-0.189519 1918:0.253681 1919:0.294353 1920:-0.00874258 1921:-0.291812 1922:0.105806 1923:-0.127147 1924:-0.309833 1925:0.128895 1926:0.566847 1927:-0.154342 1928:0.38865 1929:-0.113774 1930:-0.0128303 1931:0.20428 1932:-0.113224 1933:-0.153945 1934:0.0149449 1935:0.321234 1936:0.118921 1937:0.299438 1938:-0.707678 1939:0.453352 1940:-0.619006 1941:-0.136423 1942:0.109611 1943:-0.366584 1944:-0.190377 1945:-0.713168 1946:-0.340605 1947:0.210551 1948:0.533176 1949:-0.0597687 1950:-0.307939 1951:-0.054772 1952:0.287115 1953:-0.523382 1954:-0.674808 1955:-0.111758 1956:-0.514104 1957:0.0995527 1958:-0.0850523 1959:0.320088 1960:0.435363 1961:-0.728908 1962:0.282607 1963:0.169098 1964:-0.279793 1965:0.277846 1966:0.350712 1967:-0.333867 1968:0.692737 1969:-0.436738 1970:-0.123778 1971:0.412653 1972:-0.0178844 1973:-0.321585 1974:-0.349085 1975:-0.151314 1976:-1 1977:1 1978:1 1979:-1 1980:1 1981:-0.20298 1982:-0.60967 1983:-1 1984:-1 1985:0.559152 1986:-1 1987:-0.207394 1988:-0.342882 1989:-0.134281 1990:-0.450959 1991:-1 1992:-0.155907 1993:0.064016 1994:0.899187 1995:0.305605 1996:0.567343 1997:0.372435 1998:1 1999:0.954962 2000:-0.797646 2001:0.357415 2002:0.624483 2003:-0.475017 2004:-0.974385 2005:0.462151 2006:-0.790696 2007:0.466064 2008:-0.589209 2009:-0.354629 2010:-0.202353 2011:-0.455057 2012:-0.314524 2013:0.0625799 2014:0.0685038 2015:-0.330454 2016:0.419253 2017:-0.327837 2018:-0.118785 2019:0.37774 2020:-0.206583 2021:0.146631 2022:-0.0597171 2023:-0.413676 2024:0.551513 2025:-0.583591 2026:-0.309261 2027:-0.351686 2028:-0.274897 2029:0.168152 2030:-0.139741 2031:-0.172238 2032:0.525568 2033:0.127877 2034:-0.186226 2035:-0.179406 2036:0.19364 2037:0.232087 2038:0.607036 2039:-0.304437 2040:0.138573 2041:-0.157688 2042:0.27404 2043:-0.4493 2044:0.205671 2045:0.27213 2046:-0.188894 2047:0.069605 2048:-0.395522 2049:-0.1364 2050:-0.0185735 2051:-0.265253 2052:0.633588 2053:0.98001 2054:-0.152131 2055:0.142295 2056:0.668465 2057:-0.331421 2058:0.179311 2059:-0.0249987 2060:0.50341 2061:0.18141 2062:-0.180196 2063:0.423312 2064:-0.459337 2065:0.529223 2066:-0.647201 2067:-0.183963 2068:-0.315969 2069:0.443304 2070:-0.785939 2071:0.110411 2072:0.253169 2073:0.0910283 2074:-0.242665 2075:0.522254 2076:0.229076 2077:-0.287323 2078:-0.0529875 2079:0.532729 2080:0.834784 2081:0.255083 2082:-0.226308 2083:-0.233143 2084:0.0783256 2085:0.155512 2086:-0.339721 2087:-0.36114 2088:-0.177038 2089:-0.126864 2090:0.297249 2091:0.829202 2092:-0.835979 2093:0.907957 2094:0.0582025 2095:-0.12912 2096:-0.363006 2097:0.179514 2098:0.621667 2099:-0.109062 2100:0.769226 2101:-0.129266 2102:-0.476841 2103:-0.384236 2104:-0.240899 2105:0.344971 2106:-0.660764 2107:-0.384002 2108:0.575977 2109:-0.0919208 2110:-0.13329 2111:-0.300595 2112:0.203224 2113:-0.211909 2114:0.0941446 2115:-0.857941 2116:-0.870493 2117:-0.313124 2118:-0.83378 2119:0.396309 2120:0.0422279 2121:0.41156 2122:-0.0453221 2123:-0.838546 2124:-0.00648053 2125:0.0942088 2126:-0.443614 2127:-0.315282 2128:0.490807 2129:0.632177 2130:-0.327023 2131:0.826887 2132:-0.0568352 2133:0.0429426 2134:-0.233542 2135:0.796579 2136:0.892016 2137:-0.431349 2138:-0.267326 2139:0.170079 2140:0.301361 2141:-0.0382505 2142:0.0532462 2143:-0.105911 2144:0.0206085 2145:0.395799 2146:0.288682 2147:0.123834 2148:-0.304389 2149:-0.2714 2150:0.174333 2151:-0.507528 2152:-0.629146 2153:0.235731 2154:-0.260104 2155:-0.0508106 2156:0.362041 2157:0.333152 2158:0.442221 2159:-0.572398 2160:0.09023 2161:0.299685 2162:-0.142489 2163:0.263361 2164:-0.151042 2165:0.417133 2166:0.422992 2167:-0.0113154 2168:0.106859 2169:0.622337 2170:0.665057 2171:-0.0737022 2172:-0.376467 2173:-0.597953 2174:-0.021721 2175:-0.0608629 2176:-0.295555 2177:0.0163808 2178:0.346514 2179:0.352424 2180:0.00654239 2181:1 2182:-0.246616 2183:-0.310762 2184:-0.174154 2185:0.513717 2186:0.582419 2187:-0.204125 2188:0.186749 2189:-0.0163544 2190:0.198575 2191:0.0885203 2192:-0.0132578 2193:0.0604438 2194:0.01605 2195:-0.367946 2196:-0.211404 2197:0.0542385 2198:-0.1514 2199:0.0720173 2200:-0.123391 2201:-0.290905 2202:0.138211 2203:-0.201585 2204:0.33228 2205:0.26875 2206:0.332637 2207:0.965139 2208:-0.526182 2209:0.953533 2210:-0.363081 2211:-0.0643733 2212:-0.142501 2213:-0.955499 2214:0.171215 2215:1 2216:-0.437274 2217:-0.219248 2218:-0.540286 2219:0.735591 2220:0.266525 2221:-0.19422 2222:-0.00111926 2223:0.700677 2224:-0.254572 2225:-0.371066 2226:0.692458 2227:-0.463196 2228:-0.529168 2229:-0.788304 2230:-0.109751 2231:-0.765675 2232:-0.794091 2233:-0.773369 2234:-0.694456 2235:-0.952338 2236:-0.620104 2237:-0.435663 2238:0.061596 2239:0.885258 2240:-0.0774292 2241:0.397448 2242:0.644465 2243:-0.705238 2244:-0.430274 2245:-0.590362 2246:-0.130349 2247:-0.787411 2248:-0.467897 2249:0.0815233 2250:-0.398671 2251:0.145222 2252:0.203242 2253:-0.630158 2254:-0.529213 2255:0.227159 2256:-0.332832 2257:0.0353529 2258:-0.181414 2259:0.154954 2260:-0.0890361 2261:-0.432688 2262:0.523796 2263:0.27405 2264:0.430468 2265:-0.353967 2266:0.0475128 2267:-0.136241 2268:0.496322 2269:0.55856 2270:-0.92573 2271:-0.0756636 2272:-0.312804 2273:-0.113917 2274:0.503126 2275:0.175413 2276:0.145222 2277:0.203242 2278:-0.630158 2279:-0.529213 2280:0.227159 2281:-0.332832 2282:0.0353529 2283:-0.181414 2284:0.154954 2285:-0.0890361 2286:-0.432688 2287:0.523796 2288:0.27405 2289:0.430468 2290:-0.353967 2291:0.0475128 2292:-0.136241 2293:0.496322 2294:0.55856 2295:-0.92573 2296:-0.0756636 2297:-0.312804 2298:-0.113917 2299:0.503126 2300:0.175413 2301:-0.949581 2302:0.31783 2303:0.752911 2304:0.866633 2305:-0.317947 2306:0.62675 2307:-0.33121 2308:-0.40855 2309:0.0455814 2310:0.418948 2311:0.492504 2312:-0.416148 2313:-0.091098 2314:-0.0351996 2315:-0.00799895 2316:0.550622 2317:0.117627 2318:0.076534 2319:0.228379 2320:-0.289037 2321:-0.242235 2322:0.104527 2323:0.209907 2324:0.399343 2325:0.472366 2326:-0.949581 2327:0.31783 2328:0.752911 2329:0.866633 2330:-0.317947 2331:0.62675 2332:-0.33121 2333:-0.40855 2334:0.0455814 2335:0.418948 2336:0.492504 2337:-0.416148 2338:-0.091098 2339:-0.0351996 2340:-0.00799895 2341:0.550622 2342:0.117627 2343:0.076534 2344:0.228379 2345:-0.289037 2346:-0.242235 2347:0.104527 2348:0.209907 2349:0.399343 2350:0.472366 2351:-0.307507 2352:-0.192919 2353:0.295086 2354:0.634471 2355:-0.300664 2356:0.708201 2357:-0.535808 2358:-0.304668 2359:-0.313476 2360:0.22929 2361:0.445583 2362:-0.00549436 2363:-0.0238002 2364:0.141251 2365:-0.085548 2366:0.0928986 2367:0.0580441 2368:0.234036 2369:0.181392 2370:-0.0842343 2371:0.0129286 2372:-0.291759 2373:-0.0180989 2374:0.129178 2375:0.126051 2376:-0.898825 2377:-0.130631 2378:0.416821 2379:0.585817 2380:-0.303329 2381:0.890115 2382:-0.522793 2383:-0.532885 2384:-0.168088 2385:0.421003 2386:0.433869 2387:0.00505569 2388:-0.525264 2389:0.00666102 2390:-0.172549 2391:-0.245919 2392:0.0979423 2393:-0.00377003 2394:0.162555 2395:-0.221259 2396:-0.0797676 2397:-0.175662 2398:-0.116452 2399:0.141141 2400:0.192483 2401:-0.898825 2402:-0.130631 2403:0.416821 2404:0.585817 2405:-0.303329 2406:0.890115 2407:-0.522793 2408:-0.532885 2409:-0.168088 2410:0.421003 2411:0.433869 2412:0.00505569 2413:-0.525264 2414:0.00666102 2415:-0.172549 2416:-0.245919 2417:0.0979423 2418:-0.00377003 2419:0.162555 2420:-0.221259 2421:-0.0797676 2422:-0.175662 2423:-0.116452 2424:0.141141 2425:0.192483 2426:0.0731517 2427:-0.0556245 2428:-0.457558 2429:0.687403 2430:0.419991 2431:1 2432:-0.163425 2433:0.294606 2434:-0.305431 2435:0.411098 2436:0.664902 2437:-0.469277 2438:-0.751531 2439:-0.496807 2440:0.0254302 2441:0.353144 2442:-0.744656 2443:0.592488 2444:-0.0311327 2445:0.187279 2446:0.652065 2447:0.0826814 2448:-0.0987326 2449:-0.276007 2450:-0.0667847 2451:0.16709 2452:-0.258735 2453:-0.145324 2454:0.049825 2455:-0.328163 2456:0.413387 2457:-0.63493 2458:0.0891354 2459:-0.361769 2460:0.0312734 2461:-0.15602 2462:0.0358553 2463:0.2713 2464:0.254788 2465:0.0055153 2466:-0.806495 2467:0.299188 2468:-0.60839 2469:0.44298 2470:-0.297392 2471:-0.121596 2472:-0.0669429 2473:0.208022 2474:-0.359436 2475:-0.274851 2476:-0.0236199 2477:-0.101188 2478:-0.773405 2479:-0.448599 2480:0.0218867 2481:-0.262289 2482:-0.220366 2483:-0.591112 2484:0.0309815 2485:0.140788 2486:-0.500926 2487:-0.515651 2488:-0.292891 2489:-0.142398 2490:-0.646846 2491:-0.649202 2492:0.33561 2493:-0.247893 2494:0.632518 2495:-0.417282 2496:0.245132 2497:0.336838 2498:-0.701808 2499:0.308922 2500:-0.202926 2501:-0.468123 2502:-0.160065 2503:-0.751399 2504:-0.588782 2505:1 2506:-0.039546 2507:0.401102 2508:0.133249 2509:0.564266 2510:-0.624264 2511:-0.386251 2512:0.285564 2513:0.625926 2514:-0.451185 2515:0.151449 2516:0.297234 2517:0.0366827 2518:-0.481343 2519:0.645575 2520:0.444545 2521:-0.0274294 2522:-0.154438 2523:-0.00963203 2524:1 2525:0.330608 2526:-0.468123 2527:-0.160065 2528:-0.751399 2529:-0.588782 2530:1 2531:-0.039546 2532:0.401102 2533:0.133249 2534:0.564266 2535:-0.624264 2536:-0.386251 2537:0.285564 2538:0.625926 2539:-0.451185 2540:0.151449 2541:0.297234 2542:0.0366827 2543:-0.481343 2544:0.645575 2545:0.444545 2546:-0.0274294 2547:-0.154438 2548:-0.00963203 2549:1 2550:0.330608 2551:0.478594 2552:-0.584379 2553:-0.0505574 2554:-0.796359 2555:0.0776924 2556:-0.615108 2557:-0.496535 2558:-0.879614 2559:-0.92799 2560:-0.898513 2561:-0.206924 2562:-0.0147248 2563:0.164033 2564:-0.164896 2565:0.310563 2566:0.398663 2567:-0.25746 2568:0.378137 2569:0.0797317 2570:-0.585088 2571:-0.190783 2572:0.142928 2573:0.564005 2574:0.0113356 2575:-0.148851 2576:0.478594 2577:-0.584379 2578:-0.0505574 2579:-0.796359 2580:0.0776924 2581:-0.615108 2582:-0.496535 2583:-0.879614 2584:-0.92799 2585:-0.898513 2586:-0.206924 2587:-0.0147248 2588:0.164033 2589:-0.164896 2590:0.310563 2591:0.398663 2592:-0.25746 2593:0.378137 2594:0.0797317 2595:-0.585088 2596:-0.190783 2597:0.142928 2598:0.564005 2599:0.0113356 2600:-0.148851 2601:0.159069 2602:-0.279695 2603:-0.341612 2604:-0.280442 2605:-0.0735526 2606:-0.608383 2607:0.288601 2608:0.0252817 2609:0.478362 2610:0.265263 2611:-0.435705 2612:0.440471 2613:-0.224213 2614:0.178614 2615:0.442932 2616:0.249693 2617:0.279614 2618:0.339319 2619:0.130429 2620:0.236594 2621:-0.222356 2622:0.0359466 2623:-0.854937 2624:0.289924 2625:-0.0104528 2626:0.159069 2627:-0.279695 2628:-0.341612 2629:-0.280442 2630:-0.0735526 2631:-0.608383 2632:0.288601 2633:0.0252817 2634:0.478362 2635:0.265263 2636:-0.435705 2637:0.440471 2638:-0.224213 2639:0.178614 2640:0.442932 2641:0.249693 2642:0.279614 2643:0.339319 2644:0.130429 2645:0.236594 2646:-0.222356 2647:0.0359466 2648:-0.854937 2649:0.289924 2650:-0.0104528 2651:0.0814626 2652:0.39427 2653:-0.734588 2654:0.353271 2655:0.296577 2656:0.0051544 2657:0.449935 2658:0.287393 2659:0.0986824 2660:-0.659682 2661:-0.154018 2662:0.432258 2663:-0.542751 2664:0.13598 2665:-0.0362325 2666:0.118816 2667:0.323664 2668:-0.260068 2669:0.452502 2670:-0.155418 2671:0.591371 2672:0.0268694 2673:-0.60721 2674:-0.314182 2675:-0.50571 2676:0.0814626 2677:0.39427 2678:-0.734588 2679:0.353271 2680:0.296577 2681:0.0051544 2682:0.449935 2683:0.287393 2684:0.0986824 2685:-0.659682 2686:-0.154018 2687:0.432258 2688:-0.542751 2689:0.13598 2690:-0.0362325 2691:0.118816 2692:0.323664 2693:-0.260068 2694:0.452502 2695:-0.155418 2696:0.591371 2697:0.0268694 2698:-0.60721 2699:-0.314182 2700:-0.50571 2701:0.694303 2702:-0.763285 2703:-0.256145 2704:0.352723 2705:-0.39709 2706:-0.508909 2707:-0.702865 2708:-0.644395 2709:-0.955214 2710:-0.550234 2711:0.117981 2712:-0.492975 2713:0.343987 2714:0.35473 2715:-0.281001 2716:0.0985384 2717:-0.14676 2718:-0.348747 2719:-0.077518 2720:0.177828 2721:0.481462 2722:0.0190974 2723:0.0733861 2724:0.461761 2725:0.131974 2726:0.694303 2727:-0.763285 2728:-0.256145 2729:0.352723 2730:-0.39709 2731:-0.508909 2732:-0.702865 2733:-0.644395 2734:-0.955214 2735:-0.550234 2736:0.117981 2737:-0.492975 2738:0.343987 2739:0.35473 2740:-0.281001 2741:0.0985384 2742:-0.14676 2743:-0.348747 2744:-0.077518 2745:0.177828 2746:0.481462 2747:0.0190974 2748:0.0733861 2749:0.461761 2750:0.131974 2751:-0.397383 2752:-0.394086 2753:0.0654404 2754:0.437129 2755:-0.601312 2756:0.709654 2757:-0.287908 2758:-0.404347 2759:-0.306362 2760:0.272595 2761:0.24674 2762:0.0143658 2763:0.150908 2764:-0.00277881 2765:0.0608027 2766:0.0682291 2767:-0.00304766 2768:-0.206841 2769:0.0459018 2770:-0.0221862 2771:0.277333 2772:-0.307988 2773:0.332527 2774:0.133616 2775:-0.0952635 2776:-0.397383 2777:-0.394086 2778:0.0654404 2779:0.437129 2780:-0.601312 2781:0.709654 2782:-0.287908 2783:-0.404347 2784:-0.306362 2785:0.272595 2786:0.24674 2787:0.0143658 2788:0.150908 2789:-0.00277881 2790:0.0608027 2791:0.0682291 2792:-0.00304766 2793:-0.206841 2794:0.0459018 2795:-0.0221862 2796:0.277333 2797:-0.307988 2798:0.332527 2799:0.133616 2800:-0.0952635 2801:0.707136 2802:-0.423737 2803:-0.510729 2804:0.758242 2805:0.14412 2806:-0.226884 2807:-0.364742 2808:0.00369338 2809:0.276289 2810:0.0425131 2811:0.0158812 2812:-1 2813:0.419893 2814:0.687171 2815:-0.186065 2816:-0.246666 2817:0.0978243 2818:0.00820708 2819:-0.0865417 2820:-0.537982 2821:0.766843 2822:-0.330495 2823:-0.74143 2824:1 2825:0.325713 2826:0.707136 2827:-0.423737 2828:-0.510729 2829:0.758242 2830:0.14412 2831:-0.226884 2832:-0.364742 2833:0.00369338 2834:0.276289 2835:0.0425131 2836:0.0158812 2837:-1 2838:0.419893 2839:0.687171 2840:-0.186065 2841:-0.246666 2842:0.0978243 2843:0.00820708 2844:-0.0865417 2845:-0.537982 2846:0.766843 2847:-0.330495 2848:-0.74143 2849:1 2850:0.325713 2851:-0.7737 2852:-0.479749 2853:0.410799 2854:0.929232 2855:-0.708275 2856:0.331508 2857:-0.517734 2858:-0.469905 2859:-0.503137 2860:-0.166021 2861:0.503296 2862:0.341651 2863:-0.0555984 2864:0.118896 2865:0.24713 2866:-0.0892963 2867:0.239247 2868:0.0564813 2869:0.164412 2870:0.311141 2871:0.13738 2872:0.0230317 2873:0.041677 2874:0.565573 2875:0.200797 2876:-0.7737 2877:-0.479749 2878:0.410799 2879:0.929232 2880:-0.708275 2881:0.331508 2882:-0.517734 2883:-0.469905 2884:-0.503137 2885:-0.166021 2886:0.503296 2887:0.341651 2888:-0.0555984 2889:0.118896 2890:0.24713 2891:-0.0892963 2892:0.239247 2893:0.0564813 2894:0.164412 2895:0.311141 2896:0.13738 2897:0.0230317 2898:0.041677 2899:0.565573 2900:0.200797 2901:-0.931384 2902:0.903531 2903:0.661808 2904:0.998466 2905:-0.437358 2906:0.795645 2907:-0.323705 2908:-0.141994 2909:-0.68792 2910:0.559282 2911:0.922367 2912:-0.262046 2913:-0.429453 2914:-0.592713 2915:-0.0180194 2916:0.878664 2917:0.83279 2918:0.571062 2919:0.328372 2920:-0.291829 2921:0.0949735 2922:0.635508 2923:0.134421 2924:-0.49089 2925:0.394523 2926:-0.931384 2927:0.903531 2928:0.661808 2929:0.998466 2930:-0.437358 2931:0.795645 2932:-0.323705 2933:-0.141994 2934:-0.68792 2935:0.559282 2936:0.922367 2937:-0.262046 2938:-0.429453 2939:-0.592713 2940:-0.0180194 2941:0.878664 2942:0.83279 2943:0.571062 2944:0.328372 2945:-0.291829 2946:0.0949735 2947:0.635508 2948:0.134421 2949:-0.49089 2950:0.394523 2951:0.242295 2952:-0.272103 2953:0.43551 2954:0.0694966 2955:0.00612114 2956:0.745167 2957:0.0368115 2958:0.380474 2959:0.288804 2960:-0.342513 2961:0.923473 2962:0.553457 2963:0.199348 2964:-0.0719399 2965:-0.0851676 2966:0.192726 2967:-0.122003 2968:-0.223278 2969:-0.450499 2970:0.0738306 2971:0.299496 2972:0.559328 2973:-0.122634 2974:0.253049 2975:0.0483593 2976:0.242295 2977:-0.272103 2978:0.43551 2979:0.0694966 2980:0.00612114 2981:0.745167 2982:0.0368115 2983:0.380474 2984:0.288804 2985:-0.342513 2986:0.923473 2987:0.553457 2988:0.199348 2989:-0.0719399 2990:-0.0851676 2991:0.192726 2992:-0.122003 2993:-0.223278 2994:-0.450499 2995:0.0738306 2996:0.299496 2997:0.559328 2998:-0.122634 2999:0.253049 3000:0.0483593 3001:0.485337 3002:0.309182 3003:-0.863876 3004:-0.705146 3005:-0.451024 3006:-0.920235 3007:0.287501 3008:-0.986582 3009:0.294172 3010:-0.0577347 3011:-0.507335 3012:0.635469 3013:-0.113135 3014:-0.0567408 3015:-0.469444 3016:0.177104 3017:-0.228778 3018:-0.327433 3019:0.214364 3020:-0.0351659 3021:0.205857 3022:0.493005 3023:0.032841 3024:-0.165166 3025:-0.205313 3026:0.485337 3027:0.309182 3028:-0.863876 3029:-0.705146 3030:-0.451024 3031:-0.920235 3032:0.287501 3033:-0.986582 3034:0.294172 3035:-0.0577347 3036:-0.507335 3037:0.635469 3038:-0.113135 3039:-0.0567408 3040:-0.469444 3041:0.177104 3042:-0.228778 3043:-0.327433 3044:0.214364 3045:-0.0351659 3046:0.205857 3047:0.493005 3048:0.032841 3049:-0.165166 3050:-0.205313 3051:-0.170782 3052:-0.161441 3053:0.324136 3054:0.203413 3055:-0.291667 3056:0.914483 3057:-0.35734 3058:0.157968 3059:-0.0797047 3060:0.266661 3061:0.659954 3062:0.181988 3063:-0.126045 3064:0.00133078 3065:0.044181 3066:-0.218257 3067:-0.212696 3068:-0.0796345 3069:-0.303559 3070:-0.199963 3071:-0.105218 3072:0.244342 3073:0.199595 3074:0.425159 3075:0.561208 3076:-0.713716 3077:0.211131 3078:0.108239 3079:0.244238 3080:-0.511465 3081:0.610981 3082:-0.807661 3083:0.0677657 3084:-0.343969 3085:0.506902 3086:0.431466 3087:-0.272146 3088:-0.221901 3089:0.0351473 3090:0.295282 3091:0.164924 3092:-0.067192 3093:0.0180922 3094:0.138192 3095:0.0266347 3096:-0.388696 3097:0.0680408 3098:0.159338 3099:0.0516884 3100:-0.155089 3101:-0.713716 3102:0.211131 3103:0.108239 3104:0.244238 3105:-0.511465 3106:0.610981 3107:-0.807661 3108:0.0677657 3109:-0.343969 3110:0.506902 3111:0.431466 3112:-0.272146 3113:-0.221901 3114:0.0351473 3115:0.295282 3116:0.164924 3117:-0.067192 3118:0.0180922 3119:0.138192 3120:0.0266347 3121:-0.388696 3122:0.0680408 3123:0.159338 3124:0.0516884 3125:-0.155089 3126:-0.0694305 3127:-0.842653 3128:-0.079601 3129:0.201269 3130:-0.466266 3131:0.387955 3132:-0.871675 3133:-0.0938593 3134:-0.494082 3135:-0.543852 3136:-0.0373245 3137:0.0897986 3138:0.257696 3139:0.24245 3140:0.385458 3141:0.121267 3142:0.204865 3143:-0.116756 3144:0.552481 3145:-0.24785 3146:-0.16703 3147:-0.0470513 3148:-0.302553 3149:-0.141097 3150:0.00294691 3151:-0.0694305 3152:-0.842653 3153:-0.079601 3154:0.201269 3155:-0.466266 3156:0.387955 3157:-0.871675 3158:-0.0938593 3159:-0.494082 3160:-0.543852 3161:-0.0373245 3162:0.0897986 3163:0.257696 3164:0.24245 3165:0.385458 3166:0.121267 3167:0.204865 3168:-0.116756 3169:0.552481 3170:-0.24785 3171:-0.16703 3172:-0.0470513 3173:-0.302553 3174:-0.141097 3175:0.00294691 3176:-0.572384 3177:0.215456 3178:-0.0225169 3179:-0.00665153 3180:0.230782 3181:0.658184 3182:-0.00658808 3183:0.518769 3184:0.61512 3185:-0.213138 3186:0.487471 3187:0.120178 3188:0.346076 3189:0.365073 3190:0.638693 3191:0.344691 3192:0.345084 3193:0.0373382 3194:-0.334584 3195:0.0147663 3196:-0.386753 3197:-0.110602 3198:0.510232 3199:-0.341381 3200:0.544995 
