~o
<STREAMINFO> 1 25
<VECSIZE> 25<NULLD><MFCC_E_D_N><DIAGC>
~h "jmodel"
<BEGINHMM>
<NUMSTATES> 3
<STATE> 2
<NUMMIXES> 128
<MIXTURE> 1 5.748963e-03
<MEAN> 25
 -2.569026e+00 3.159901e+00 2.314214e+00 8.711722e+00 4.358099e+00 3.426872e+00 4.051073e+00 3.931168e+00 5.804390e+00 5.230295e+00 5.854532e+00 3.065854e+00 -2.009965e+00 -1.639098e+00 -8.633522e-01 1.069282e+00 1.552996e+00 2.217581e+00 2.149561e+00 2.078877e+00 1.684500e+00 1.259732e+00 1.553658e+00 6.148205e-01 -4.684813e-02
<VARIANCE> 25
 1.011894e+01 1.176520e+01 1.490929e+01 1.885670e+01 2.316047e+01 2.233731e+01 2.184804e+01 2.190815e+01 2.105104e+01 2.248004e+01 2.105032e+01 1.718000e+01 1.794041e+00 2.105006e+00 3.013497e+00 3.201239e+00 3.744637e+00 3.375873e+00 3.316201e+00 3.366139e+00 3.516102e+00 3.721456e+00 3.530347e+00 2.822850e+00 3.117984e-03
<GCONST> 8.848029e+01
<MIXTURE> 2 4.549242e-03
<MEAN> 25
 -4.875765e+00 1.311647e+00 9.944575e-01 9.899361e+00 6.692198e+00 7.424088e+00 7.847033e+00 6.957670e+00 8.372730e+00 6.372397e+00 7.623848e+00 3.074730e+00 -6.199583e-02 4.161986e-02 1.425759e-01 2.258774e-01 2.652710e-01 2.812752e-01 2.954240e-01 3.195975e-01 3.496862e-01 3.088061e-01 1.971530e-01 7.999311e-02 1.161789e-06
<VARIANCE> 25
 6.951775e+00 8.901112e+00 1.065037e+01 1.591162e+01 1.723425e+01 1.556493e+01 1.689759e+01 1.848612e+01 1.658823e+01 1.738922e+01 1.811180e+01 1.433869e+01 1.252397e-01 2.266073e-01 3.364694e-01 4.670931e-01 6.492246e-01 8.149147e-01 9.297975e-01 1.003124e+00 1.051621e+00 1.077815e+00 1.075605e+00 1.013898e+00 1.000004e-06
<GCONST> 5.804251e+01
<MIXTURE> 3 4.549242e-03
<MEAN> 25
 -4.875765e+00 1.311647e+00 9.944575e-01 9.899361e+00 6.692198e+00 7.424088e+00 7.847033e+00 6.957670e+00 8.372730e+00 6.372397e+00 7.623848e+00 3.074730e+00 -6.199583e-02 4.161986e-02 1.425759e-01 2.258774e-01 2.652710e-01 2.812752e-01 2.954240e-01 3.195975e-01 3.496862e-01 3.088061e-01 1.971530e-01 7.999311e-02 1.161789e-06
<VARIANCE> 25
 6.951775e+00 8.901112e+00 1.065037e+01 1.591162e+01 1.723425e+01 1.556493e+01 1.689759e+01 1.848612e+01 1.658823e+01 1.738922e+01 1.811180e+01 1.433869e+01 1.252397e-01 2.266073e-01 3.364694e-01 4.670931e-01 6.492246e-01 8.149147e-01 9.297975e-01 1.003124e+00 1.051621e+00 1.077815e+00 1.075605e+00 1.013898e+00 1.000004e-06
<GCONST> 5.804251e+01
<MIXTURE> 4 1.671429e-02
<MEAN> 25
 4.099049e+00 2.848003e+00 -3.215329e+00 7.907164e-01 3.721932e+00 3.621906e-01 -5.963551e-01 -2.526541e-01 1.108323e+00 1.659634e+00 -9.931287e-01 3.739343e-01 -2.842410e+00 8.243944e-01 1.693798e+00 2.958131e+00 9.066445e-01 4.624522e-01 1.248410e+00 1.027966e+00 7.406706e-01 3.627297e-01 1.100594e+00 1.231140e+00 -1.070075e-01
<VARIANCE> 25
 2.528581e+01 2.758879e+01 2.725605e+01 3.573428e+01 4.185192e+01 6.185157e+01 6.031704e+01 4.729108e+01 5.104979e+01 5.603202e+01 4.907676e+01 3.407384e+01 2.508736e+00 5.392085e+00 3.423418e+00 4.382775e+00 4.525966e+00 5.302010e+00 5.762669e+00 4.972787e+00 6.135042e+00 5.580077e+00 5.403200e+00 5.033081e+00 5.352870e-03
<GCONST> 1.040239e+02
<MIXTURE> 5 3.206198e-03
<MEAN> 25
 -3.488165e+00 1.986200e+00 9.303540e-01 9.347497e+00 6.644024e+00 6.273891e+00 6.962551e+00 4.802707e+00 5.219232e+00 3.576271e+00 4.183205e+00 2.455209e+00 -3.226217e-01 7.958720e-01 1.249677e+00 1.020572e+00 3.584960e-01 -1.605564e-01 -9.405286e-02 -4.776464e-05 3.941798e-01 6.213373e-01 3.292368e-01 8.388854e-02 -4.585096e-05
<VARIANCE> 25
 9.978985e+00 1.432537e+01 2.505185e+01 2.479440e+01 1.951387e+01 1.872429e+01 1.988489e+01 1.973059e+01 2.244364e+01 2.225070e+01 2.862392e+01 1.628568e+01 1.163826e+00 1.241259e+00 1.320271e+00 1.612886e+00 2.259818e+00 2.373236e+00 2.215838e+00 2.215284e+00 2.325370e+00 2.246294e+00 2.140102e+00 1.802571e+00 9.700467e-07
<GCONST> 7.512354e+01
<MIXTURE> 6 5.475854e-03
<MEAN> 25
 9.986420e+00 -1.251782e-01 -6.735967e+00 -1.068288e+01 -2.133177e+00 6.598855e+00 -5.729650e+00 -5.276790e+00 -3.051362e+00 1.692357e+00 4.504129e+00 -1.547127e+00 4.643643e-01 8.564743e-01 -3.185184e-01 -1.434746e+00 -6.328377e-01 1.264129e+00 1.489502e+00 2.656893e-01 -1.241867e+00 -1.180285e+00 3.245974e-01 1.172377e+00 -7.758019e-03
<VARIANCE> 25
 1.013191e+01 1.792923e+01 2.352822e+01 3.982415e+01 3.527284e+01 2.970460e+01 4.271103e+01 3.643102e+01 4.646369e+01 3.840241e+01 4.054120e+01 2.905490e+01 3.086388e-01 8.680338e-01 9.691354e-01 1.909747e+00 1.540853e+00 2.065214e+00 1.928688e+00 1.974681e+00 2.467126e+00 1.967077e+00 2.154099e+00 1.470004e+00 5.761291e-04
<GCONST> 8.392068e+01
<MIXTURE> 7 5.475854e-03
<MEAN> 25
 9.986420e+00 -1.251782e-01 -6.735967e+00 -1.068288e+01 -2.133177e+00 6.598855e+00 -5.729650e+00 -5.276790e+00 -3.051362e+00 1.692357e+00 4.504129e+00 -1.547127e+00 4.643643e-01 8.564743e-01 -3.185184e-01 -1.434746e+00 -6.328377e-01 1.264129e+00 1.489502e+00 2.656893e-01 -1.241867e+00 -1.180285e+00 3.245974e-01 1.172377e+00 -7.758019e-03
<VARIANCE> 25
 1.013191e+01 1.792923e+01 2.352822e+01 3.982415e+01 3.527284e+01 2.970460e+01 4.271103e+01 3.643102e+01 4.646369e+01 3.840241e+01 4.054120e+01 2.905490e+01 3.086388e-01 8.680338e-01 9.691354e-01 1.909747e+00 1.540853e+00 2.065214e+00 1.928688e+00 1.974681e+00 2.467126e+00 1.967077e+00 2.154099e+00 1.470004e+00 5.761291e-04
<GCONST> 8.392068e+01
<MIXTURE> 8 1.165917e-02
<MEAN> 25
 -4.722072e+00 1.359290e+00 1.311738e+00 9.534025e+00 6.561811e+00 6.239927e+00 6.468723e+00 5.688374e+00 6.633561e+00 5.614932e+00 6.540359e+00 3.139354e+00 -6.284088e-01 -1.424194e+00 -1.064613e+00 -1.732638e+00 -2.246223e-01 -9.445558e-01 -1.804044e-01 -2.798540e-01 -2.501412e-01 -1.707439e-01 -2.059914e-01 8.457900e-02 9.859467e-02
<VARIANCE> 25
 9.340877e+00 9.817964e+00 1.167480e+01 1.615970e+01 1.662310e+01 1.573341e+01 1.810045e+01 1.745931e+01 1.716470e+01 1.738219e+01 1.910292e+01 1.402490e+01 2.753741e+00 2.805669e+00 3.915570e+00 3.753075e+00 3.460712e+00 3.306874e+00 3.120074e+00 3.095183e+00 2.865682e+00 2.649737e+00 2.447868e+00 1.897699e+00 6.685867e-03
<GCONST> 8.630955e+01
<MIXTURE> 9 1.199672e-02
<MEAN> 25
 9.371165e+00 3.186435e+00 -5.914315e+00 -1.018889e+01 -2.232736e+00 3.144197e+00 -3.654926e+00 -2.772962e+00 -5.395176e+00 1.278594e+00 1.723918e+00 1.346893e+00 1.933763e+00 5.734994e-01 -5.737666e-01 -2.211554e+00 -1.523871e+00 7.755615e-02 -1.065892e+00 -7.881991e-01 -1.118521e-01 3.954698e-02 1.017948e+00 -1.519376e-01 7.816464e-02
<VARIANCE> 25
 2.187506e+01 2.540498e+01 2.860461e+01 4.392205e+01 3.501328e+01 2.814642e+01 2.982384e+01 4.258768e+01 2.731945e+01 2.994790e+01 2.521032e+01 2.390255e+01 1.687368e+00 2.179114e+00 4.855715e+00 6.626495e+00 3.514167e+00 3.641856e+00 3.187722e+00 3.781688e+00 3.034496e+00 3.376132e+00 3.181337e+00 2.191852e+00 1.549570e-03
<GCONST> 9.416267e+01
<MIXTURE> 10 6.596976e-03
<MEAN> 25
 1.042499e+00 7.619688e+00 5.311002e+00 6.975451e+00 1.464917e+00 -2.074648e+00 -6.231831e-01 -1.703489e+00 7.612408e-01 8.506340e-01 9.132117e-01 7.686906e-01 -1.972673e+00 -7.237229e-01 -4.407401e-01 3.009723e+00 2.428677e+00 2.657091e+00 2.310528e+00 2.249281e+00 1.878075e+00 1.491798e+00 2.284382e+00 5.490934e-01 -1.381176e-01
<VARIANCE> 25
 2.115638e+01 2.030850e+01 2.198707e+01 2.962505e+01 3.819626e+01 3.452762e+01 3.476532e+01 3.308007e+01 2.753001e+01 2.856549e+01 2.660563e+01 2.502171e+01 2.277791e+00 3.448682e+00 5.420406e+00 5.063191e+00 5.477575e+00 4.480425e+00 4.753626e+00 4.762800e+00 4.343483e+00 5.015241e+00 4.442057e+00 3.205614e+00 2.643718e-03
<GCONST> 9.738445e+01
<MIXTURE> 11 1.633820e-02
<MEAN> 25
 9.746747e+00 6.308895e+00 2.392428e+00 2.365561e+00 -2.904365e+00 -1.783859e+00 -4.135403e+00 -6.624430e+00 -2.766003e+00 1.974278e+00 -5.576403e-01 -1.931758e+00 -4.862740e-01 2.942968e-01 2.641723e-01 3.506276e-01 3.775998e-01 -1.516918e-01 4.335085e-01 2.796921e-01 2.116171e-01 -3.505114e-01 -4.061798e-01 -6.978018e-02 -2.159762e-02
<VARIANCE> 25
 1.322007e+01 1.998942e+01 1.580463e+01 2.854819e+01 2.772328e+01 2.822611e+01 3.585139e+01 3.195123e+01 3.451391e+01 2.748926e+01 2.871674e+01 2.108847e+01 1.163216e+00 1.221216e+00 1.364358e+00 1.645082e+00 1.762321e+00 1.741581e+00 1.507963e+00 2.523960e+00 1.831988e+00 1.819174e+00 1.513710e+00 1.585052e+00 1.036146e-03
<GCONST> 8.342749e+01
<MIXTURE> 12 5.904134e-03
<MEAN> 25
 1.192410e+01 4.277055e+00 -4.660813e+00 -1.393011e+01 -8.237264e+00 8.017715e+00 -1.071866e+00 -2.622911e+00 -7.447130e-01 -3.860960e+00 1.898512e+00 -4.078762e-01 5.946838e-02 3.007235e-01 -1.614776e-02 -4.063956e-01 -2.977331e-01 -4.808076e-02 3.049165e-01 4.450377e-01 1.567748e-02 -4.311785e-01 -2.408632e-01 4.880690e-02 -2.243941e-03
<VARIANCE> 25
 1.251373e+01 1.866342e+01 2.127988e+01 4.441578e+01 3.875199e+01 2.781341e+01 3.520373e+01 4.261351e+01 5.735302e+01 3.437901e+01 3.347325e+01 3.222126e+01 2.642112e-01 6.042424e-01 7.904534e-01 1.021378e+00 1.115729e+00 1.051641e+00 1.030712e+00 1.336332e+00 1.446259e+00 1.159039e+00 1.220570e+00 9.901163e-01 6.612370e-04
<GCONST> 7.893357e+01
<MIXTURE> 13 5.904134e-03
<MEAN> 25
 1.192410e+01 4.277055e+00 -4.660813e+00 -1.393011e+01 -8.237264e+00 8.017715e+00 -1.071866e+00 -2.622911e+00 -7.447130e-01 -3.860960e+00 1.898512e+00 -4.078762e-01 5.946838e-02 3.007235e-01 -1.614776e-02 -4.063956e-01 -2.977331e-01 -4.808076e-02 3.049165e-01 4.450377e-01 1.567748e-02 -4.311785e-01 -2.408632e-01 4.880690e-02 -2.243941e-03
<VARIANCE> 25
 1.251373e+01 1.866342e+01 2.127988e+01 4.441578e+01 3.875199e+01 2.781341e+01 3.520373e+01 4.261351e+01 5.735302e+01 3.437901e+01 3.347325e+01 3.222126e+01 2.642112e-01 6.042424e-01 7.904534e-01 1.021378e+00 1.115729e+00 1.051641e+00 1.030712e+00 1.336332e+00 1.446259e+00 1.159039e+00 1.220570e+00 9.901163e-01 6.612370e-04
<GCONST> 7.893357e+01
<MIXTURE> 14 6.488954e-03
<MEAN> 25
 -4.313662e+00 -3.837799e-01 -2.970478e-01 8.877055e+00 7.497272e+00 7.352979e+00 7.819221e+00 7.293777e+00 7.218994e+00 5.179347e+00 6.806705e+00 4.081233e+00 -2.722649e-01 1.847499e-01 3.668278e-01 3.129582e-01 6.846206e-03 6.331134e-02 9.420790e-02 1.781365e-01 2.936093e-01 5.493377e-01 5.138780e-01 8.398169e-02 -9.321522e-03
<VARIANCE> 25
 9.240074e+00 1.381219e+01 1.859618e+01 1.796031e+01 2.082680e+01 1.960077e+01 2.136813e+01 2.069892e+01 2.013345e+01 2.402435e+01 2.171124e+01 1.594307e+01 9.559193e-01 1.638558e+00 1.768604e+00 1.944473e+00 2.236750e+00 2.250160e+00 2.248529e+00 2.235912e+00 2.276875e+00 2.504236e+00 2.196746e+00 1.819318e+00 1.026738e-03
<GCONST> 8.189899e+01
<MIXTURE> 15 2.475190e-03
<MEAN> 25
 -5.364598e+00 -5.845030e-01 -9.602743e-02 7.334464e+00 5.776669e+00 5.572296e+00 5.920829e+00 4.946358e+00 5.087961e+00 4.022410e+00 5.145995e+00 2.474837e+00 -1.162193e-01 -1.369110e-02 3.838919e-02 2.286703e-01 5.000161e-01 8.030731e-01 1.063858e+00 1.154732e+00 1.059962e+00 7.574427e-01 4.705119e-01 1.694641e-01 2.691610e-04
<VARIANCE> 25
 6.704664e+00 5.373984e+00 8.740420e+00 1.231999e+01 1.356421e+01 1.386531e+01 1.471199e+01 1.442843e+01 1.358011e+01 1.423115e+01 1.696609e+01 1.203004e+01 1.235659e-01 2.011856e-01 3.284937e-01 4.839947e-01 6.660625e-01 7.684557e-01 7.465415e-01 8.049119e-01 8.764575e-01 1.002478e+00 1.088005e+00 9.933794e-01 2.981164e-05
<GCONST> 5.820301e+01
<MIXTURE> 16 2.475190e-03
<MEAN> 25
 -5.364598e+00 -5.845030e-01 -9.602743e-02 7.334464e+00 5.776669e+00 5.572296e+00 5.920829e+00 4.946358e+00 5.087961e+00 4.022410e+00 5.145995e+00 2.474837e+00 -1.162193e-01 -1.369110e-02 3.838919e-02 2.286703e-01 5.000161e-01 8.030731e-01 1.063858e+00 1.154732e+00 1.059962e+00 7.574427e-01 4.705119e-01 1.694641e-01 2.691610e-04
<VARIANCE> 25
 6.704664e+00 5.373984e+00 8.740420e+00 1.231999e+01 1.356421e+01 1.386531e+01 1.471199e+01 1.442843e+01 1.358011e+01 1.423115e+01 1.696609e+01 1.203004e+01 1.235659e-01 2.011856e-01 3.284937e-01 4.839947e-01 6.660625e-01 7.684557e-01 7.465415e-01 8.049119e-01 8.764575e-01 1.002478e+00 1.088005e+00 9.933794e-01 2.981164e-05
<GCONST> 5.820301e+01
<MIXTURE> 17 9.518312e-03
<MEAN> 25
 3.270094e+00 -1.010827e+00 6.155934e+00 2.172627e+00 -5.855077e+00 -6.008320e+00 -2.801350e+00 -2.076896e-02 -2.569829e+00 -3.041704e+00 -1.485604e-01 -4.748455e-02 -6.935887e-01 -1.158077e+00 1.255669e+00 -2.123151e+00 -2.223088e+00 -1.727573e-01 2.017794e-01 8.099405e-01 -2.191222e-01 -5.888912e-02 1.059965e+00 4.229713e-01 7.938971e-02
<VARIANCE> 25
 1.889962e+01 3.164512e+01 3.117205e+01 3.909721e+01 4.343225e+01 4.817971e+01 4.119686e+01 3.218772e+01 3.483330e+01 2.605762e+01 2.686612e+01 2.645607e+01 1.796935e+00 2.560122e+00 3.974594e+00 3.006207e+00 4.328736e+00 5.199200e+00 4.765574e+00 4.557438e+00 4.008105e+00 3.939444e+00 2.901306e+00 2.577805e+00 2.109146e-03
<GCONST> 9.646823e+01
<MIXTURE> 18 1.221018e-02
<MEAN> 25
 3.969879e+00 4.632118e+00 6.616554e+00 4.592740e+00 -4.591567e+00 -8.240105e+00 -1.707748e+00 -1.173563e+00 -3.341751e+00 -2.440105e+00 -8.683199e-01 5.878015e-01 -7.815574e-01 2.093268e+00 -1.734970e-01 2.041851e+00 3.078764e+00 1.465403e+00 7.729981e-01 -2.053787e-01 6.044303e-01 4.959749e-01 -2.979146e-01 -5.288285e-02 -1.234343e-01
<VARIANCE> 25
 1.715345e+01 2.554041e+01 3.297723e+01 2.676828e+01 3.939952e+01 3.374709e+01 3.818335e+01 3.450494e+01 3.968844e+01 3.382367e+01 3.213977e+01 3.082196e+01 2.608784e+00 3.202907e+00 4.678716e+00 3.970432e+00 4.093485e+00 4.631350e+00 4.636916e+00 4.379263e+00 4.670213e+00 4.249605e+00 4.476071e+00 3.573047e+00 4.058103e-03
<GCONST> 9.854029e+01
<MIXTURE> 19 9.912824e-03
<MEAN> 25
 -6.728011e+00 1.462898e+00 -2.540387e-01 -5.542293e-01 3.380228e+00 1.437625e+00 1.588080e+00 8.701065e-01 1.507219e+00 1.227277e+00 1.307176e+00 1.447005e+00 2.096054e+00 1.878131e+00 2.181338e+00 1.166724e+00 -8.215718e-01 -7.624244e-01 -9.060305e-01 -1.363043e+00 -1.511295e+00 -9.846385e-01 -8.493646e-01 -9.377643e-01 1.763271e-03
<VARIANCE> 25
 7.301077e+01 2.849481e+01 4.075475e+01 5.161009e+01 2.677029e+01 2.677525e+01 3.965180e+01 2.673522e+01 3.474702e+01 2.777061e+01 3.013711e+01 2.132238e+01 2.400553e+00 2.187466e+00 1.993186e+00 2.623278e+00 3.114516e+00 2.120248e+00 2.972215e+00 1.939835e+00 2.620532e+00 2.212528e+00 2.018738e+00 1.684305e+00 3.179050e-03
<GCONST> 9.229931e+01
<MIXTURE> 20 6.308331e-03
<MEAN> 25
 -1.415533e+01 7.393340e+00 8.265389e-01 6.108274e+00 4.837106e+00 1.593231e+00 5.192685e+00 8.617564e-01 9.414282e-01 7.960840e-01 2.600564e+00 -3.084514e-01 -3.278309e+00 -8.622853e-01 -1.566666e+00 3.217861e-01 1.534199e+00 2.054957e+00 1.976808e+00 2.055146e+00 2.142978e+00 2.036557e+00 1.680021e+00 9.339424e-01 4.752805e-02
<VARIANCE> 25
 1.971566e+01 2.344979e+01 3.089149e+01 3.739959e+01 3.074316e+01 2.814978e+01 2.984962e+01 3.142779e+01 2.798780e+01 2.810253e+01 2.526816e+01 2.083858e+01 2.094455e+00 2.179389e+00 1.906280e+00 2.553653e+00 2.701766e+00 2.316207e+00 2.306361e+00 2.309357e+00 2.225722e+00 2.644086e+00 2.253408e+00 1.886016e+00 1.898422e-03
<GCONST> 8.923647e+01
<MIXTURE> 21 7.928653e-03
<MEAN> 25
 3.918282e+00 -4.630940e+00 5.646250e+00 -1.608124e+00 -1.059137e+01 -8.681764e+00 -2.580301e+00 4.161089e+00 -1.897773e+00 -3.336847e+00 2.657953e-01 3.163332e-01 -7.140994e-01 1.325712e+00 2.568136e+00 -3.280847e-02 -1.542551e+00 3.525605e-01 6.072946e-01 -1.480911e+00 -1.929721e+00 3.009875e-01 1.313149e+00 2.576365e-01 -1.311814e-02
<VARIANCE> 25
 9.318635e+00 1.941363e+01 3.059999e+01 2.855002e+01 2.866087e+01 3.312481e+01 4.254784e+01 3.886451e+01 4.547781e+01 3.168464e+01 3.355508e+01 2.299088e+01 3.737769e-01 9.591579e-01 1.864599e+00 1.284062e+00 2.204291e+00 2.201350e+00 3.620939e+00 2.491392e+00 2.193537e+00 2.580807e+00 2.010510e+00 2.264144e+00 4.356650e-04
<GCONST> 8.524234e+01
<MIXTURE> 22 8.827789e-03
<MEAN> 25
 -1.791294e+01 7.150089e+00 -4.131654e+00 7.378623e+00 4.606022e+00 2.751101e+00 8.394341e+00 1.757488e+00 5.386260e+00 3.301815e+00 5.719389e+00 1.185259e+00 -3.104320e-01 -2.085127e-01 -1.255758e-01 -1.508644e-01 -8.467846e-03 1.364273e-01 1.842255e-01 1.798572e-01 2.500147e-01 2.095765e-01 1.694829e-01 1.921747e-01 8.855246e-03
<VARIANCE> 25
 8.167336e+00 1.682977e+01 1.736472e+01 2.532012e+01 2.288313e+01 2.090452e+01 1.943753e+01 1.876502e+01 1.816753e+01 2.084455e+01 1.922958e+01 1.377327e+01 1.090302e+00 1.356744e+00 1.362495e+00 1.572651e+00 1.408820e+00 1.525694e+00 1.518279e+00 1.534998e+00 1.615088e+00 1.547823e+00 1.365247e+00 1.166822e+00 1.743849e-03
<GCONST> 7.833685e+01
<MIXTURE> 23 6.455497e-03
<MEAN> 25
 8.282656e+00 2.645692e+00 2.784435e+00 2.245591e+00 -4.745355e+00 -2.678632e+00 -4.202569e+00 -6.484896e+00 -3.062520e+00 -8.596716e-01 -3.801028e+00 -2.329527e+00 1.762428e-02 1.508477e-01 1.454987e-02 3.295422e-02 -3.955096e-02 6.935629e-02 4.721143e-02 -2.383420e-02 2.782348e-02 5.549970e-02 -1.642711e-02 7.674279e-02 -3.805890e-03
<VARIANCE> 25
 1.190552e+01 2.190199e+01 2.461801e+01 3.936965e+01 3.649081e+01 5.575933e+01 5.769278e+01 5.255762e+01 4.988531e+01 4.540110e+01 4.799507e+01 3.903115e+01 1.241741e-01 2.938517e-01 3.873166e-01 4.839790e-01 6.013829e-01 6.979448e-01 7.548483e-01 8.636405e-01 8.525032e-01 8.465188e-01 8.060668e-01 7.540215e-01 1.005564e-04
<GCONST> 7.297299e+01
<MIXTURE> 24 6.455497e-03
<MEAN> 25
 8.282656e+00 2.645692e+00 2.784435e+00 2.245591e+00 -4.745355e+00 -2.678632e+00 -4.202569e+00 -6.484896e+00 -3.062520e+00 -8.596716e-01 -3.801028e+00 -2.329527e+00 1.762428e-02 1.508477e-01 1.454987e-02 3.295422e-02 -3.955096e-02 6.935629e-02 4.721143e-02 -2.383420e-02 2.782348e-02 5.549970e-02 -1.642711e-02 7.674279e-02 -3.805890e-03
<VARIANCE> 25
 1.190552e+01 2.190199e+01 2.461801e+01 3.936965e+01 3.649081e+01 5.575933e+01 5.769278e+01 5.255762e+01 4.988531e+01 4.540110e+01 4.799507e+01 3.903115e+01 1.241741e-01 2.938517e-01 3.873166e-01 4.839790e-01 6.013829e-01 6.979448e-01 7.548483e-01 8.636405e-01 8.525032e-01 8.465188e-01 8.060668e-01 7.540215e-01 1.005564e-04
<GCONST> 7.297299e+01
<MIXTURE> 25 1.118642e-02
<MEAN> 25
 2.677409e-01 3.460595e+00 1.668019e+01 -9.738069e-01 -1.120670e+01 -1.794005e+00 -5.016083e+00 -2.940063e+00 -6.890990e+00 -5.410329e+00 4.034976e+00 -1.626003e+00 -1.371564e-01 4.391861e-01 1.627382e-01 1.290108e-01 2.040511e-01 9.153008e-02 1.927166e-01 -1.594883e-01 -2.589455e-01 7.360902e-02 -7.652850e-02 -9.799328e-02 -1.244048e-02
<VARIANCE> 25
 8.808583e+00 2.199928e+01 2.152406e+01 2.862630e+01 3.248846e+01 4.069235e+01 2.712080e+01 2.965675e+01 2.824430e+01 3.627810e+01 2.106655e+01 2.730712e+01 5.892966e-01 1.428318e+00 1.394159e+00 1.412913e+00 2.263652e+00 2.046670e+00 1.730688e+00 1.619284e+00 1.531930e+00 1.631485e+00 1.334047e+00 1.289604e+00 1.286598e-03
<GCONST> 8.267314e+01
<MIXTURE> 26 7.727677e-03
<MEAN> 25
 1.656561e+00 -6.755028e+00 -9.864125e+00 -1.138375e+00 6.659587e+00 4.905308e+00 4.222625e+00 -4.803346e-03 2.899952e+00 -1.081779e+00 -2.706540e+00 -9.232993e-01 -6.202517e-01 7.598679e-01 3.744999e-01 6.689963e-01 3.551526e-01 2.904884e-01 2.121534e-01 3.094907e-01 2.405509e-01 5.067802e-03 2.903572e-01 3.546927e-01 -5.209859e-02
<VARIANCE> 25
 2.598774e+01 3.439547e+01 2.635579e+01 5.884241e+01 5.454871e+01 4.288944e+01 4.428322e+01 4.126849e+01 4.046350e+01 5.061457e+01 3.788106e+01 4.324265e+01 1.537421e+00 2.184760e+00 1.810108e+00 1.908435e+00 2.775631e+00 2.287644e+00 2.589466e+00 2.548929e+00 2.334057e+00 2.274491e+00 2.115529e+00 1.963619e+00 3.133712e-03
<GCONST> 9.389812e+01
<MIXTURE> 27 7.727677e-03
<MEAN> 25
 1.656561e+00 -6.755028e+00 -9.864125e+00 -1.138375e+00 6.659587e+00 4.905308e+00 4.222625e+00 -4.803346e-03 2.899952e+00 -1.081779e+00 -2.706540e+00 -9.232993e-01 -6.202517e-01 7.598679e-01 3.744999e-01 6.689963e-01 3.551526e-01 2.904884e-01 2.121534e-01 3.094907e-01 2.405509e-01 5.067802e-03 2.903572e-01 3.546927e-01 -5.209859e-02
<VARIANCE> 25
 2.598774e+01 3.439547e+01 2.635579e+01 5.884241e+01 5.454871e+01 4.288944e+01 4.428322e+01 4.126849e+01 4.046350e+01 5.061457e+01 3.788106e+01 4.324265e+01 1.537421e+00 2.184760e+00 1.810108e+00 1.908435e+00 2.775631e+00 2.287644e+00 2.589466e+00 2.548929e+00 2.334057e+00 2.274491e+00 2.115529e+00 1.963619e+00 3.133712e-03
<GCONST> 9.389812e+01
<MIXTURE> 28 5.036674e-03
<MEAN> 25
 -5.452512e+00 1.236885e-02 -1.554958e+00 6.611956e+00 5.229697e+00 3.511748e+00 5.410067e+00 3.126331e+00 3.916080e+00 2.380418e+00 2.625214e+00 3.214999e+00 -1.151758e-01 2.231133e-01 5.296986e-01 7.838498e-01 8.205793e-01 7.004620e-01 5.212851e-01 3.913916e-01 4.435245e-01 4.792392e-01 3.680564e-01 1.895707e-01 -1.465940e-05
<VARIANCE> 25
 1.040658e+01 8.341421e+00 1.221347e+01 1.481589e+01 1.468074e+01 1.770897e+01 1.803540e+01 1.898895e+01 1.716609e+01 1.684661e+01 2.065844e+01 1.498579e+01 2.560700e-01 3.366786e-01 4.069265e-01 4.639522e-01 6.217958e-01 8.488770e-01 1.056525e+00 1.142780e+00 1.101634e+00 1.031479e+00 1.039113e+00 1.066550e+00 1.004503e-06
<GCONST> 6.025894e+01
<MIXTURE> 29 5.036674e-03
<MEAN> 25
 -5.452512e+00 1.236885e-02 -1.554958e+00 6.611956e+00 5.229697e+00 3.511748e+00 5.410067e+00 3.126331e+00 3.916080e+00 2.380418e+00 2.625214e+00 3.214999e+00 -1.151758e-01 2.231133e-01 5.296986e-01 7.838498e-01 8.205793e-01 7.004620e-01 5.212851e-01 3.913916e-01 4.435245e-01 4.792392e-01 3.680564e-01 1.895707e-01 -1.465940e-05
<VARIANCE> 25
 1.040658e+01 8.341421e+00 1.221347e+01 1.481589e+01 1.468074e+01 1.770897e+01 1.803540e+01 1.898895e+01 1.716609e+01 1.684661e+01 2.065844e+01 1.498579e+01 2.560700e-01 3.366786e-01 4.069265e-01 4.639522e-01 6.217958e-01 8.488770e-01 1.056525e+00 1.142780e+00 1.101634e+00 1.031479e+00 1.039113e+00 1.066550e+00 1.004503e-06
<GCONST> 6.025894e+01
<MIXTURE> 30 8.917812e-03
<MEAN> 25
 -4.485892e+00 -1.888564e-01 6.731483e-01 9.044458e+00 7.760801e+00 7.457039e+00 7.515343e+00 6.845149e+00 6.489372e+00 4.870595e+00 6.933028e+00 3.467801e+00 -2.679615e-02 3.227134e-02 4.902791e-02 8.975148e-02 8.708666e-02 4.784531e-02 1.657998e-02 -6.768634e-03 2.381784e-02 5.878481e-02 7.188434e-02 3.575026e-02 -4.798142e-04
<VARIANCE> 25
 6.857272e+00 9.749726e+00 1.033181e+01 1.375515e+01 1.566682e+01 1.643946e+01 1.931340e+01 1.818526e+01 1.627328e+01 1.828293e+01 2.153021e+01 1.432719e+01 9.748173e-02 1.983497e-01 3.278261e-01 4.764165e-01 6.199576e-01 7.254655e-01 7.708800e-01 8.083261e-01 8.869964e-01 9.423327e-01 9.259902e-01 8.582639e-01 5.163572e-05
<GCONST> 6.059093e+01
<MIXTURE> 31 4.136493e-03
<MEAN> 25
 -3.312943e+00 -5.454795e+00 1.099451e-01 4.699344e+00 3.363022e+00 1.791539e+00 5.152976e+00 6.270554e+00 2.478922e+00 1.121664e+00 5.837950e+00 3.069191e+00 2.594239e-01 3.985875e-01 -1.805029e-01 3.311138e-01 1.231144e-01 4.953101e-01 1.597523e-01 -3.029803e-02 3.446690e-01 3.436714e-01 8.682520e-02 6.639111e-02 -1.865430e-02
<VARIANCE> 25
 6.476612e+00 1.523368e+01 1.794466e+01 1.971890e+01 2.465200e+01 2.225766e+01 2.327355e+01 2.467590e+01 2.776225e+01 2.601980e+01 2.225416e+01 1.834448e+01 1.832968e-01 5.121807e-01 5.972542e-01 7.251499e-01 9.002768e-01 1.090066e+00 1.186220e+00 1.353121e+00 1.299995e+00 1.333515e+00 1.165960e+00 1.278893e+00 2.485831e-04
<GCONST> 7.156441e+01
<MIXTURE> 32 4.136493e-03
<MEAN> 25
 -3.312943e+00 -5.454795e+00 1.099451e-01 4.699344e+00 3.363022e+00 1.791539e+00 5.152976e+00 6.270554e+00 2.478922e+00 1.121664e+00 5.837950e+00 3.069191e+00 2.594239e-01 3.985875e-01 -1.805029e-01 3.311138e-01 1.231144e-01 4.953101e-01 1.597523e-01 -3.029803e-02 3.446690e-01 3.436714e-01 8.682520e-02 6.639111e-02 -1.865430e-02
<VARIANCE> 25
 6.476612e+00 1.523368e+01 1.794466e+01 1.971890e+01 2.465200e+01 2.225766e+01 2.327355e+01 2.467590e+01 2.776225e+01 2.601980e+01 2.225416e+01 1.834448e+01 1.832968e-01 5.121807e-01 5.972542e-01 7.251499e-01 9.002768e-01 1.090066e+00 1.186220e+00 1.353121e+00 1.299995e+00 1.333515e+00 1.165960e+00 1.278893e+00 2.485831e-04
<GCONST> 7.156441e+01
<MIXTURE> 33 1.508826e-02
<MEAN> 25
 6.120529e+00 -3.875612e+00 -2.244726e+00 -2.536301e+00 -1.900178e+00 -5.052505e+00 -6.823707e+00 1.651008e+00 2.054590e+00 -5.707242e-01 -4.277696e+00 -2.794585e+00 7.032460e-01 -1.097791e+00 -2.360228e+00 -1.868665e+00 1.342264e+00 1.362733e+00 -7.454066e-01 5.711335e-01 9.431639e-01 6.468667e-01 -1.960924e-01 -1.212876e+00 3.953948e-02
<VARIANCE> 25
 1.312993e+01 2.215204e+01 2.704215e+01 3.402439e+01 3.837582e+01 4.479436e+01 4.164040e+01 4.331402e+01 3.994361e+01 4.210062e+01 3.415737e+01 2.735036e+01 1.115870e+00 1.832742e+00 2.085251e+00 2.147843e+00 4.182466e+00 3.347234e+00 4.012927e+00 5.230405e+00 3.662218e+00 4.193200e+00 3.333611e+00 2.809994e+00 1.474703e-03
<GCONST> 9.400583e+01
<MIXTURE> 34 1.588179e-02
<MEAN> 25
 9.000149e+00 3.957265e-01 -2.914909e-01 6.203795e-01 -2.778805e+00 -1.222979e+00 -6.471955e+00 -4.894403e+00 -1.783084e+00 7.909925e-01 -1.722038e+00 -3.306982e+00 7.110114e-02 1.394762e+00 1.555736e+00 2.342045e+00 1.934763e-03 -1.399887e-01 7.232945e-01 -1.561025e+00 -9.367254e-01 2.316658e-01 -5.691066e-01 1.856147e-01 -5.702523e-02
<VARIANCE> 25
 1.048602e+01 3.064016e+01 2.962966e+01 4.939056e+01 3.958105e+01 4.605585e+01 5.377438e+01 5.225456e+01 4.949189e+01 4.323602e+01 5.171871e+01 3.425388e+01 1.395444e+00 1.999823e+00 3.967265e+00 3.821362e+00 5.199416e+00 5.275231e+00 5.127355e+00 5.841361e+00 5.030035e+00 4.790131e+00 4.651147e+00 3.924527e+00 1.457086e-03
<GCONST> 9.961614e+01
<MIXTURE> 35 1.467755e-02
<MEAN> 25
 -2.043508e+00 -5.196059e+00 -9.094905e+00 -1.759084e-01 8.869306e+00 1.163529e+00 1.468350e+00 2.681985e+00 1.068025e+00 4.124507e+00 -4.808762e-02 1.995905e+00 6.452616e-01 -1.010719e+00 -1.505436e+00 -1.579490e+00 3.186537e-01 -7.502886e-01 -7.446508e-01 -2.024390e-01 -1.660064e-01 3.087983e-01 -4.459642e-01 -3.691371e-01 1.049346e-01
<VARIANCE> 25
 1.857653e+01 2.860339e+01 4.729219e+01 5.927311e+01 4.392926e+01 5.582996e+01 4.720987e+01 4.042251e+01 4.983334e+01 3.781870e+01 3.420276e+01 3.060217e+01 3.259051e+00 3.332647e+00 6.329060e+00 5.806066e+00 4.938091e+00 5.208405e+00 4.593747e+00 4.361700e+00 4.689692e+00 4.368956e+00 4.147964e+00 3.721632e+00 4.975108e-03
<GCONST> 1.027020e+02
<MIXTURE> 36 1.093293e-02
<MEAN> 25
 4.978613e+00 -3.526393e+00 7.022620e+00 2.684533e+00 -1.013366e+01 -8.933990e+00 -6.258355e+00 3.066327e+00 -1.894109e+00 -4.572052e+00 2.799832e+00 -1.401702e-01 3.570092e-01 1.495463e-01 -9.114648e-01 1.715865e-02 8.723050e-01 4.794259e-02 -4.706065e-01 2.846036e-02 4.208557e-01 5.625541e-01 -4.311372e-01 -3.270792e-01 -1.591123e-02
<VARIANCE> 25
 1.022408e+01 1.680586e+01 2.246909e+01 2.796442e+01 3.147178e+01 3.185404e+01 4.618346e+01 3.530686e+01 3.941420e+01 3.264355e+01 2.770893e+01 2.678175e+01 4.720349e-01 7.437946e-01 1.517264e+00 1.250312e+00 1.625183e+00 1.644063e+00 2.148016e+00 1.741220e+00 2.012167e+00 1.694786e+00 1.407519e+00 1.455728e+00 7.301454e-04
<GCONST> 8.223004e+01
<MIXTURE> 37 1.246826e-02
<MEAN> 25
 5.812272e-01 7.777607e+00 1.202096e+01 -5.544561e+00 -8.017163e+00 -1.059778e+00 -5.069992e+00 -8.299738e+00 -3.719888e+00 -9.065189e-01 -3.648769e+00 -1.277702e+00 1.706188e-01 6.381157e-01 -1.345691e+00 3.577755e+00 1.985110e+00 -3.012434e-01 1.090132e+00 4.374688e-01 5.335575e-01 -3.236947e-01 5.323915e-01 -9.686024e-02 -9.492030e-02
<VARIANCE> 25
 1.630796e+01 2.595701e+01 3.106366e+01 5.088119e+01 3.388097e+01 3.192479e+01 4.388975e+01 3.507203e+01 3.860570e+01 3.586292e+01 3.774985e+01 3.090608e+01 2.992023e+00 3.433127e+00 3.026447e+00 4.086679e+00 4.607648e+00 3.741854e+00 4.199727e+00 3.797879e+00 3.455987e+00 3.608931e+00 3.862496e+00 2.784675e+00 3.927343e-03
<GCONST> 9.780137e+01
<MIXTURE> 38 1.154525e-02
<MEAN> 25
 -4.412016e+00 8.945653e+00 4.587521e+00 3.197839e+00 8.278786e-01 -5.234211e+00 -6.245794e-01 -2.752279e+00 -2.829620e+00 -3.058538e+00 -1.482478e+00 -5.577685e-01 -4.507251e+00 1.214501e+00 -3.123585e-01 1.451329e+00 2.549907e+00 1.371791e+00 2.059340e+00 9.569784e-01 7.892060e-01 6.294656e-01 9.943602e-01 3.170196e-01 4.808595e-02
<VARIANCE> 25
 3.167878e+01 2.946011e+01 3.871082e+01 3.286656e+01 4.850987e+01 3.532755e+01 3.613388e+01 4.132360e+01 3.467272e+01 3.251203e+01 2.410559e+01 2.852418e+01 2.350344e+00 4.068803e+00 3.879056e+00 5.125412e+00 4.231822e+00 5.034481e+00 4.751047e+00 4.605928e+00 4.412306e+00 4.905311e+00 4.366187e+00 3.244871e+00 2.061890e-03
<GCONST> 9.918396e+01
<MIXTURE> 39 9.501865e-03
<MEAN> 25
 1.328964e+00 2.569639e+00 1.017738e+01 -9.207350e+00 -1.128511e+01 -9.919741e-01 -2.946563e+00 -6.555834e+00 -4.498981e+00 8.675850e-01 -3.670746e+00 -2.288668e+00 -7.265598e-01 1.523129e+00 1.625542e+00 -1.384239e+00 8.184189e-02 1.223030e+00 -1.192430e+00 -1.247000e+00 4.271050e-01 4.419580e-01 -5.073923e-01 1.234602e-01 1.199610e-03
<VARIANCE> 25
 8.931799e+00 3.048948e+01 3.206977e+01 3.835013e+01 3.717510e+01 4.260208e+01 4.448013e+01 3.351094e+01 3.964915e+01 3.315960e+01 3.615838e+01 2.937385e+01 6.924903e-01 1.547032e+00 1.510167e+00 2.935739e+00 2.420116e+00 2.821870e+00 3.067735e+00 2.753842e+00 2.433508e+00 2.615913e+00 2.122710e+00 2.064622e+00 1.190574e-03
<GCONST> 8.970094e+01
<MIXTURE> 40 1.030800e-02
<MEAN> 25
 -9.250912e+00 2.034479e+00 -1.033190e+00 8.151217e+00 3.762214e+00 5.390981e+00 5.235682e+00 4.177087e+00 4.542517e+00 4.086484e+00 5.566579e+00 1.711347e+00 -9.298290e-02 -2.399718e-01 -2.659242e-02 -2.258232e-01 -1.072603e-01 -1.157550e-01 6.226722e-02 8.517691e-02 8.193161e-03 2.146096e-02 6.485685e-02 1.353009e-02 3.922600e-03
<VARIANCE> 25
 4.172703e+01 2.093751e+01 2.941095e+01 2.731309e+01 2.594884e+01 1.940994e+01 1.940234e+01 1.885284e+01 1.749251e+01 1.883972e+01 1.947763e+01 1.448730e+01 7.383018e-01 7.363051e-01 8.735430e-01 1.123123e+00 1.124151e+00 1.256255e+00 1.340116e+00 1.282759e+00 1.266127e+00 1.279557e+00 1.177199e+00 1.092761e+00 8.465056e-04
<GCONST> 7.689084e+01
<MIXTURE> 41 6.713375e-03
<MEAN> 25
 1.282969e+00 1.758187e+00 1.044754e+01 -6.915324e+00 -1.040390e+01 -3.816527e+00 -2.458053e+00 -4.996669e+00 -4.660883e+00 2.664472e+00 -1.751860e+00 -9.574946e-01 8.428416e-02 -7.574197e-01 1.678891e+00 -3.557282e+00 -2.444896e+00 -1.152714e-01 -5.078434e-01 -3.484824e-01 -8.275056e-01 1.090911e+00 -1.032399e+00 8.709564e-02 8.615723e-02
<VARIANCE> 25
 1.175863e+01 2.960435e+01 3.259964e+01 4.016228e+01 3.924664e+01 4.021166e+01 3.704130e+01 3.002736e+01 3.293829e+01 2.863520e+01 3.167259e+01 2.705133e+01 3.167179e+00 3.292344e+00 3.874463e+00 3.775329e+00 4.920011e+00 5.842092e+00 4.688983e+00 4.548461e+00 3.956558e+00 4.197271e+00 3.840181e+00 3.206743e+00 2.916242e-03
<GCONST> 9.788615e+01
<MIXTURE> 42 1.106211e-02
<MEAN> 25
 -8.206444e-01 4.672337e+00 4.382464e+00 2.399247e+00 2.174372e-01 -5.439568e+00 -1.478529e+00 -1.902076e+00 -2.101902e+00 -8.644520e-01 -2.072933e+00 1.090330e+00 4.037458e+00 -8.958468e-02 1.603210e+00 4.513570e-01 -2.866693e+00 -9.486130e-01 -1.898534e+00 -8.414890e-01 -7.919794e-01 -6.993887e-01 4.385883e-01 -9.973467e-01 1.369481e-02
<VARIANCE> 25
 4.692310e+01 2.190788e+01 4.242082e+01 2.616903e+01 3.587663e+01 3.992510e+01 3.581197e+01 2.466534e+01 2.878416e+01 2.614318e+01 1.970561e+01 1.672610e+01 3.584436e+00 4.955436e+00 5.652708e+00 4.884646e+00 4.363342e+00 5.725046e+00 5.433614e+00 4.760920e+00 4.700700e+00 4.629265e+00 3.943285e+00 3.225638e+00 4.702610e-03
<GCONST> 9.929664e+01
<MIXTURE> 43 7.108249e-03
<MEAN> 25
 2.555309e+00 -6.342649e+00 -2.459595e+00 -5.115158e+00 -7.418567e+00 -3.288055e+00 4.239519e+00 1.129417e+00 -3.986782e+00 -6.645315e+00 -4.004864e+00 -1.548270e+00 2.093158e-01 2.096195e+00 1.815939e+00 -2.601665e-02 -1.136633e+00 -8.629259e-01 -9.356447e-01 -7.033679e-01 6.309883e-01 1.287368e+00 2.339042e-01 8.642931e-02 -4.270829e-02
<VARIANCE> 25
 1.099247e+01 2.022010e+01 2.486647e+01 3.197402e+01 3.617367e+01 3.339249e+01 3.058078e+01 3.600217e+01 4.446103e+01 3.577058e+01 2.464647e+01 2.794673e+01 6.284531e-01 1.248071e+00 1.473193e+00 2.318182e+00 2.933941e+00 2.854576e+00 2.701612e+00 2.729432e+00 2.647522e+00 2.590282e+00 2.253860e+00 1.782763e+00 9.735030e-04
<GCONST> 8.752667e+01
<MIXTURE> 44 7.328289e-03
<MEAN> 25
 -1.404233e+01 1.056462e+00 3.747639e+00 -3.175869e+00 3.309609e+00 1.446446e+00 3.039186e-02 3.047905e+00 1.221517e+00 -8.838770e-01 1.721729e+00 1.563873e+00 -1.648776e-01 -9.971301e-02 2.091618e-01 2.104730e-01 -4.668546e-02 1.060856e-02 4.238938e-01 1.818709e-01 2.860165e-01 1.929115e-01 1.317760e-02 2.384309e-01 5.382978e-03
<VARIANCE> 25
 4.666814e+01 2.632882e+01 3.545879e+01 2.859724e+01 2.777685e+01 2.997351e+01 2.238119e+01 3.278397e+01 2.929974e+01 2.487524e+01 2.561509e+01 1.917992e+01 1.110330e+00 1.507379e+00 1.372409e+00 1.380869e+00 2.273596e+00 1.897367e+00 1.749234e+00 1.640084e+00 1.476823e+00 1.456784e+00 1.537953e+00 1.357944e+00 1.229085e-03
<GCONST> 8.456464e+01
<MIXTURE> 45 1.364932e-02
<MEAN> 25
 -1.148312e+01 2.701421e+00 -1.131581e+00 1.801425e+00 5.360215e+00 -1.644044e+00 3.743359e+00 2.883254e+00 3.185803e+00 1.489130e+00 3.219035e+00 2.134723e+00 -2.588041e+00 6.602894e-01 -9.706586e-01 -6.552570e-01 1.920907e-01 -7.846221e-02 5.899156e-01 8.800790e-02 3.714504e-01 1.787429e-01 5.842825e-01 -1.697826e-01 1.210889e-01
<VARIANCE> 25
 2.899278e+01 2.620079e+01 2.758971e+01 3.030625e+01 2.548088e+01 3.048878e+01 2.571825e+01 2.361230e+01 2.233063e+01 2.056627e+01 2.926996e+01 1.607169e+01 2.184236e+00 2.659543e+00 3.081221e+00 2.329968e+00 2.017962e+00 2.187707e+00 2.093784e+00 2.542474e+00 2.216208e+00 1.877085e+00 2.535877e+00 1.634685e+00 3.917049e-03
<GCONST> 8.884879e+01
<MIXTURE> 46 9.336259e-03
<MEAN> 25
 -9.318367e+00 2.094739e+00 1.043105e+00 7.010929e+00 5.595036e+00 3.043967e+00 6.946638e+00 4.519815e+00 5.774709e+00 4.601835e+00 4.879971e+00 2.913858e+00 1.027070e+00 -2.213145e-01 1.248153e-02 9.510583e-01 5.973879e-01 9.687164e-01 3.795970e-01 7.004980e-01 5.029818e-01 4.900045e-01 6.015692e-01 4.838804e-01 -1.034890e-01
<VARIANCE> 25
 3.354041e+01 4.360137e+01 3.802827e+01 5.463900e+01 5.290759e+01 4.208301e+01 3.609265e+01 3.468707e+01 3.267097e+01 3.029050e+01 2.865497e+01 1.989428e+01 3.830865e+00 4.088543e+00 3.781080e+00 4.070999e+00 4.149879e+00 3.691648e+00 3.459434e+00 3.049671e+00 2.983835e+00 2.842016e+00 2.358016e+00 1.794262e+00 7.809736e-03
<GCONST> 9.825580e+01
<MIXTURE> 47 7.116147e-03
<MEAN> 25
 7.416019e+00 -7.073905e+00 -7.700322e+00 -6.358739e+00 1.202473e+00 8.963996e-01 -2.395406e+00 9.652418e-01 3.336298e+00 2.119292e-01 -4.061684e+00 -6.628965e+00 -1.636722e-01 -1.209011e+00 -7.014790e-01 -4.187937e-01 5.316986e-01 7.612151e-01 8.666496e-01 2.643671e-01 1.820180e-01 -8.389735e-01 -4.056705e-01 -4.655432e-01 2.982810e-02
<VARIANCE> 25
 1.376661e+01 2.589106e+01 1.972334e+01 3.203094e+01 3.676793e+01 5.257544e+01 4.298623e+01 4.066246e+01 4.321622e+01 4.476105e+01 4.667322e+01 3.234945e+01 5.058269e-01 7.889899e-01 1.101524e+00 1.588782e+00 2.176249e+00 2.247106e+00 2.254876e+00 2.408386e+00 2.209648e+00 2.270522e+00 2.173398e+00 2.002223e+00 5.535581e-04
<GCONST> 8.669660e+01
<MIXTURE> 48 7.116147e-03
<MEAN> 25
 7.416019e+00 -7.073905e+00 -7.700322e+00 -6.358739e+00 1.202473e+00 8.963996e-01 -2.395406e+00 9.652418e-01 3.336298e+00 2.119292e-01 -4.061684e+00 -6.628965e+00 -1.636722e-01 -1.209011e+00 -7.014790e-01 -4.187937e-01 5.316986e-01 7.612151e-01 8.666496e-01 2.643671e-01 1.820180e-01 -8.389735e-01 -4.056705e-01 -4.655432e-01 2.982810e-02
<VARIANCE> 25
 1.376661e+01 2.589106e+01 1.972334e+01 3.203094e+01 3.676793e+01 5.257544e+01 4.298623e+01 4.066246e+01 4.321622e+01 4.476105e+01 4.667322e+01 3.234945e+01 5.058269e-01 7.889899e-01 1.101524e+00 1.588782e+00 2.176249e+00 2.247106e+00 2.254876e+00 2.408386e+00 2.209648e+00 2.270522e+00 2.173398e+00 2.002223e+00 5.535581e-04
<GCONST> 8.669660e+01
<MIXTURE> 49 5.548473e-03
<MEAN> 25
 -5.100688e+00 2.075009e-01 5.927960e-01 8.310339e+00 6.024104e+00 5.590684e+00 5.899856e+00 4.593084e+00 4.724902e+00 3.446951e+00 4.367850e+00 2.654210e+00 3.406137e-01 6.835273e-01 7.012954e-01 3.627528e-01 -1.494421e-01 -7.328498e-01 -9.912169e-01 -1.109530e+00 -9.336279e-01 -6.640096e-01 -5.090579e-01 -2.933385e-01 -4.352943e-05
<VARIANCE> 25
 9.017048e+00 9.834587e+00 1.677527e+01 1.543676e+01 1.524283e+01 1.644050e+01 1.920280e+01 1.877187e+01 1.895739e+01 1.852214e+01 2.530821e+01 1.414984e+01 2.762782e-01 2.909660e-01 4.138891e-01 5.845466e-01 9.366918e-01 1.005946e+00 9.498242e-01 1.003327e+00 1.123177e+00 1.180057e+00 1.242814e+00 1.169494e+00 1.394089e-05
<GCONST> 6.456925e+01
<MIXTURE> 50 6.234641e-03
<MEAN> 25
 -4.661443e+00 1.268979e-02 -9.870965e-01 6.273623e+00 4.202987e+00 2.104839e+00 3.496948e+00 2.044171e+00 2.511234e+00 1.187432e+00 1.901354e+00 2.564502e+00 9.479382e-02 1.941544e-01 9.952461e-02 -1.857949e-01 -5.470741e-01 -5.869378e-01 -3.895768e-01 -7.234912e-02 4.680703e-01 7.013007e-01 7.131627e-01 4.717696e-01 -8.414103e-05
<VARIANCE> 25
 9.902897e+00 1.061045e+01 1.633709e+01 1.468099e+01 1.434209e+01 1.799681e+01 1.857989e+01 1.874745e+01 1.843930e+01 1.808597e+01 2.136745e+01 1.560273e+01 1.725968e-01 2.342315e-01 3.604394e-01 4.955294e-01 6.074364e-01 7.456051e-01 9.582860e-01 1.056708e+00 1.077221e+00 9.598653e-01 8.835116e-01 9.763413e-01 1.136164e-06
<GCONST> 5.959451e+01
<MIXTURE> 51 6.234641e-03
<MEAN> 25
 -4.661443e+00 1.268979e-02 -9.870965e-01 6.273623e+00 4.202987e+00 2.104839e+00 3.496948e+00 2.044171e+00 2.511234e+00 1.187432e+00 1.901354e+00 2.564502e+00 9.479382e-02 1.941544e-01 9.952461e-02 -1.857949e-01 -5.470741e-01 -5.869378e-01 -3.895768e-01 -7.234912e-02 4.680703e-01 7.013007e-01 7.131627e-01 4.717696e-01 -8.414103e-05
<VARIANCE> 25
 9.902897e+00 1.061045e+01 1.633709e+01 1.468099e+01 1.434209e+01 1.799681e+01 1.857989e+01 1.874745e+01 1.843930e+01 1.808597e+01 2.136745e+01 1.560273e+01 1.725968e-01 2.342315e-01 3.604394e-01 4.955294e-01 6.074364e-01 7.456051e-01 9.582860e-01 1.056708e+00 1.077221e+00 9.598653e-01 8.835116e-01 9.763413e-01 1.136164e-06
<GCONST> 5.959451e+01
<MIXTURE> 52 6.367945e-03
<MEAN> 25
 1.048395e+01 2.348971e+00 -6.163698e+00 -1.357541e+01 -4.248263e+00 8.155352e+00 -2.916993e+00 -3.194337e+00 -3.828789e+00 -1.653741e+00 3.350316e+00 3.022236e-01 -3.741739e-01 -4.084647e-01 -2.225176e-02 1.054320e+00 1.289622e+00 -4.648454e-01 -6.177716e-01 -6.096076e-01 -3.444982e-02 1.178408e+00 3.824247e-01 -4.448604e-01 -1.381004e-02
<VARIANCE> 25
 1.156054e+01 2.045085e+01 2.392537e+01 4.146291e+01 4.287768e+01 3.067973e+01 4.383587e+01 4.575155e+01 4.662614e+01 4.520744e+01 3.776608e+01 3.155003e+01 4.451380e-01 1.441995e+00 1.490552e+00 2.638493e+00 2.195951e+00 2.099243e+00 2.886778e+00 2.729402e+00 3.248717e+00 2.655034e+00 2.383515e+00 2.456447e+00 1.517607e-03
<GCONST> 8.978414e+01
<MIXTURE> 53 6.367945e-03
<MEAN> 25
 1.048395e+01 2.348971e+00 -6.163698e+00 -1.357541e+01 -4.248263e+00 8.155352e+00 -2.916993e+00 -3.194337e+00 -3.828789e+00 -1.653741e+00 3.350316e+00 3.022236e-01 -3.741739e-01 -4.084647e-01 -2.225176e-02 1.054320e+00 1.289622e+00 -4.648454e-01 -6.177716e-01 -6.096076e-01 -3.444982e-02 1.178408e+00 3.824247e-01 -4.448604e-01 -1.381004e-02
<VARIANCE> 25
 1.156054e+01 2.045085e+01 2.392537e+01 4.146291e+01 4.287768e+01 3.067973e+01 4.383587e+01 4.575155e+01 4.662614e+01 4.520744e+01 3.776608e+01 3.155003e+01 4.451380e-01 1.441995e+00 1.490552e+00 2.638493e+00 2.195951e+00 2.099243e+00 2.886778e+00 2.729402e+00 3.248717e+00 2.655034e+00 2.383515e+00 2.456447e+00 1.517607e-03
<GCONST> 8.978414e+01
<MIXTURE> 54 7.368620e-03
<MEAN> 25
 -3.724733e+00 5.615360e-02 -5.285050e-01 7.849565e+00 6.419219e+00 4.473070e+00 4.841665e+00 4.607751e+00 3.923527e+00 3.228144e+00 4.295816e+00 2.358149e+00 1.251853e-04 3.083083e-02 6.205631e-02 5.482040e-02 4.079747e-02 1.646121e-02 4.129641e-02 4.302933e-02 -1.261327e-03 -5.727972e-03 4.624744e-02 -2.112783e-02 -2.092406e-05
<VARIANCE> 25
 8.808602e+00 9.804266e+00 9.156539e+00 1.773225e+01 1.267785e+01 1.317293e+01 1.176001e+01 1.110482e+01 1.105526e+01 1.567893e+01 1.723215e+01 1.186878e+01 3.868542e-02 8.288570e-02 1.602898e-01 2.232406e-01 2.957163e-01 3.964924e-01 4.361658e-01 5.249640e-01 5.331094e-01 5.225126e-01 5.564860e-01 5.040449e-01 9.622599e-07
<GCONST> 4.686757e+01
<MIXTURE> 55 7.368620e-03
<MEAN> 25
 -3.724733e+00 5.615360e-02 -5.285050e-01 7.849565e+00 6.419219e+00 4.473070e+00 4.841665e+00 4.607751e+00 3.923527e+00 3.228144e+00 4.295816e+00 2.358149e+00 1.251853e-04 3.083083e-02 6.205631e-02 5.482040e-02 4.079747e-02 1.646121e-02 4.129641e-02 4.302933e-02 -1.261327e-03 -5.727972e-03 4.624744e-02 -2.112783e-02 -2.092406e-05
<VARIANCE> 25
 8.808602e+00 9.804266e+00 9.156539e+00 1.773225e+01 1.267785e+01 1.317293e+01 1.176001e+01 1.110482e+01 1.105526e+01 1.567893e+01 1.723215e+01 1.186878e+01 3.868542e-02 8.288570e-02 1.602898e-01 2.232406e-01 2.957163e-01 3.964924e-01 4.361658e-01 5.249640e-01 5.331094e-01 5.225126e-01 5.564860e-01 5.040449e-01 9.622599e-07
<GCONST> 4.686757e+01
<MIXTURE> 56 6.132464e-03
<MEAN> 25
 7.756658e+00 -6.397743e+00 -9.078214e+00 -8.518842e+00 3.717475e+00 3.982894e+00 -2.203282e+00 -1.588487e+00 2.184546e+00 7.253593e-01 -2.347227e+00 -7.124731e+00 -5.048614e-03 2.589936e-02 -1.044218e-01 1.119106e-02 2.433370e-01 5.234247e-02 1.023123e-01 -1.493634e-01 -5.109826e-02 -4.415383e-02 -6.571356e-02 9.809282e-03 -6.227125e-03
<VARIANCE> 25
 1.068412e+01 2.640234e+01 1.971470e+01 4.094204e+01 3.371257e+01 4.995001e+01 6.047031e+01 3.614468e+01 3.968595e+01 3.685023e+01 3.972204e+01 3.083510e+01 2.011670e-01 4.230069e-01 4.684901e-01 7.551619e-01 7.936538e-01 1.131034e+00 9.518676e-01 9.065493e-01 9.281859e-01 9.336822e-01 1.038012e+00 8.151526e-01 2.527717e-04
<GCONST> 7.544797e+01
<MIXTURE> 57 6.132464e-03
<MEAN> 25
 7.756658e+00 -6.397743e+00 -9.078214e+00 -8.518842e+00 3.717475e+00 3.982894e+00 -2.203282e+00 -1.588487e+00 2.184546e+00 7.253593e-01 -2.347227e+00 -7.124731e+00 -5.048614e-03 2.589936e-02 -1.044218e-01 1.119106e-02 2.433370e-01 5.234247e-02 1.023123e-01 -1.493634e-01 -5.109826e-02 -4.415383e-02 -6.571356e-02 9.809282e-03 -6.227125e-03
<VARIANCE> 25
 1.068412e+01 2.640234e+01 1.971470e+01 4.094204e+01 3.371257e+01 4.995001e+01 6.047031e+01 3.614468e+01 3.968595e+01 3.685023e+01 3.972204e+01 3.083510e+01 2.011670e-01 4.230069e-01 4.684901e-01 7.551619e-01 7.936538e-01 1.131034e+00 9.518676e-01 9.065493e-01 9.281859e-01 9.336822e-01 1.038012e+00 8.151526e-01 2.527717e-04
<GCONST> 7.544797e+01
<MIXTURE> 58 6.172147e-03
<MEAN> 25
 2.249066e+00 -3.433060e+00 6.849659e+00 -5.135600e+00 -1.326507e+01 -5.611549e+00 1.613131e+00 8.252307e-01 -1.685625e+00 1.860814e+00 6.318788e-01 -7.247203e-01 -6.585087e-02 -1.362485e-01 -5.031219e-02 -1.411023e-01 -2.787200e-02 3.113032e-01 4.391084e-01 2.419302e-01 3.812519e-02 1.049082e-02 -6.338996e-02 -1.056535e-01 -4.562416e-03
<VARIANCE> 25
 8.342129e+00 1.800094e+01 2.457890e+01 2.734932e+01 2.318615e+01 4.363738e+01 3.123673e+01 3.307008e+01 3.991962e+01 2.947997e+01 2.175994e+01 1.957309e+01 3.107427e-01 7.843887e-01 7.460816e-01 1.010991e+00 8.719541e-01 1.271171e+00 1.195678e+00 1.301660e+00 1.068635e+00 1.067741e+00 8.821746e-01 8.759862e-01 7.452119e-04
<GCONST> 7.597770e+01
<MIXTURE> 59 6.172147e-03
<MEAN> 25
 2.249066e+00 -3.433060e+00 6.849659e+00 -5.135600e+00 -1.326507e+01 -5.611549e+00 1.613131e+00 8.252307e-01 -1.685625e+00 1.860814e+00 6.318788e-01 -7.247203e-01 -6.585087e-02 -1.362485e-01 -5.031219e-02 -1.411023e-01 -2.787200e-02 3.113032e-01 4.391084e-01 2.419302e-01 3.812519e-02 1.049082e-02 -6.338996e-02 -1.056535e-01 -4.562416e-03
<VARIANCE> 25
 8.342129e+00 1.800094e+01 2.457890e+01 2.734932e+01 2.318615e+01 4.363738e+01 3.123673e+01 3.307008e+01 3.991962e+01 2.947997e+01 2.175994e+01 1.957309e+01 3.107427e-01 7.843887e-01 7.460816e-01 1.010991e+00 8.719541e-01 1.271171e+00 1.195678e+00 1.301660e+00 1.068635e+00 1.067741e+00 8.821746e-01 8.759862e-01 7.452119e-04
<GCONST> 7.597770e+01
<MIXTURE> 60 4.479129e-03
<MEAN> 25
 -4.312399e+00 -3.301374e-01 -9.382828e-02 4.014770e+00 2.255260e+00 1.816211e+00 1.544602e+00 1.134989e+00 1.013225e+00 5.044904e-01 1.225628e+00 1.606284e+00 -5.649842e-02 4.351729e-02 8.133109e-02 1.576892e-01 2.136379e-01 1.668169e-01 2.167208e-01 3.377148e-01 6.024973e-01 7.713208e-01 5.042615e-01 3.247348e-01 6.201171e-04
<VARIANCE> 25
 5.501045e+00 4.149737e+00 1.082832e+01 9.729478e+00 1.301352e+01 1.438673e+01 1.284326e+01 1.165912e+01 1.577856e+01 1.333650e+01 1.634197e+01 1.139248e+01 1.023360e-01 1.707364e-01 2.911366e-01 4.180292e-01 5.814115e-01 7.908335e-01 8.927369e-01 9.484455e-01 8.461379e-01 1.006473e+00 8.418397e-01 7.685707e-01 3.331489e-05
<GCONST> 5.654712e+01
<MIXTURE> 61 4.479129e-03
<MEAN> 25
 -4.312399e+00 -3.301374e-01 -9.382828e-02 4.014770e+00 2.255260e+00 1.816211e+00 1.544602e+00 1.134989e+00 1.013225e+00 5.044904e-01 1.225628e+00 1.606284e+00 -5.649842e-02 4.351729e-02 8.133109e-02 1.576892e-01 2.136379e-01 1.668169e-01 2.167208e-01 3.377148e-01 6.024973e-01 7.713208e-01 5.042615e-01 3.247348e-01 6.201171e-04
<VARIANCE> 25
 5.501045e+00 4.149737e+00 1.082832e+01 9.729478e+00 1.301352e+01 1.438673e+01 1.284326e+01 1.165912e+01 1.577856e+01 1.333650e+01 1.634197e+01 1.139248e+01 1.023360e-01 1.707364e-01 2.911366e-01 4.180292e-01 5.814115e-01 7.908335e-01 8.927369e-01 9.484455e-01 8.461379e-01 1.006473e+00 8.418397e-01 7.685707e-01 3.331489e-05
<GCONST> 5.654712e+01
<MIXTURE> 62 3.278034e-03
<MEAN> 25
 -5.091428e+00 1.233856e+00 1.023012e+00 8.792233e+00 6.125273e+00 5.033658e+00 5.494576e+00 4.030096e+00 4.975690e+00 3.902746e+00 4.950557e+00 2.936284e+00 -1.001977e+00 -1.166850e+00 -9.514197e-01 -2.772168e-01 4.265189e-01 1.006588e+00 1.385182e+00 1.552844e+00 1.476951e+00 1.240326e+00 1.063669e+00 7.257688e-01 -1.265914e-03
<VARIANCE> 25
 9.860890e+00 9.964018e+00 1.310773e+01 1.697577e+01 1.740778e+01 1.764666e+01 1.965950e+01 1.911249e+01 1.892777e+01 1.877954e+01 2.162773e+01 1.487089e+01 4.022828e-01 4.324546e-01 5.540425e-01 7.786410e-01 1.033923e+00 1.192414e+00 1.251661e+00 1.277466e+00 1.331186e+00 1.369226e+00 1.404269e+00 1.369813e+00 1.640331e-05
<GCONST> 6.756819e+01
<MIXTURE> 63 4.351215e-03
<MEAN> 25
 -3.878755e+00 -1.680965e+00 -2.681396e+00 3.198917e+00 2.688685e+00 1.629153e-01 2.404088e+00 7.827032e-01 1.153106e+00 -1.337980e+00 -1.427798e+00 1.653969e+00 -7.212241e-02 2.181834e-01 4.003263e-01 4.483880e-01 3.757062e-01 5.132846e-01 3.664061e-01 3.133830e-01 1.612246e-01 1.236785e-01 1.467318e-01 2.201605e-01 -4.482088e-03
<VARIANCE> 25
 6.455317e+00 1.175636e+01 1.806141e+01 1.381340e+01 1.481943e+01 2.210027e+01 2.149669e+01 1.976280e+01 2.319207e+01 1.685679e+01 1.495452e+01 1.476263e+01 2.517361e-01 4.667615e-01 5.771057e-01 6.417157e-01 7.321712e-01 1.337074e+00 1.454667e+00 1.387692e+00 1.132969e+00 1.431516e+00 1.073885e+00 1.162516e+00 2.198272e-04
<GCONST> 6.883385e+01
<MIXTURE> 64 4.351215e-03
<MEAN> 25
 -3.878755e+00 -1.680965e+00 -2.681396e+00 3.198917e+00 2.688685e+00 1.629153e-01 2.404088e+00 7.827032e-01 1.153106e+00 -1.337980e+00 -1.427798e+00 1.653969e+00 -7.212241e-02 2.181834e-01 4.003263e-01 4.483880e-01 3.757062e-01 5.132846e-01 3.664061e-01 3.133830e-01 1.612246e-01 1.236785e-01 1.467318e-01 2.201605e-01 -4.482088e-03
<VARIANCE> 25
 6.455317e+00 1.175636e+01 1.806141e+01 1.381340e+01 1.481943e+01 2.210027e+01 2.149669e+01 1.976280e+01 2.319207e+01 1.685679e+01 1.495452e+01 1.476263e+01 2.517361e-01 4.667615e-01 5.771057e-01 6.417157e-01 7.321712e-01 1.337074e+00 1.454667e+00 1.387692e+00 1.132969e+00 1.431516e+00 1.073885e+00 1.162516e+00 2.198272e-04
<GCONST> 6.883385e+01
<MIXTURE> 65 1.721197e-02
<MEAN> 25
 9.707981e+00 3.525031e+00 1.197878e+00 -1.044936e-01 -5.266891e+00 -2.988029e+00 -5.955335e+00 -5.964583e+00 -2.405031e+00 -3.182899e-01 -3.439236e+00 -1.942005e+00 2.029247e-01 6.014042e-02 -2.278632e-01 2.844492e-01 -1.299181e-01 2.925470e-01 6.644314e-02 -2.479041e-01 6.254158e-01 -1.016715e-01 -3.087106e-01 -5.689954e-01 -1.918511e-03
<VARIANCE> 25
 1.530561e+01 2.080230e+01 2.383811e+01 3.056742e+01 3.103420e+01 5.307628e+01 4.677269e+01 5.221883e+01 5.654421e+01 5.596127e+01 5.705741e+01 4.242990e+01 5.355603e-01 9.754579e-01 1.744051e+00 1.684565e+00 2.033655e+00 2.102785e+00 1.996546e+00 2.459362e+00 2.807557e+00 2.162112e+00 2.330143e+00 2.429727e+00 4.899117e-04
<GCONST> 8.874926e+01
<MIXTURE> 66 1.191532e-02
<MEAN> 25
 6.192359e+00 -3.778276e+00 -5.525433e+00 -5.238546e+00 1.164747e+00 -4.830254e+00 -7.068151e+00 7.095746e-01 4.979930e-02 -1.258058e+00 -5.182780e+00 -3.014085e+00 5.237693e-02 1.663507e+00 2.320651e+00 2.384115e+00 -1.129811e+00 -1.110375e+00 8.517168e-02 -5.947023e-01 -2.627590e-01 -2.068225e-01 -2.536131e-01 9.184163e-01 -6.047325e-02
<VARIANCE> 25
 1.118748e+01 2.136961e+01 2.660724e+01 4.084326e+01 3.588167e+01 5.051081e+01 5.290611e+01 4.456134e+01 5.494389e+01 6.868653e+01 4.550112e+01 3.658847e+01 1.334165e+00 2.349267e+00 2.231902e+00 2.298801e+00 4.076586e+00 4.133441e+00 4.037903e+00 4.453994e+00 4.163898e+00 4.690611e+00 3.579481e+00 3.176686e+00 1.550075e-03
<GCONST> 9.676092e+01
<MIXTURE> 67 1.559142e-02
<MEAN> 25
 1.019025e+01 3.887857e+00 -4.804629e+00 -8.088428e+00 -6.798713e-01 2.185306e+00 -3.335968e+00 -2.476684e+00 -4.614914e+00 1.378098e+00 1.209029e+00 -1.031482e+00 -1.332043e+00 1.254539e+00 1.382535e+00 2.807916e+00 1.432061e+00 -4.305629e-01 8.469643e-01 3.402541e-01 -4.380460e-03 2.334885e-01 -2.521898e-01 1.006454e+00 -1.197918e-01
<VARIANCE> 25
 1.680166e+01 3.900452e+01 2.800650e+01 4.635759e+01 4.176793e+01 4.437990e+01 4.930805e+01 3.877141e+01 5.737405e+01 4.638528e+01 4.441685e+01 4.216745e+01 2.481941e+00 3.543411e+00 2.752715e+00 3.451183e+00 3.348763e+00 3.471051e+00 3.858867e+00 4.002005e+00 5.340351e+00 3.897617e+00 4.021226e+00 3.918822e+00 2.955753e-03
<GCONST> 9.968810e+01
<MIXTURE> 68 1.485092e-02
<MEAN> 25
 -2.035521e+00 -2.393957e+00 -3.553355e+00 1.089942e+00 5.135065e+00 -1.918979e-01 2.046062e+00 2.063096e+00 1.502938e+00 1.519432e+00 4.947620e-02 1.690534e+00 2.680568e+00 5.430633e-01 -2.180512e-01 -2.677330e+00 -2.275329e+00 -1.568646e+00 -2.300453e+00 -1.748350e+00 -1.558841e+00 -1.310315e+00 -1.784222e+00 -9.616933e-01 1.013902e-01
<VARIANCE> 25
 2.484750e+01 3.111981e+01 5.769303e+01 5.026748e+01 4.391138e+01 5.539653e+01 4.279429e+01 4.026727e+01 4.104251e+01 4.092608e+01 3.749791e+01 2.522445e+01 1.813293e+00 3.495690e+00 6.467183e+00 6.422081e+00 4.582992e+00 5.270375e+00 5.429531e+00 4.589364e+00 4.655063e+00 5.546381e+00 5.202051e+00 3.391833e+00 5.822831e-03
<GCONST> 1.030459e+02
<MIXTURE> 69 1.204884e-02
<MEAN> 25
 4.486010e+00 -4.394453e+00 -3.592220e+00 -3.673819e+00 -3.518349e+00 -7.714764e+00 -1.121174e+00 2.219409e+00 -2.601226e-01 -4.659156e+00 -5.551189e+00 8.652035e-01 1.650054e+00 -2.179598e+00 -1.329959e+00 -2.215729e+00 -5.650899e-01 -3.361787e-01 -4.744199e-01 5.796301e-01 -5.991225e-01 -1.356290e+00 -2.094538e+00 -1.293240e-01 6.227699e-02
<VARIANCE> 25
 9.613625e+00 2.266698e+01 2.614166e+01 2.557910e+01 4.204675e+01 3.609728e+01 4.752324e+01 3.066410e+01 3.939372e+01 3.711834e+01 3.069081e+01 2.482281e+01 3.463117e+00 2.910006e+00 3.247207e+00 3.672834e+00 5.698513e+00 4.915071e+00 6.938332e+00 5.943475e+00 5.845420e+00 6.023210e+00 4.551713e+00 3.658880e+00 2.378647e-03
<GCONST> 9.854276e+01
<MIXTURE> 70 1.329190e-02
<MEAN> 25
 7.270361e+00 -1.691614e+00 -4.292404e+00 -4.037658e+00 -3.773990e-01 -1.782822e-01 -7.709920e+00 -4.015903e+00 2.385952e-01 3.469193e+00 7.622263e-01 -3.985723e+00 1.894248e+00 -8.782043e-01 -8.875657e-01 -2.169537e+00 -1.326943e+00 8.788957e-01 -1.401089e+00 -1.726275e-01 3.722799e-01 3.471975e-01 9.223624e-01 -1.189180e+00 6.168842e-02
<VARIANCE> 25
 1.052352e+01 2.111104e+01 2.641579e+01 4.421991e+01 3.082552e+01 4.045935e+01 4.479115e+01 3.888905e+01 4.205927e+01 3.115917e+01 4.356121e+01 2.854492e+01 3.070825e+00 3.243289e+00 4.451587e+00 4.840515e+00 4.732383e+00 6.027664e+00 6.041269e+00 6.595406e+00 5.329364e+00 5.781754e+00 5.647209e+00 4.283471e+00 2.333638e-03
<GCONST> 1.002668e+02
<MIXTURE> 71 1.406903e-02
<MEAN> 25
 6.276571e+00 5.193692e+00 4.223535e+00 2.907892e+00 -3.431099e+00 -3.423184e+00 -3.425142e+00 -6.421517e+00 -4.524590e+00 -2.368738e+00 -5.021728e+00 -3.201882e+00 -1.597819e+00 -7.603549e-01 -2.279910e-01 -1.677696e+00 1.119036e+00 -1.883022e-01 1.460264e-01 1.520821e+00 3.410971e-01 -1.662158e-01 6.560327e-01 1.471447e-01 3.878343e-02
<VARIANCE> 25
 2.021117e+01 2.520109e+01 2.311068e+01 4.359333e+01 3.896891e+01 3.916541e+01 4.119859e+01 4.082433e+01 3.789323e+01 4.309230e+01 3.582589e+01 3.309383e+01 1.856452e+00 3.074150e+00 5.117228e+00 4.970242e+00 4.514161e+00 4.567251e+00 4.906560e+00 5.176023e+00 4.154079e+00 3.923409e+00 3.529012e+00 3.190266e+00 1.489823e-03
<GCONST> 9.827122e+01
<MIXTURE> 72 8.134747e-03
<MEAN> 25
 3.786207e+00 -3.683641e+00 5.450125e+00 -2.469826e+00 -1.040029e+01 -9.621637e+00 -2.447991e+00 1.926920e+00 -4.931146e+00 -2.197369e+00 -1.882735e+00 6.175474e-01 9.323817e-01 -7.855690e-01 -2.576178e+00 4.627889e-01 2.136025e+00 -6.527566e-01 -1.316103e+00 1.524572e+00 1.814327e+00 -5.981496e-01 -1.289393e+00 3.998243e-01 -6.153125e-03
<VARIANCE> 25
 1.085041e+01 1.949376e+01 3.291628e+01 3.840416e+01 3.233504e+01 3.337148e+01 4.105709e+01 3.619913e+01 4.386651e+01 4.135385e+01 3.879445e+01 2.850216e+01 4.321223e-01 1.025886e+00 2.021910e+00 1.468609e+00 2.184068e+00 2.363553e+00 3.063862e+00 2.732122e+00 2.602897e+00 2.962120e+00 2.023031e+00 2.139348e+00 5.427255e-04
<GCONST> 8.727249e+01
<MIXTURE> 73 1.213625e-02
<MEAN> 25
 -5.475962e+00 -8.691412e-01 -1.061893e+00 4.716597e+00 4.261583e+00 2.537484e+00 5.339126e+00 3.564505e+00 3.896836e+00 3.258935e+00 3.849385e+00 2.997263e+00 8.334502e-01 -9.754707e-01 -1.077507e+00 -2.764323e+00 -1.240164e+00 -1.715144e+00 -9.234243e-01 -5.233151e-01 -9.004588e-01 -5.737913e-01 -9.885624e-01 -2.276518e-01 1.522601e-01
<VARIANCE> 25
 1.301853e+01 1.292803e+01 1.599471e+01 2.268879e+01 2.271181e+01 2.574168e+01 2.000516e+01 1.935906e+01 2.163732e+01 1.882638e+01 2.582178e+01 1.556089e+01 3.908599e+00 3.001573e+00 6.110710e+00 4.922972e+00 5.905061e+00 4.501687e+00 4.150911e+00 4.093730e+00 3.751181e+00 4.320918e+00 3.633380e+00 2.629143e+00 4.261018e-03
<GCONST> 9.286606e+01
<MIXTURE> 74 1.756491e-02
<MEAN> 25
 3.520051e+00 -1.983678e+00 4.098733e+00 -1.674542e+00 -8.265450e+00 -7.144852e+00 -1.920864e+00 7.412328e-01 -2.623264e+00 -2.501379e+00 -1.713336e+00 1.423635e-01 2.925669e-01 1.988812e+00 2.318176e-01 1.714978e+00 1.324386e+00 4.643102e-01 -6.012437e-02 -1.175369e+00 -8.491572e-02 4.770716e-02 -3.575980e-01 -1.694566e-01 -7.639132e-02
<VARIANCE> 25
 1.555722e+01 2.372733e+01 3.908602e+01 3.817197e+01 3.818368e+01 4.303543e+01 5.415971e+01 4.267007e+01 5.804593e+01 4.112506e+01 3.865261e+01 3.077203e+01 1.873960e+00 2.114139e+00 3.716889e+00 2.445073e+00 3.762579e+00 3.606233e+00 4.813897e+00 3.904174e+00 4.764978e+00 3.610909e+00 3.241461e+00 2.932926e+00 1.680494e-03
<GCONST> 9.700848e+01
<MIXTURE> 75 9.711651e-03
<MEAN> 25
 2.656410e+00 -1.248967e+00 1.103154e+01 1.731895e+00 -1.183204e+01 -7.665070e+00 -4.571801e+00 -4.808809e-01 -4.504591e+00 -4.618710e+00 3.258869e+00 1.547235e-01 1.751228e+00 -1.765842e+00 2.013806e-01 -2.605717e-01 -2.401222e+00 -5.185886e-01 -1.463834e+00 9.672012e-01 -1.512699e-01 -3.504336e-01 1.082991e+00 -6.292284e-01 3.865853e-02
<VARIANCE> 25
 1.117606e+01 1.783206e+01 3.042638e+01 2.781697e+01 2.698479e+01 3.279192e+01 3.151957e+01 3.111056e+01 3.374252e+01 3.163048e+01 2.047896e+01 2.170209e+01 2.383882e+00 1.903424e+00 4.291074e+00 2.493453e+00 3.882877e+00 4.344060e+00 4.170844e+00 3.517167e+00 3.953435e+00 3.382701e+00 3.103154e+00 2.512402e+00 1.542183e-03
<GCONST> 9.229205e+01
<MIXTURE> 76 1.052359e-02
<MEAN> 25
 -5.548814e+00 -2.341119e+00 -1.921058e+00 2.271537e+00 2.471272e+00 9.711319e-01 2.785424e+00 1.968211e+00 2.229186e+00 6.818531e-02 1.139097e+00 2.294538e+00 -1.225712e-01 -5.630065e-01 -3.934970e-01 -9.444771e-01 -5.672093e-01 -8.240197e-01 -4.508830e-01 -2.997885e-01 -3.710164e-01 -1.478288e-01 -2.892483e-01 -2.790779e-01 1.831499e-02
<VARIANCE> 25
 2.744937e+01 2.748301e+01 2.609332e+01 2.693028e+01 2.758504e+01 2.623907e+01 2.655224e+01 2.441605e+01 2.395490e+01 2.102704e+01 2.113130e+01 2.131931e+01 1.268794e+00 1.000956e+00 1.180834e+00 1.361770e+00 1.437822e+00 1.350586e+00 1.591764e+00 1.464253e+00 1.438361e+00 2.585962e+00 1.885885e+00 1.555605e+00 1.260348e-03
<GCONST> 8.245638e+01
<MIXTURE> 77 1.244626e-02
<MEAN> 25
 -4.771726e-01 8.548187e+00 1.243528e+01 -1.152889e+01 -6.972008e+00 9.243492e-01 -9.267280e+00 -7.210576e+00 -3.378150e+00 -2.120587e-01 -4.638278e+00 -1.480262e+00 6.625783e-02 1.386827e-01 7.103680e-02 2.409769e-01 -2.605279e-02 7.154986e-02 -6.342714e-02 -5.840470e-02 7.617564e-02 -4.530120e-02 2.384597e-02 1.211865e-01 -9.727282e-03
<VARIANCE> 25
 1.040933e+01 2.021038e+01 2.751354e+01 4.276023e+01 3.320940e+01 3.379750e+01 3.654152e+01 3.172825e+01 3.505393e+01 3.306220e+01 3.741043e+01 3.476400e+01 2.979935e-01 7.740989e-01 6.433660e-01 1.102230e+00 1.234560e+00 9.948241e-01 1.218297e+00 1.070610e+00 1.047179e+00 1.061596e+00 9.672139e-01 9.196212e-01 5.444969e-04
<GCONST> 7.780466e+01
<MIXTURE> 78 9.702551e-03
<MEAN> 25
 -9.915319e+00 -5.594662e-01 -2.201061e+00 -6.244017e-01 1.712378e+00 -4.151524e+00 4.032341e+00 2.452364e+00 3.658346e+00 1.688370e+00 -3.874335e-03 2.686824e+00 1.952125e+00 -2.556306e-01 3.046350e-02 4.428829e-01 -2.697291e-01 4.577642e-01 -3.116168e-01 -1.447013e-01 2.360638e-01 -3.432833e-02 -3.798215e-01 -2.548012e-01 -6.502192e-02
<VARIANCE> 25
 3.460629e+01 2.657349e+01 2.306105e+01 3.380840e+01 4.104628e+01 3.626502e+01 3.059113e+01 2.692143e+01 2.623940e+01 2.464691e+01 2.232744e+01 1.739169e+01 3.883909e+00 2.195641e+00 2.279024e+00 2.427758e+00 3.128811e+00 3.757150e+00 3.670083e+00 2.670982e+00 2.563365e+00 2.126341e+00 2.360475e+00 2.810122e+00 3.497022e-03
<GCONST> 9.241563e+01
<MIXTURE> 79 1.156824e-02
<MEAN> 25
 2.419117e+00 1.576469e+00 9.164432e+00 -6.612962e+00 -1.206059e+01 -1.830478e+00 -1.915169e+00 -6.472689e+00 -6.571210e+00 3.312140e-01 -3.509723e+00 -3.292856e+00 1.221014e+00 -5.217116e-01 -1.425562e+00 2.356007e+00 3.793596e-01 -1.467690e+00 5.337630e-01 8.837271e-01 -4.358853e-01 -5.433401e-01 3.559857e-01 2.795303e-01 -3.631844e-02
<VARIANCE> 25
 1.429645e+01 2.412769e+01 3.825775e+01 4.994399e+01 3.347557e+01 4.351476e+01 4.283090e+01 3.672851e+01 3.902003e+01 3.983365e+01 4.392779e+01 3.065210e+01 9.436634e-01 2.268518e+00 1.919540e+00 2.081672e+00 2.471183e+00 2.833307e+00 3.193436e+00 3.534692e+00 2.513747e+00 2.731022e+00 2.315523e+00 2.032865e+00 1.233175e-03
<GCONST> 9.183794e+01
<MIXTURE> 80 7.550998e-03
<MEAN> 25
 -1.453331e+01 3.705567e+00 5.443634e-01 2.391530e+00 2.265442e+00 9.204760e-01 6.880052e+00 2.729050e+00 2.986300e+00 2.565202e+00 4.467536e+00 1.034616e+00 4.141226e+00 -1.077725e-01 1.602592e+00 -1.093454e+00 -2.915198e+00 -2.719275e+00 -2.172436e+00 -2.096702e+00 -1.987839e+00 -1.541650e+00 -1.659026e+00 -5.063544e-01 -4.358820e-02
<VARIANCE> 25
 2.002023e+01 2.026622e+01 3.311929e+01 3.709047e+01 2.930718e+01 3.213820e+01 3.117402e+01 2.813046e+01 2.672268e+01 2.805697e+01 2.823672e+01 1.763396e+01 2.624530e+00 2.687755e+00 2.563514e+00 3.948530e+00 3.239251e+00 2.633447e+00 3.291018e+00 3.150018e+00 2.616892e+00 2.943335e+00 2.646199e+00 2.209076e+00 1.445172e-03
<GCONST> 9.153889e+01
<MIXTURE> 81 8.025434e-03
<MEAN> 25
 -1.120528e+00 4.062152e+00 1.017457e+01 -1.479560e+01 -9.077472e+00 -1.423752e+00 -6.762924e+00 -8.420425e+00 -4.150133e+00 -4.162317e-01 -7.571741e+00 -2.245770e+00 1.338661e-01 -5.868974e-01 -1.827242e-03 -5.572518e-01 -4.637375e-01 3.343014e-01 3.197246e-01 1.379573e-01 -1.401595e-01 1.071745e-01 -4.682671e-01 -1.249685e-01 1.152585e-02
<VARIANCE> 25
 1.015640e+01 3.283743e+01 2.649830e+01 2.938457e+01 3.370631e+01 3.051181e+01 4.546040e+01 2.828874e+01 3.798440e+01 3.187330e+01 2.530000e+01 3.103446e+01 7.719588e-01 2.276408e+00 1.547481e+00 2.873731e+00 2.664170e+00 2.126337e+00 3.279136e+00 2.289392e+00 2.355093e+00 2.538365e+00 2.300260e+00 2.077587e+00 1.183259e-03
<GCONST> 8.869312e+01
<MIXTURE> 82 8.213053e-03
<MEAN> 25
 -9.438339e+00 -3.881783e+00 2.080518e+00 -2.731276e+00 3.115591e+00 4.840266e-02 1.746586e+00 1.472520e+00 2.683410e+00 1.511150e+00 1.417603e+00 3.257219e+00 -1.272821e+00 -7.081312e-02 -2.094449e-02 -2.373796e+00 -9.966509e-01 -1.290802e+00 -9.557076e-01 -9.611065e-01 -2.216088e-01 -4.005165e-01 -9.384586e-02 -4.267234e-02 1.730027e-01
<VARIANCE> 25
 1.856177e+01 2.258034e+01 3.121343e+01 2.860447e+01 2.999558e+01 3.434425e+01 2.917344e+01 3.269869e+01 2.906344e+01 2.344080e+01 2.924208e+01 1.728376e+01 3.467392e+00 2.837422e+00 3.905582e+00 3.607276e+00 3.322830e+00 3.020426e+00 2.731593e+00 3.004447e+00 2.642462e+00 2.339176e+00 2.623033e+00 1.765397e+00 3.494188e-03
<GCONST> 9.236735e+01
<MIXTURE> 83 1.167529e-02
<MEAN> 25
 -2.001566e+01 5.471532e+00 -1.806662e+00 -4.308935e-01 7.817450e+00 -1.259992e+00 5.444339e+00 3.067653e+00 1.214252e+00 2.195068e+00 7.450139e-01 2.860812e+00 -2.743737e-02 -4.564427e-01 5.883709e-03 -3.706163e-01 -5.045311e-01 -1.315352e-01 -1.211990e-01 -1.003357e-01 -4.324238e-02 -3.213966e-02 -4.595354e-02 -3.258461e-02 4.241401e-03
<VARIANCE> 25
 8.934223e+00 1.664345e+01 2.845900e+01 2.254365e+01 2.122485e+01 2.412734e+01 2.200801e+01 2.338908e+01 2.046782e+01 2.212882e+01 2.320327e+01 1.453219e+01 1.057164e+00 9.416637e-01 1.235812e+00 1.067069e+00 1.365711e+00 1.293923e+00 1.318453e+00 1.385568e+00 1.346387e+00 1.316896e+00 1.270877e+00 1.068229e+00 8.954206e-04
<GCONST> 7.713557e+01
<MIXTURE> 84 1.066614e-02
<MEAN> 25
 2.421689e+00 8.767254e+00 6.552278e+00 6.334960e+00 1.617343e+00 -1.377725e+00 -2.094242e+00 -4.101925e+00 -3.949924e+00 -2.612370e+00 -1.824593e+00 -1.257769e+00 -2.103334e+00 -1.477749e+00 -9.484798e-01 1.358536e+00 2.063798e+00 1.147027e+00 1.461381e+00 1.247676e+00 1.339330e+00 2.419489e-01 3.013196e-01 3.526462e-01 -7.240669e-02
<VARIANCE> 25
 2.699441e+01 1.583441e+01 1.959780e+01 3.000976e+01 3.001541e+01 2.510199e+01 2.466628e+01 2.265392e+01 2.217867e+01 2.273059e+01 2.165512e+01 2.520254e+01 2.124317e+00 2.434907e+00 3.427178e+00 2.804177e+00 2.839061e+00 3.401289e+00 3.195213e+00 2.808191e+00 3.172728e+00 2.775484e+00 3.010785e+00 2.474358e+00 3.524304e-03
<GCONST> 9.076069e+01
<MIXTURE> 85 7.591393e-03
<MEAN> 25
 -2.885214e+00 7.888412e+00 5.656255e+00 1.268683e+00 -3.343712e+00 -5.174666e+00 -3.063806e+00 -6.130253e+00 -3.563064e+00 -3.022695e+00 -4.130187e-01 -1.917752e+00 3.934948e+00 3.793580e-01 1.744044e+00 -2.036289e+00 -3.369256e+00 -2.537312e+00 -2.800487e+00 -2.331271e+00 -2.214714e+00 -1.269077e+00 -2.302414e+00 -6.545759e-01 1.095513e-02
<VARIANCE> 25
 4.426421e+01 2.306272e+01 3.605313e+01 3.755481e+01 3.998935e+01 4.141236e+01 3.180080e+01 2.758406e+01 2.612194e+01 2.673515e+01 2.588900e+01 2.017061e+01 2.653102e+00 4.368445e+00 3.984069e+00 5.214905e+00 4.410088e+00 3.895344e+00 4.094729e+00 3.916106e+00 3.821777e+00 3.965498e+00 3.877141e+00 3.487920e+00 5.469937e-03
<GCONST> 9.829852e+01
<MIXTURE> 86 1.273941e-02
<MEAN> 25
 -4.852845e+00 -1.222355e+00 -3.851478e-01 6.629446e+00 4.791787e+00 4.707133e+00 5.277700e+00 4.045557e+00 3.994253e+00 3.420573e+00 4.571688e+00 2.645106e+00 -9.858501e-03 -2.553226e-03 -3.792031e-02 -9.289440e-02 -1.900131e-01 -2.240777e-01 -3.253987e-01 -3.884423e-01 -4.958163e-01 -4.016245e-01 -2.535775e-01 -2.247626e-01 -6.580632e-04
<VARIANCE> 25
 6.684078e+00 5.151783e+00 9.642890e+00 1.152752e+01 1.482447e+01 1.283113e+01 1.305132e+01 1.298111e+01 1.590031e+01 1.402002e+01 1.585475e+01 1.280744e+01 1.053394e-01 1.719577e-01 3.343267e-01 4.398395e-01 6.802190e-01 6.797296e-01 7.306832e-01 8.106778e-01 8.704479e-01 8.600705e-01 8.251731e-01 8.820630e-01 6.380121e-05
<GCONST> 5.780782e+01
<MIXTURE> 87 1.100681e-02
<MEAN> 25
 -3.228712e+00 4.012450e+00 3.649135e+00 6.503098e+00 5.262986e+00 1.041363e+00 1.660121e+00 -5.868279e-01 -9.095486e-01 -6.710212e-01 -9.387931e-01 -7.851004e-02 -1.891573e+00 -2.573503e+00 -2.042992e+00 -2.300420e+00 -2.521603e-03 -2.087057e-01 4.916909e-01 1.247322e+00 1.228720e+00 1.063852e+00 9.644160e-01 9.553273e-01 1.011359e-01
<VARIANCE> 25
 3.525062e+01 2.976010e+01 2.663630e+01 3.346867e+01 2.788921e+01 3.093016e+01 2.600986e+01 2.666629e+01 2.576107e+01 2.392471e+01 2.363397e+01 2.184133e+01 4.294920e+00 2.938274e+00 3.989187e+00 3.657389e+00 4.509283e+00 4.065942e+00 4.018139e+00 3.735051e+00 3.591279e+00 3.153462e+00 3.151269e+00 2.590961e+00 4.757953e-03
<GCONST> 9.567944e+01
<MIXTURE> 88 1.256585e-02
<MEAN> 25
 -3.906735e+00 -8.695601e-01 -4.954306e-01 4.457639e+00 3.544460e+00 2.117594e+00 3.780015e+00 2.629267e+00 2.830512e+00 1.220901e+00 1.507089e+00 1.978675e+00 1.520252e-02 -3.627013e-03 2.938164e-01 3.098531e-01 3.775201e-01 4.691283e-01 -1.625664e-01 4.988569e-03 -2.804205e-01 -8.979325e-02 1.671691e-02 1.497957e-02 -8.570186e-03
<VARIANCE> 25
 7.016397e+00 7.953990e+00 1.621561e+01 1.648740e+01 1.766404e+01 2.538878e+01 2.028954e+01 1.813347e+01 1.678842e+01 1.579007e+01 1.792507e+01 1.324203e+01 9.886436e-01 1.349715e+00 1.883236e+00 2.475738e+00 2.036567e+00 3.349432e+00 2.410986e+00 2.211059e+00 2.127535e+00 2.363173e+00 2.109820e+00 2.166376e+00 1.450471e-03
<GCONST> 8.064113e+01
<MIXTURE> 89 9.333527e-03
<MEAN> 25
 5.624169e+00 -7.180629e+00 -3.645477e+00 -3.343473e+00 -2.052127e+00 -5.609122e+00 -5.692427e+00 4.018377e+00 3.746382e+00 -2.589692e+00 -5.661078e+00 -3.270642e+00 -5.634500e-01 1.380534e-01 1.909966e+00 8.634217e-01 -1.901462e+00 -1.542391e+00 9.470851e-01 1.211706e+00 -6.465619e-01 -1.209518e+00 4.219279e-01 1.490481e+00 -5.182636e-03
<VARIANCE> 25
 1.171234e+01 2.832539e+01 3.006453e+01 2.969881e+01 3.822041e+01 3.985983e+01 5.916283e+01 3.984432e+01 4.069122e+01 4.092322e+01 3.617686e+01 3.064297e+01 3.402516e-01 8.091485e-01 1.505163e+00 1.286936e+00 1.904156e+00 2.254313e+00 2.541382e+00 1.994055e+00 2.507752e+00 2.235197e+00 2.209261e+00 1.428935e+00 3.837074e-04
<GCONST> 8.552707e+01
<MIXTURE> 90 7.114505e-03
<MEAN> 25
 2.098888e+00 -9.837431e+00 -4.669929e+00 -3.967873e+00 -3.667534e+00 -1.973997e+00 3.285769e+00 1.281012e+00 -6.535351e+00 -9.477284e+00 -3.238931e+00 -9.118558e-01 -1.803028e-01 8.323783e-01 1.143504e+00 -7.566023e-01 -1.664543e+00 -2.136112e-01 7.278389e-01 -1.863738e-01 -6.180525e-02 7.083920e-01 2.105795e-01 -4.502553e-01 -1.106971e-02
<VARIANCE> 25
 9.201478e+00 1.913221e+01 2.007755e+01 2.756460e+01 3.741831e+01 3.138353e+01 3.636981e+01 3.394333e+01 4.907320e+01 3.219306e+01 2.601854e+01 2.462568e+01 2.238007e-01 6.529596e-01 7.793674e-01 1.089602e+00 1.528170e+00 1.598457e+00 1.869427e+00 1.604000e+00 1.964792e+00 1.615413e+00 1.407112e+00 1.348901e+00 2.205557e-04
<GCONST> 7.872933e+01
<MIXTURE> 91 7.852945e-03
<MEAN> 25
 5.981017e+00 -7.411977e+00 -8.355923e+00 -5.239939e+00 3.504817e+00 -3.321393e-01 -1.955046e+00 7.591966e-01 9.077488e-01 -2.866571e+00 -4.601233e+00 -5.257559e+00 2.420148e-01 1.010652e+00 2.560869e-01 4.983792e-01 -1.340105e-02 -6.334167e-01 -4.080467e-01 -1.192477e-01 -1.533986e-01 4.502334e-01 -1.290601e-01 2.568937e-01 -3.445860e-02
<VARIANCE> 25
 1.267798e+01 2.337786e+01 1.971294e+01 3.855506e+01 3.740593e+01 5.335180e+01 5.310446e+01 3.766790e+01 5.020657e+01 6.125838e+01 3.819356e+01 4.025439e+01 4.300043e-01 8.564761e-01 1.140807e+00 1.382054e+00 2.152885e+00 2.529706e+00 2.321347e+00 2.263493e+00 2.204906e+00 2.150632e+00 1.922280e+00 1.828333e+00 5.744245e-04
<GCONST> 8.700248e+01
<MIXTURE> 92 7.852945e-03
<MEAN> 25
 5.981017e+00 -7.411977e+00 -8.355923e+00 -5.239939e+00 3.504817e+00 -3.321393e-01 -1.955046e+00 7.591966e-01 9.077488e-01 -2.866571e+00 -4.601233e+00 -5.257559e+00 2.420148e-01 1.010652e+00 2.560869e-01 4.983792e-01 -1.340105e-02 -6.334167e-01 -4.080467e-01 -1.192477e-01 -1.533986e-01 4.502334e-01 -1.290601e-01 2.568937e-01 -3.445860e-02
<VARIANCE> 25
 1.267798e+01 2.337786e+01 1.971294e+01 3.855506e+01 3.740593e+01 5.335180e+01 5.310446e+01 3.766790e+01 5.020657e+01 6.125838e+01 3.819356e+01 4.025439e+01 4.300043e-01 8.564761e-01 1.140807e+00 1.382054e+00 2.152885e+00 2.529706e+00 2.321347e+00 2.263493e+00 2.204906e+00 2.150632e+00 1.922280e+00 1.828333e+00 5.744245e-04
<GCONST> 8.700248e+01
<MIXTURE> 93 6.122769e-03
<MEAN> 25
 -6.800635e+00 -9.480124e-01 -2.343177e+00 5.783929e+00 5.895785e+00 3.901222e+00 6.143709e+00 3.634186e+00 4.084742e+00 2.419731e+00 1.813856e+00 3.689190e+00 -6.022744e-02 -1.507461e-01 -2.479525e-01 -3.266923e-01 -3.330356e-01 -2.856221e-01 -2.151220e-01 -1.725511e-01 -1.733160e-01 -1.533491e-01 -9.181175e-02 -3.936463e-02 -2.364326e-06
<VARIANCE> 25
 9.027297e+00 5.962993e+00 8.330595e+00 1.123983e+01 1.135678e+01 1.582685e+01 1.511749e+01 1.637209e+01 1.468099e+01 1.509258e+01 1.658693e+01 1.330138e+01 8.181459e-02 1.523157e-01 2.672522e-01 3.791191e-01 4.931334e-01 6.355577e-01 7.706653e-01 8.833803e-01 9.087956e-01 8.682167e-01 9.045783e-01 9.095023e-01 9.976486e-07
<GCONST> 5.350309e+01
<MIXTURE> 94 6.122769e-03
<MEAN> 25
 -6.800635e+00 -9.480124e-01 -2.343177e+00 5.783929e+00 5.895785e+00 3.901222e+00 6.143709e+00 3.634186e+00 4.084742e+00 2.419731e+00 1.813856e+00 3.689190e+00 -6.022744e-02 -1.507461e-01 -2.479525e-01 -3.266923e-01 -3.330356e-01 -2.856221e-01 -2.151220e-01 -1.725511e-01 -1.733160e-01 -1.533491e-01 -9.181175e-02 -3.936463e-02 -2.364326e-06
<VARIANCE> 25
 9.027297e+00 5.962993e+00 8.330595e+00 1.123983e+01 1.135678e+01 1.582685e+01 1.511749e+01 1.637209e+01 1.468099e+01 1.509258e+01 1.658693e+01 1.330138e+01 8.181459e-02 1.523157e-01 2.672522e-01 3.791191e-01 4.931334e-01 6.355577e-01 7.706653e-01 8.833803e-01 9.087956e-01 8.682167e-01 9.045783e-01 9.095023e-01 9.976486e-07
<GCONST> 5.350309e+01
<MIXTURE> 95 5.258835e-03
<MEAN> 25
 -5.267629e+00 -5.308223e-01 2.045832e-01 5.463701e+00 3.388720e+00 2.013868e+00 3.366571e+00 8.784299e-01 5.530534e-01 -5.088233e-01 -3.417068e-01 1.355793e+00 1.220681e-01 1.670506e-01 8.125407e-02 -2.182643e-01 -5.265105e-01 -8.737943e-01 -9.990973e-01 -1.046841e+00 -1.220316e+00 -9.869980e-01 -8.564309e-01 -4.933041e-01 8.894875e-04
<VARIANCE> 25
 6.358728e+00 4.371869e+00 1.368265e+01 1.195117e+01 1.191754e+01 1.725905e+01 1.687402e+01 1.340644e+01 1.848862e+01 1.356780e+01 1.532944e+01 1.281671e+01 1.965970e-01 2.271467e-01 4.640404e-01 7.331052e-01 7.593451e-01 7.175168e-01 8.658149e-01 7.864934e-01 8.341821e-01 9.343894e-01 1.420132e+00 9.762768e-01 6.273163e-05
<GCONST> 6.114452e+01
<MIXTURE> 96 7.034694e-03
<MEAN> 25
 -5.134924e+00 -3.863878e-01 -1.816939e+00 5.030070e+00 3.806717e+00 1.612419e+00 3.368973e+00 1.616609e+00 2.278843e+00 7.333682e-01 8.914831e-01 2.653070e+00 -4.069327e-02 7.433991e-02 2.444721e-01 4.250961e-01 5.249499e-01 4.598932e-01 2.236483e-01 -1.167130e-01 -4.047368e-01 -6.674620e-01 -6.332703e-01 -3.366016e-01 -8.323421e-05
<VARIANCE> 25
 1.016567e+01 9.340565e+00 1.366109e+01 1.342355e+01 1.411164e+01 1.847064e+01 1.741744e+01 1.833718e+01 1.836409e+01 1.876946e+01 1.959966e+01 1.380586e+01 1.193856e-01 2.028755e-01 3.075888e-01 3.879848e-01 4.714965e-01 6.466780e-01 8.375092e-01 9.377728e-01 9.533225e-01 8.093170e-01 8.896700e-01 9.319654e-01 1.036363e-06
<GCONST> 5.698250e+01
<MIXTURE> 97 7.034694e-03
<MEAN> 25
 -5.134924e+00 -3.863878e-01 -1.816939e+00 5.030070e+00 3.806717e+00 1.612419e+00 3.368973e+00 1.616609e+00 2.278843e+00 7.333682e-01 8.914831e-01 2.653070e+00 -4.069327e-02 7.433991e-02 2.444721e-01 4.250961e-01 5.249499e-01 4.598932e-01 2.236483e-01 -1.167130e-01 -4.047368e-01 -6.674620e-01 -6.332703e-01 -3.366016e-01 -8.323421e-05
<VARIANCE> 25
 1.016567e+01 9.340565e+00 1.366109e+01 1.342355e+01 1.411164e+01 1.847064e+01 1.741744e+01 1.833718e+01 1.836409e+01 1.876946e+01 1.959966e+01 1.380586e+01 1.193856e-01 2.028755e-01 3.075888e-01 3.879848e-01 4.714965e-01 6.466780e-01 8.375092e-01 9.377728e-01 9.533225e-01 8.093170e-01 8.896700e-01 9.319654e-01 1.036363e-06
<GCONST> 5.698250e+01
<MIXTURE> 98 9.917808e-03
<MEAN> 25
 -1.033222e+00 6.816187e-01 1.013245e+00 3.340305e+00 2.166991e+00 1.310902e+00 2.539646e+00 2.092085e+00 1.392633e+00 4.952931e-01 8.033333e-01 1.101578e+00 -2.016919e+00 -1.741333e+00 -9.206570e-01 9.980707e-02 5.059872e-01 5.790983e-01 1.166031e+00 1.257753e+00 1.260086e+00 6.469285e-01 7.683429e-01 7.519597e-01 -3.675493e-02
<VARIANCE> 25
 1.396939e+01 1.490457e+01 2.637918e+01 2.428958e+01 3.435336e+01 3.550932e+01 2.414987e+01 2.344708e+01 2.030499e+01 2.189622e+01 2.199522e+01 2.419361e+01 1.710048e+00 1.422454e+00 1.923597e+00 1.891742e+00 2.571464e+00 2.678790e+00 2.637501e+00 2.105103e+00 2.618078e+00 2.505431e+00 2.416375e+00 1.669530e+00 2.390712e-03
<GCONST> 8.663190e+01
<MIXTURE> 99 6.696178e-03
<MEAN> 25
 -5.665922e+00 8.438773e+00 6.288894e+00 3.248811e+00 8.184280e-01 -4.914918e+00 -1.871193e+00 -3.589996e+00 -3.514793e+00 -3.647141e+00 -1.708428e+00 3.061472e-01 5.324694e-01 -5.263535e-01 1.958320e-01 -6.048034e-01 -1.170636e+00 -6.192370e-01 -2.890847e-01 -2.553332e-01 -1.197863e-01 4.475045e-02 2.585498e-01 2.398901e-01 1.121992e-02
<VARIANCE> 25
 3.270597e+01 3.010481e+01 4.106159e+01 2.735414e+01 3.083940e+01 3.145936e+01 2.538081e+01 2.625661e+01 2.356927e+01 2.325151e+01 1.779649e+01 2.460588e+01 1.944745e+00 1.765695e+00 1.491599e+00 2.040863e+00 2.424455e+00 1.856495e+00 1.448613e+00 1.505193e+00 1.428938e+00 1.399383e+00 1.161241e+00 1.184794e+00 1.378018e-03
<GCONST> 8.468643e+01
<MIXTURE> 100 4.498084e-03
<MEAN> 25
 -1.598878e+00 6.344827e+00 1.027700e+01 -7.462759e+00 -1.078206e+01 -5.075294e+00 -4.941668e+00 -9.968847e+00 -4.718240e+00 -8.551691e-01 -2.733300e+00 -2.708267e+00 2.917895e+00 -1.260455e+00 1.299659e+00 -2.185945e+00 -3.419489e+00 -7.841161e-01 -1.218778e+00 -8.197802e-01 -1.475479e+00 3.466953e-01 -1.655620e+00 -2.862392e-01 2.015521e-03
<VARIANCE> 25
 1.362666e+01 2.105913e+01 2.246177e+01 2.642710e+01 2.301848e+01 2.372172e+01 2.911146e+01 2.170685e+01 2.748231e+01 2.265230e+01 2.241141e+01 2.134114e+01 1.799129e+00 3.953767e+00 2.919965e+00 4.286306e+00 4.184435e+00 4.537227e+00 4.015484e+00 4.340374e+00 4.167888e+00 3.896067e+00 3.910382e+00 3.225015e+00 1.674840e-03
<GCONST> 9.256865e+01
<MIXTURE> 101 6.007792e-03
<MEAN> 25
 8.132509e+00 -3.420905e+00 -6.321118e+00 -6.846699e+00 8.251298e-01 -1.196042e+00 -1.053293e+01 -2.093231e+00 1.674702e+00 2.735513e+00 -2.352895e+00 -5.125981e+00 6.705579e-01 6.459946e-01 -1.455979e+00 -1.597474e+00 1.026006e+00 2.287580e+00 1.847644e-01 -1.458802e+00 -1.047203e+00 1.026986e+00 1.367109e+00 -4.178602e-01 -4.487353e-03
<VARIANCE> 25
 9.529565e+00 1.704667e+01 2.960960e+01 4.272642e+01 3.592631e+01 3.609187e+01 3.707169e+01 3.612257e+01 3.810590e+01 4.364565e+01 5.149773e+01 2.414968e+01 2.927335e-01 6.661197e-01 1.168602e+00 1.560248e+00 1.676707e+00 2.177232e+00 2.089953e+00 1.975139e+00 2.366177e+00 2.211732e+00 1.777092e+00 1.939055e+00 3.527197e-04
<GCONST> 8.371073e+01
<MIXTURE> 102 6.007792e-03
<MEAN> 25
 8.132509e+00 -3.420905e+00 -6.321118e+00 -6.846699e+00 8.251298e-01 -1.196042e+00 -1.053293e+01 -2.093231e+00 1.674702e+00 2.735513e+00 -2.352895e+00 -5.125981e+00 6.705579e-01 6.459946e-01 -1.455979e+00 -1.597474e+00 1.026006e+00 2.287580e+00 1.847644e-01 -1.458802e+00 -1.047203e+00 1.026986e+00 1.367109e+00 -4.178602e-01 -4.487353e-03
<VARIANCE> 25
 9.529565e+00 1.704667e+01 2.960960e+01 4.272642e+01 3.592631e+01 3.609187e+01 3.707169e+01 3.612257e+01 3.810590e+01 4.364565e+01 5.149773e+01 2.414968e+01 2.927335e-01 6.661197e-01 1.168602e+00 1.560248e+00 1.676707e+00 2.177232e+00 2.089953e+00 1.975139e+00 2.366177e+00 2.211732e+00 1.777092e+00 1.939055e+00 3.527197e-04
<GCONST> 8.371073e+01
<MIXTURE> 103 5.694618e-03
<MEAN> 25
 2.735075e+00 -9.633974e+00 -5.918926e+00 -3.394773e+00 -1.452226e+00 -2.081623e+00 2.294113e+00 2.564783e+00 -3.671583e+00 -8.806337e+00 -4.901899e+00 -1.914524e-01 -4.331970e-02 -1.376170e+00 -9.731341e-01 3.377050e-01 9.944184e-01 8.376454e-01 -2.681528e-02 -4.073693e-01 -6.995620e-01 -8.968661e-01 1.384803e-02 2.083030e-01 2.828729e-02
<VARIANCE> 25
 1.255223e+01 1.927889e+01 2.150259e+01 2.969687e+01 4.485010e+01 3.248069e+01 4.396901e+01 3.330599e+01 4.538860e+01 2.864408e+01 2.794590e+01 2.752016e+01 7.437721e-01 1.267331e+00 1.425272e+00 1.806347e+00 3.222166e+00 2.551914e+00 3.208187e+00 2.648497e+00 2.516358e+00 2.800501e+00 1.998126e+00 1.952204e+00 8.257326e-04
<GCONST> 8.763135e+01
<MIXTURE> 104 5.694618e-03
<MEAN> 25
 2.735075e+00 -9.633974e+00 -5.918926e+00 -3.394773e+00 -1.452226e+00 -2.081623e+00 2.294113e+00 2.564783e+00 -3.671583e+00 -8.806337e+00 -4.901899e+00 -1.914524e-01 -4.331970e-02 -1.376170e+00 -9.731341e-01 3.377050e-01 9.944184e-01 8.376454e-01 -2.681528e-02 -4.073693e-01 -6.995620e-01 -8.968661e-01 1.384803e-02 2.083030e-01 2.828729e-02
<VARIANCE> 25
 1.255223e+01 1.927889e+01 2.150259e+01 2.969687e+01 4.485010e+01 3.248069e+01 4.396901e+01 3.330599e+01 4.538860e+01 2.864408e+01 2.794590e+01 2.752016e+01 7.437721e-01 1.267331e+00 1.425272e+00 1.806347e+00 3.222166e+00 2.551914e+00 3.208187e+00 2.648497e+00 2.516358e+00 2.800501e+00 1.998126e+00 1.952204e+00 8.257326e-04
<GCONST> 8.763135e+01
<MIXTURE> 105 4.710235e-03
<MEAN> 25
 2.090732e+00 -1.460408e+00 9.213741e+00 -2.533921e+00 -1.136513e+01 -5.005290e+00 -4.199211e+00 -7.632670e-01 -3.862318e+00 -3.189532e+00 1.442136e+00 -1.186929e+00 1.210453e-02 3.186973e-02 5.126366e-02 -4.057669e-02 -3.483555e-03 6.444187e-02 6.388481e-03 5.222062e-02 -3.928031e-02 1.239007e-02 3.105455e-02 -1.975896e-02 -2.213418e-03
<VARIANCE> 25
 1.409397e+01 2.819281e+01 4.031872e+01 4.543437e+01 4.018282e+01 5.280825e+01 4.062931e+01 4.260221e+01 3.917128e+01 4.128872e+01 4.151681e+01 3.028871e+01 8.346563e-02 1.834692e-01 3.391190e-01 2.917648e-01 3.723573e-01 4.406804e-01 4.861630e-01 4.867955e-01 4.892898e-01 4.522261e-01 4.157641e-01 4.174410e-01 8.813044e-05
<GCONST> 6.674973e+01
<MIXTURE> 106 4.710235e-03
<MEAN> 25
 2.090732e+00 -1.460408e+00 9.213741e+00 -2.533921e+00 -1.136513e+01 -5.005290e+00 -4.199211e+00 -7.632670e-01 -3.862318e+00 -3.189532e+00 1.442136e+00 -1.186929e+00 1.210453e-02 3.186973e-02 5.126366e-02 -4.057669e-02 -3.483555e-03 6.444187e-02 6.388481e-03 5.222062e-02 -3.928031e-02 1.239007e-02 3.105455e-02 -1.975896e-02 -2.213418e-03
<VARIANCE> 25
 1.409397e+01 2.819281e+01 4.031872e+01 4.543437e+01 4.018282e+01 5.280825e+01 4.062931e+01 4.260221e+01 3.917128e+01 4.128872e+01 4.151681e+01 3.028871e+01 8.346563e-02 1.834692e-01 3.391190e-01 2.917648e-01 3.723573e-01 4.406804e-01 4.861630e-01 4.867955e-01 4.892898e-01 4.522261e-01 4.157641e-01 4.174410e-01 8.813044e-05
<GCONST> 6.674973e+01
<MIXTURE> 107 5.452374e-03
<MEAN> 25
 8.609992e+00 -2.221628e+00 -7.992706e+00 -9.475064e+00 1.914405e+00 2.929812e+00 -8.666963e+00 -4.514021e+00 -8.429313e-01 3.500669e+00 1.006789e+00 -4.922119e+00 -6.031541e-01 -7.423909e-01 8.449376e-01 1.775466e+00 2.386949e-01 -1.969991e+00 -9.015017e-01 8.142899e-01 1.730453e+00 2.887385e-02 -1.637878e+00 -8.172334e-01 -2.182083e-03
<VARIANCE> 25
 9.729056e+00 2.073969e+01 2.804964e+01 4.257401e+01 3.529663e+01 3.794341e+01 5.046227e+01 3.578202e+01 4.545374e+01 4.172801e+01 5.213415e+01 3.154160e+01 3.539132e-01 1.000322e+00 1.513492e+00 2.401573e+00 2.258292e+00 2.876004e+00 2.603529e+00 2.558687e+00 2.361224e+00 3.000794e+00 1.945273e+00 2.188412e+00 7.090251e-04
<GCONST> 8.816541e+01
<MIXTURE> 108 5.452374e-03
<MEAN> 25
 8.609992e+00 -2.221628e+00 -7.992706e+00 -9.475064e+00 1.914405e+00 2.929812e+00 -8.666963e+00 -4.514021e+00 -8.429313e-01 3.500669e+00 1.006789e+00 -4.922119e+00 -6.031541e-01 -7.423909e-01 8.449376e-01 1.775466e+00 2.386949e-01 -1.969991e+00 -9.015017e-01 8.142899e-01 1.730453e+00 2.887385e-02 -1.637878e+00 -8.172334e-01 -2.182083e-03
<VARIANCE> 25
 9.729056e+00 2.073969e+01 2.804964e+01 4.257401e+01 3.529663e+01 3.794341e+01 5.046227e+01 3.578202e+01 4.545374e+01 4.172801e+01 5.213415e+01 3.154160e+01 3.539132e-01 1.000322e+00 1.513492e+00 2.401573e+00 2.258292e+00 2.876004e+00 2.603529e+00 2.558687e+00 2.361224e+00 3.000794e+00 1.945273e+00 2.188412e+00 7.090251e-04
<GCONST> 8.816541e+01
<MIXTURE> 109 6.661064e-03
<MEAN> 25
 3.929690e+00 -1.061054e+01 -8.261536e+00 -1.446618e+00 2.456066e+00 -1.145339e-01 5.877234e-02 1.488223e+00 -2.295862e+00 -8.222440e+00 -5.253006e+00 7.121329e-02 -4.473621e-02 -1.257913e-01 -2.182316e-02 2.528426e-01 1.858329e-01 1.390558e-01 -9.039604e-02 -1.060840e-01 -4.333313e-02 -1.483418e-01 2.071064e-01 1.635847e-02 -4.120287e-03
<VARIANCE> 25
 9.912580e+00 1.830090e+01 1.970711e+01 3.115399e+01 4.404502e+01 3.637102e+01 4.694810e+01 3.381667e+01 4.889407e+01 3.563312e+01 2.973655e+01 2.779988e+01 1.967926e-01 4.190383e-01 5.345672e-01 6.221681e-01 1.261986e+00 1.007083e+00 1.309412e+00 1.078125e+00 1.152599e+00 9.589884e-01 8.744066e-01 8.848787e-01 1.992722e-04
<GCONST> 7.480803e+01
<MIXTURE> 110 6.661064e-03
<MEAN> 25
 3.929690e+00 -1.061054e+01 -8.261536e+00 -1.446618e+00 2.456066e+00 -1.145339e-01 5.877234e-02 1.488223e+00 -2.295862e+00 -8.222440e+00 -5.253006e+00 7.121329e-02 -4.473621e-02 -1.257913e-01 -2.182316e-02 2.528426e-01 1.858329e-01 1.390558e-01 -9.039604e-02 -1.060840e-01 -4.333313e-02 -1.483418e-01 2.071064e-01 1.635847e-02 -4.120287e-03
<VARIANCE> 25
 9.912580e+00 1.830090e+01 1.970711e+01 3.115399e+01 4.404502e+01 3.637102e+01 4.694810e+01 3.381667e+01 4.889407e+01 3.563312e+01 2.973655e+01 2.779988e+01 1.967926e-01 4.190383e-01 5.345672e-01 6.221681e-01 1.261986e+00 1.007083e+00 1.309412e+00 1.078125e+00 1.152599e+00 9.589884e-01 8.744066e-01 8.848787e-01 1.992722e-04
<GCONST> 7.480803e+01
<MIXTURE> 111 4.337247e-03
<MEAN> 25
 -4.157913e+00 -4.332673e-01 5.008933e-02 2.607627e+00 1.486731e+00 4.762315e-01 -4.558693e-01 -2.094385e-01 -1.338163e+00 -1.318973e+00 -1.261994e+00 1.242311e+00 -4.288569e-02 8.015265e-03 -4.872731e-02 -2.600734e-02 4.666685e-02 6.065446e-02 1.361082e-01 -5.425186e-02 -2.080509e-01 -3.271238e-01 -2.766908e-01 -2.640747e-01 3.488887e-04
<VARIANCE> 25
 5.384052e+00 4.217678e+00 1.075975e+01 8.538535e+00 1.284784e+01 1.723568e+01 1.279653e+01 1.189935e+01 1.188633e+01 1.245932e+01 1.130661e+01 1.018316e+01 9.912377e-02 1.388105e-01 2.995870e-01 3.780208e-01 4.987529e-01 6.624832e-01 8.629899e-01 1.051099e+00 7.739463e-01 8.921677e-01 7.098938e-01 9.703601e-01 4.379543e-05
<GCONST> 5.531166e+01
<MIXTURE> 112 4.337247e-03
<MEAN> 25
 -4.157913e+00 -4.332673e-01 5.008933e-02 2.607627e+00 1.486731e+00 4.762315e-01 -4.558693e-01 -2.094385e-01 -1.338163e+00 -1.318973e+00 -1.261994e+00 1.242311e+00 -4.288569e-02 8.015265e-03 -4.872731e-02 -2.600734e-02 4.666685e-02 6.065446e-02 1.361082e-01 -5.425186e-02 -2.080509e-01 -3.271238e-01 -2.766908e-01 -2.640747e-01 3.488887e-04
<VARIANCE> 25
 5.384052e+00 4.217678e+00 1.075975e+01 8.538535e+00 1.284784e+01 1.723568e+01 1.279653e+01 1.189935e+01 1.188633e+01 1.245932e+01 1.130661e+01 1.018316e+01 9.912377e-02 1.388105e-01 2.995870e-01 3.780208e-01 4.987529e-01 6.624832e-01 8.629899e-01 1.051099e+00 7.739463e-01 8.921677e-01 7.098938e-01 9.703601e-01 4.379543e-05
<GCONST> 5.531166e+01
<MIXTURE> 113 5.938666e-03
<MEAN> 25
 9.959308e+00 1.770982e+00 -8.696549e+00 -1.670626e+01 -1.074907e+00 5.511987e+00 -5.317230e+00 -1.508874e+00 -5.346623e+00 -2.894026e-01 4.563794e-01 -2.945046e-01 4.582794e-03 7.281101e-03 -5.940913e-02 -1.149542e-01 1.053338e-01 1.292053e-01 1.227505e-02 1.353979e-02 -7.308227e-02 -3.217256e-02 1.976429e-01 7.125243e-02 -8.075284e-04
<VARIANCE> 25
 9.460478e+00 1.604453e+01 2.904252e+01 3.677768e+01 5.087944e+01 3.403912e+01 3.929382e+01 3.783257e+01 3.981530e+01 4.622123e+01 3.599804e+01 2.844282e+01 1.179192e-01 3.133133e-01 3.138392e-01 6.157706e-01 6.093789e-01 6.930014e-01 9.137200e-01 8.487846e-01 9.564676e-01 9.128767e-01 7.452267e-01 7.499478e-01 1.304697e-04
<GCONST> 7.143320e+01
<MIXTURE> 114 5.938666e-03
<MEAN> 25
 9.959308e+00 1.770982e+00 -8.696549e+00 -1.670626e+01 -1.074907e+00 5.511987e+00 -5.317230e+00 -1.508874e+00 -5.346623e+00 -2.894026e-01 4.563794e-01 -2.945046e-01 4.582794e-03 7.281101e-03 -5.940913e-02 -1.149542e-01 1.053338e-01 1.292053e-01 1.227505e-02 1.353979e-02 -7.308227e-02 -3.217256e-02 1.976429e-01 7.125243e-02 -8.075284e-04
<VARIANCE> 25
 9.460478e+00 1.604453e+01 2.904252e+01 3.677768e+01 5.087944e+01 3.403912e+01 3.929382e+01 3.783257e+01 3.981530e+01 4.622123e+01 3.599804e+01 2.844282e+01 1.179192e-01 3.133133e-01 3.138392e-01 6.157706e-01 6.093789e-01 6.930014e-01 9.137200e-01 8.487846e-01 9.564676e-01 9.128767e-01 7.452267e-01 7.499478e-01 1.304697e-04
<GCONST> 7.143320e+01
<MIXTURE> 115 2.935202e-03
<MEAN> 25
 -4.156934e+00 -7.140082e-01 -2.423296e+00 3.938584e+00 2.585141e+00 -6.039436e-01 2.049703e+00 4.358818e-01 1.003953e+00 -2.177905e-01 -1.860120e-01 2.446254e+00 4.983456e-02 -4.017782e-02 -2.244750e-01 -4.182437e-01 -6.291496e-01 -7.363396e-01 -6.549459e-01 -5.242555e-01 -5.213704e-01 -4.894184e-01 -2.960285e-01 -1.858210e-01 -2.873621e-05
<VARIANCE> 25
 8.904508e+00 9.224453e+00 1.777986e+01 1.318631e+01 1.294772e+01 1.674986e+01 1.723822e+01 1.970501e+01 1.993177e+01 1.785548e+01 1.841253e+01 1.514741e+01 2.060316e-01 3.331148e-01 4.734280e-01 5.720005e-01 6.250397e-01 8.518707e-01 1.060002e+00 1.115830e+00 1.032092e+00 9.790382e-01 9.991384e-01 1.062227e+00 1.162984e-06
<GCONST> 6.048301e+01
<MIXTURE> 116 2.935202e-03
<MEAN> 25
 -4.156934e+00 -7.140082e-01 -2.423296e+00 3.938584e+00 2.585141e+00 -6.039436e-01 2.049703e+00 4.358818e-01 1.003953e+00 -2.177905e-01 -1.860120e-01 2.446254e+00 4.983456e-02 -4.017782e-02 -2.244750e-01 -4.182437e-01 -6.291496e-01 -7.363396e-01 -6.549459e-01 -5.242555e-01 -5.213704e-01 -4.894184e-01 -2.960285e-01 -1.858210e-01 -2.873621e-05
<VARIANCE> 25
 8.904508e+00 9.224453e+00 1.777986e+01 1.318631e+01 1.294772e+01 1.674986e+01 1.723822e+01 1.970501e+01 1.993177e+01 1.785548e+01 1.841253e+01 1.514741e+01 2.060316e-01 3.331148e-01 4.734280e-01 5.720005e-01 6.250397e-01 8.518707e-01 1.060002e+00 1.115830e+00 1.032092e+00 9.790382e-01 9.991384e-01 1.062227e+00 1.162984e-06
<GCONST> 6.048301e+01
<MIXTURE> 117 6.506003e-03
<MEAN> 25
 -4.645178e+00 1.116638e+00 1.054749e+00 9.756065e+00 6.258345e+00 6.255252e+00 6.463457e+00 5.043303e+00 6.383848e+00 4.924052e+00 6.364494e+00 2.707755e+00 -7.486044e-02 -2.338043e-01 -3.579702e-01 -4.196147e-01 -3.680833e-01 -3.029014e-01 -2.875888e-01 -3.319687e-01 -3.920496e-01 -3.690870e-01 -2.630003e-01 -1.166956e-01 -8.078903e-06
<VARIANCE> 25
 7.182230e+00 8.748036e+00 9.808723e+00 1.430544e+01 1.560978e+01 1.535082e+01 1.772444e+01 1.795122e+01 1.640161e+01 1.639511e+01 1.674575e+01 1.475074e+01 2.165329e-01 3.074279e-01 4.260531e-01 6.168873e-01 8.539606e-01 1.054919e+00 1.177142e+00 1.233165e+00 1.223613e+00 1.194055e+00 1.166532e+00 1.113932e+00 1.004716e-06
<GCONST> 6.042953e+01
<MIXTURE> 118 6.506003e-03
<MEAN> 25
 -4.645178e+00 1.116638e+00 1.054749e+00 9.756065e+00 6.258345e+00 6.255252e+00 6.463457e+00 5.043303e+00 6.383848e+00 4.924052e+00 6.364494e+00 2.707755e+00 -7.486044e-02 -2.338043e-01 -3.579702e-01 -4.196147e-01 -3.680833e-01 -3.029014e-01 -2.875888e-01 -3.319687e-01 -3.920496e-01 -3.690870e-01 -2.630003e-01 -1.166956e-01 -8.078903e-06
<VARIANCE> 25
 7.182230e+00 8.748036e+00 9.808723e+00 1.430544e+01 1.560978e+01 1.535082e+01 1.772444e+01 1.795122e+01 1.640161e+01 1.639511e+01 1.674575e+01 1.475074e+01 2.165329e-01 3.074279e-01 4.260531e-01 6.168873e-01 8.539606e-01 1.054919e+00 1.177142e+00 1.233165e+00 1.223613e+00 1.194055e+00 1.166532e+00 1.113932e+00 1.004716e-06
<GCONST> 6.042953e+01
<MIXTURE> 119 4.297961e-03
<MEAN> 25
 -4.957206e+00 -7.861019e+00 1.659058e+00 1.190038e+00 1.747790e+00 4.605353e-01 5.376984e+00 6.085282e+00 1.651367e+00 1.343076e+00 5.678267e+00 1.204727e+00 -6.416275e-02 -1.786699e-01 3.202992e-02 -1.265596e-01 -1.089105e-01 -2.416977e-01 -8.948856e-02 4.900995e-02 -9.108353e-02 -1.095186e-01 -1.398928e-01 -1.070799e-01 3.616328e-03
<VARIANCE> 25
 7.315194e+00 1.142771e+01 1.792948e+01 2.291522e+01 2.101249e+01 2.103058e+01 2.429736e+01 2.526732e+01 2.703631e+01 2.863142e+01 2.082217e+01 2.070712e+01 1.627105e-01 3.229215e-01 4.288297e-01 7.216871e-01 8.199934e-01 9.704553e-01 1.019854e+00 1.273072e+00 1.383811e+00 1.524390e+00 1.296005e+00 1.424676e+00 2.665749e-04
<GCONST> 7.066380e+01
<MIXTURE> 120 4.297961e-03
<MEAN> 25
 -4.957206e+00 -7.861019e+00 1.659058e+00 1.190038e+00 1.747790e+00 4.605353e-01 5.376984e+00 6.085282e+00 1.651367e+00 1.343076e+00 5.678267e+00 1.204727e+00 -6.416275e-02 -1.786699e-01 3.202992e-02 -1.265596e-01 -1.089105e-01 -2.416977e-01 -8.948856e-02 4.900995e-02 -9.108353e-02 -1.095186e-01 -1.398928e-01 -1.070799e-01 3.616328e-03
<VARIANCE> 25
 7.315194e+00 1.142771e+01 1.792948e+01 2.291522e+01 2.101249e+01 2.103058e+01 2.429736e+01 2.526732e+01 2.703631e+01 2.863142e+01 2.082217e+01 2.070712e+01 1.627105e-01 3.229215e-01 4.288297e-01 7.216871e-01 8.199934e-01 9.704553e-01 1.019854e+00 1.273072e+00 1.383811e+00 1.524390e+00 1.296005e+00 1.424676e+00 2.665749e-04
<GCONST> 7.066380e+01
<MIXTURE> 121 4.567511e-03
<MEAN> 25
 2.023324e-01 -2.528642e+00 5.131275e+00 -1.288241e+01 -1.263408e+01 -1.668793e+00 1.005609e+00 -5.099279e+00 -4.182395e+00 -4.963254e-01 -5.499325e+00 -4.312204e+00 2.436945e-02 1.339179e-01 -3.960409e-02 8.074167e-02 1.595821e-01 7.412481e-02 -8.189304e-02 -1.836896e-01 -2.706192e-01 -2.575141e-01 -1.148450e-01 9.285030e-04 -7.439211e-03
<VARIANCE> 25
 7.728457e+00 1.560768e+01 1.747357e+01 2.052138e+01 2.444860e+01 2.920622e+01 2.953608e+01 2.457136e+01 3.539772e+01 2.831389e+01 1.974529e+01 2.117074e+01 1.551080e-01 6.438925e-01 6.242526e-01 7.045716e-01 7.698638e-01 1.165509e+00 1.122756e+00 1.119175e+00 1.219372e+00 1.191550e+00 9.403546e-01 8.740908e-01 2.108502e-04
<GCONST> 7.143338e+01
<MIXTURE> 122 4.567511e-03
<MEAN> 25
 2.023324e-01 -2.528642e+00 5.131275e+00 -1.288241e+01 -1.263408e+01 -1.668793e+00 1.005609e+00 -5.099279e+00 -4.182395e+00 -4.963254e-01 -5.499325e+00 -4.312204e+00 2.436945e-02 1.339179e-01 -3.960409e-02 8.074167e-02 1.595821e-01 7.412481e-02 -8.189304e-02 -1.836896e-01 -2.706192e-01 -2.575141e-01 -1.148450e-01 9.285030e-04 -7.439211e-03
<VARIANCE> 25
 7.728457e+00 1.560768e+01 1.747357e+01 2.052138e+01 2.444860e+01 2.920622e+01 2.953608e+01 2.457136e+01 3.539772e+01 2.831389e+01 1.974529e+01 2.117074e+01 1.551080e-01 6.438925e-01 6.242526e-01 7.045716e-01 7.698638e-01 1.165509e+00 1.122756e+00 1.119175e+00 1.219372e+00 1.191550e+00 9.403546e-01 8.740908e-01 2.108502e-04
<GCONST> 7.143338e+01
<MIXTURE> 123 4.393044e-03
<MEAN> 25
 -4.492632e+00 1.093195e-01 1.228768e+00 5.432725e+00 3.845543e+00 1.672921e+00 2.886729e+00 5.773570e-01 -6.613493e-01 -2.040192e+00 -1.317160e+00 -4.162662e-02 -3.630954e-01 -7.255477e-01 -6.641264e-01 -5.134265e-01 -7.363568e-02 4.041245e-01 5.200632e-01 9.843882e-01 6.821763e-01 6.528720e-01 5.787929e-01 5.098705e-01 -2.487047e-03
<VARIANCE> 25
 6.486054e+00 8.589578e+00 1.205314e+01 1.565162e+01 1.713754e+01 2.181250e+01 1.729970e+01 1.612761e+01 1.531385e+01 1.698846e+01 1.466906e+01 1.427618e+01 2.779625e-01 4.029915e-01 3.776640e-01 7.541466e-01 7.914895e-01 1.371452e+00 1.110524e+00 1.157951e+00 1.349148e+00 1.476726e+00 8.781632e-01 9.690753e-01 1.324492e-04
<GCONST> 6.615479e+01
<MIXTURE> 124 4.069876e-03
<MEAN> 25
 -6.209957e+00 -1.039451e+00 -2.324996e+00 5.217370e+00 4.864193e+00 3.202178e+00 5.096596e+00 2.382729e+00 2.873911e+00 9.014077e-01 6.161577e-01 2.926885e+00 -1.996469e-01 -3.190655e-01 -3.407415e-01 -1.785124e-01 1.826776e-01 5.516425e-01 9.582938e-01 9.330400e-01 5.516798e-01 3.011625e-01 8.446949e-02 -4.145658e-02 6.294249e-06
<VARIANCE> 25
 1.022465e+01 6.290521e+00 1.179965e+01 1.218253e+01 1.108611e+01 1.893991e+01 1.480076e+01 1.673927e+01 1.545976e+01 1.622643e+01 1.834449e+01 1.316126e+01 1.033111e-01 1.713833e-01 2.623846e-01 3.867010e-01 5.476755e-01 6.749396e-01 8.169143e-01 8.493769e-01 9.259470e-01 1.055832e+00 9.977841e-01 9.198003e-01 2.256262e-05
<GCONST> 5.845951e+01
<MIXTURE> 125 4.069876e-03
<MEAN> 25
 -6.209957e+00 -1.039451e+00 -2.324996e+00 5.217370e+00 4.864193e+00 3.202178e+00 5.096596e+00 2.382729e+00 2.873911e+00 9.014077e-01 6.161577e-01 2.926885e+00 -1.996469e-01 -3.190655e-01 -3.407415e-01 -1.785124e-01 1.826776e-01 5.516425e-01 9.582938e-01 9.330400e-01 5.516798e-01 3.011625e-01 8.446949e-02 -4.145658e-02 6.294249e-06
<VARIANCE> 25
 1.022465e+01 6.290521e+00 1.179965e+01 1.218253e+01 1.108611e+01 1.893991e+01 1.480076e+01 1.673927e+01 1.545976e+01 1.622643e+01 1.834449e+01 1.316126e+01 1.033111e-01 1.713833e-01 2.623846e-01 3.867010e-01 5.476755e-01 6.749396e-01 8.169143e-01 8.493769e-01 9.259470e-01 1.055832e+00 9.977841e-01 9.198003e-01 2.256262e-05
<GCONST> 5.845951e+01
<MIXTURE> 126 2.402244e-03
<MEAN> 25
 -3.827903e+00 -6.763833e+00 -4.913028e+00 2.101491e+00 3.796982e+00 -3.016757e+00 2.224212e-01 3.297314e+00 3.211490e+00 -2.759783e+00 -1.447986e+00 2.774965e+00 1.102337e-02 -3.398837e-02 -5.547150e-02 -1.984340e-01 -3.269063e-01 -3.880394e-01 -3.077913e-01 -1.844008e-01 -6.934974e-02 -1.118019e-01 -1.037954e-01 -8.181666e-02 -4.252128e-04
<VARIANCE> 25
 6.878770e+00 1.326172e+01 1.434816e+01 1.610208e+01 2.522691e+01 2.265315e+01 2.295001e+01 2.916053e+01 3.098773e+01 2.414324e+01 1.992544e+01 1.938704e+01 1.818687e-01 4.235026e-01 4.621665e-01 6.108580e-01 7.843019e-01 9.456933e-01 1.139760e+00 1.210016e+00 1.465055e+00 1.555880e+00 1.237384e+00 1.262110e+00 2.190258e-04
<GCONST> 7.036904e+01
<MIXTURE> 127 2.402244e-03
<MEAN> 25
 -3.827903e+00 -6.763833e+00 -4.913028e+00 2.101491e+00 3.796982e+00 -3.016757e+00 2.224212e-01 3.297314e+00 3.211490e+00 -2.759783e+00 -1.447986e+00 2.774965e+00 1.102337e-02 -3.398837e-02 -5.547150e-02 -1.984340e-01 -3.269063e-01 -3.880394e-01 -3.077913e-01 -1.844008e-01 -6.934974e-02 -1.118019e-01 -1.037954e-01 -8.181666e-02 -4.252128e-04
<VARIANCE> 25
 6.878770e+00 1.326172e+01 1.434816e+01 1.610208e+01 2.522691e+01 2.265315e+01 2.295001e+01 2.916053e+01 3.098773e+01 2.414324e+01 1.992544e+01 1.938704e+01 1.818687e-01 4.235026e-01 4.621665e-01 6.108580e-01 7.843019e-01 9.456933e-01 1.139760e+00 1.210016e+00 1.465055e+00 1.555880e+00 1.237384e+00 1.262110e+00 2.190258e-04
<GCONST> 7.036904e+01
<MIXTURE> 128 3.790457e-03
<MEAN> 25
 -3.931953e+00 1.469361e+00 -2.177055e-01 6.545305e+00 3.652784e+00 1.820149e+00 3.583702e+00 2.408144e+00 3.896255e+00 3.601278e+00 3.598360e+00 3.405105e+00 -4.158953e-01 -1.963489e-01 1.063218e-01 7.241780e-01 1.195160e+00 1.103013e+00 7.218645e-01 1.290893e-01 -4.439646e-01 -7.886751e-01 -7.068549e-01 -3.857121e-01 -5.200574e-05
<VARIANCE> 25
 1.006203e+01 1.173830e+01 1.567316e+01 1.909527e+01 1.971279e+01 2.154832e+01 2.385804e+01 2.441207e+01 2.626719e+01 2.400986e+01 2.789966e+01 1.858711e+01 9.318889e-01 1.231149e+00 1.392052e+00 1.475843e+00 1.557066e+00 1.921683e+00 2.250812e+00 2.298717e+00 2.115764e+00 1.825837e+00 1.720348e+00 1.718748e+00 1.014285e-06
<GCONST> 7.376788e+01
<TRANSP> 3
 0.000000e+00 1.000000e+00 0.000000e+00
 0.000000e+00 9.999990e-01 9.999998e-07
 0.000000e+00 0.000000e+00 0.000000e+00
<ENDHMM>
